tree
version=v4
num_class=1
num_tree_per_iteration=1
label_index=0
max_feature_idx=13
objective=regression
feature_names=Column_0 Column_1 Column_2 Column_3 Column_4 Column_5 Column_6 Column_7 Column_8 Column_9 Column_10 Column_11 Column_12 Column_13
monotone_constraints=0 0 0 1 1 1 1 1 1 1 1 1 1 0
feature_infos=[0:4] [2008:2013] none [0:4] [0:3] [0:8] [0:1] [0:1] [0:1] [0:1] [0:1] [0:1] none none
tree_sizes=720 738 739 739 734 742 736 813 816 813 736 745 710 630 711 712 639 633 711 713 625 628 634 801 794 723 724 822 724 734 728 734 730 733 736 711 737 736 738 732 746 733 658 737 737 679 679 680 752 754 755 755 768 752 760 664 754 763 667 715 736 749 716 747 680 776 738 774 738 688 764 727 696 738 744 728 693 647 744 640 637 723 645 721 724 798 802 651 781 639 780 777 727 785 768 660 770 644 698 724

Tree=0
num_leaves=7
num_cat=0
split_feature=5 3 3 5 11 8
split_gain=51490.9 17041.1 1602.82 1361.69 914.92 195.301
threshold=2.5000000000000004 1.5000000000000002 2.5000000000000004 1.0000000180025095e-35 1.0000000180025095e-35 1.0000000180025095e-35
decision_type=2 2 2 2 2 2
left_child=3 4 -3 -1 5 -2
right_child=1 2 -4 -5 -6 -7
leaf_value=352.42483868014432 355.97322581729583 358.8570967446604 360.58512192144627 353.875901609327 357.30870966326808 356.5345161283401
leaf_weight=3.0000000000000018 2.9999999999999982 2.9999999999999991 4 6 3 3
leaf_count=3 3 3 4 6 3 3
internal_value=356.36 358.059 359.891 353.354 356.611 356.253
internal_weight=25 16 7 9 9 6
internal_count=25 16 7 9 9 6
is_linear=0
shrinkage=1


Tree=1
num_leaves=7
num_cat=0
split_feature=5 3 3 5 11 8
split_gain=46593.3 15422.4 1447.21 1237.33 828.502 176.878
threshold=2.5000000000000004 1.5000000000000002 2.5000000000000004 1.0000000180025095e-35 1.0000000180025095e-35 1.0000000180025095e-35
decision_type=2 2 2 2 2 2
left_child=3 4 -3 -1 5 -2
right_child=1 2 -4 -5 -6 -7
leaf_value=-3.7447500905682931 -0.36805930675998821 2.376269469722625 4.019018480254382 -2.3619295214043285 0.90280435008387383 0.16607179795542068
leaf_weight=3.0000000000000018 2.9999999999999982 2.9999999999999991 4 6 3 3
leaf_count=3 3 3 4 6 3 3
internal_value=1.78475e-05 1.61658 3.35907 -2.8595 0.23874 -0.10183
internal_weight=25 16 7 9 9 6
internal_count=25 16 7 9 9 6
is_linear=0
shrinkage=0.05


Tree=2
num_leaves=7
num_cat=0
split_feature=5 3 3 1 11 8
split_gain=42161.6 13957.4 1306.68 1156.7 750.246 160.193
threshold=2.5000000000000004 1.5000000000000002 2.5000000000000004 2009.5000000000002 1.0000000180025095e-35 1.0000000180025095e-35
decision_type=2 2 2 2 2 2
left_child=3 4 -3 -1 5 -2
right_child=1 2 -4 -5 -6 -7
leaf_value=-3.2545904122146889 -0.35024998976338306 2.2612886490360387 3.8229687202267524 -1.9872669871260478 0.85912029820103764 0.15803607086981494
leaf_weight=5.0000000000000018 2.9999999999999982 2.9999999999999991 4 4 3 3
leaf_count=5 3 3 4 4 3 3
internal_value=0.000213968 1.53799 3.19566 -2.71991 0.227188 -0.0968628
internal_weight=25 16 7 9 9 6
internal_count=25 16 7 9 9 6
is_linear=0
shrinkage=0.05


Tree=3
num_leaves=7
num_cat=0
split_feature=5 3 3 5 11 8
split_gain=38145.7 12631.6 1179.75 1069.56 679.38 145.084
threshold=2.5000000000000004 1.5000000000000002 2.5000000000000004 1.0000000180025095e-35 1.0000000180025095e-35 1.0000000180025095e-35
decision_type=2 2 2 2 2 2
left_child=3 4 -3 -1 5 -2
right_child=1 2 -4 -5 -6 -7
leaf_value=-3.40607253043882 -0.33330240163110925 2.1518715027839908 3.6364824992854419 -2.127258913634253 0.8175499423857655 0.15038916218665335
leaf_weight=3.0000000000000018 2.9999999999999982 2.9999999999999991 4 6 3 3
leaf_count=3 3 3 4 6 3 3
internal_value=0.000503963 1.46321 3.04019 -2.58682 0.216195 -0.0921362
internal_weight=25 16 7 9 9 6
internal_count=25 16 7 9 9 6
is_linear=0
shrinkage=0.05


Tree=4
num_leaves=7
num_cat=0
split_feature=5 3 3 1 11 8
split_gain=34517.7 11431.8 1065.12 988.02 615.207 131.4
threshold=2.5000000000000004 1.5000000000000002 2.5000000000000004 2009.5000000000002 1.0000000180025095e-35 1.0000000180025095e-35
decision_type=2 2 2 2 2 2
left_child=3 4 -3 -1 5 -2
right_child=1 2 -4 -5 -6 -7
leaf_value=-2.953161935245288 -0.31717486297411313 2.047748725645004 3.4590931217844885 -1.7865582954592822 0.77799110104960756 0.14311226567914406
leaf_weight=5.0000000000000018 2.9999999999999982 2.9999999999999991 4 4 3 3
leaf_count=5 3 3 4 4 3 3
internal_value=0.000656029 1.39208 2.8923 -2.46055 0.205734 -0.0876384
internal_weight=25 16 7 9 9 6
internal_count=25 16 7 9 9 6
is_linear=0
shrinkage=0.05


Tree=5
num_leaves=7
num_cat=0
split_feature=5 3 5 5 11 8
split_gain=31229.9 10345.9 994.265 924.141 557.095 119.008
threshold=2.5000000000000004 1.5000000000000002 5.5000000000000009 1.0000000180025095e-35 1.0000000180025095e-35 1.0000000180025095e-35
decision_type=2 2 2 2 2 2
left_child=3 4 -3 -1 5 -2
right_child=1 2 -4 -5 -6 -7
leaf_value=-3.098367604901711 -0.30182769067825821 2.1276350998296976 3.4864574309318286 -1.9156514652439804 0.74034633790293025 0.13618748168791492
leaf_weight=3.0000000000000018 2.9999999999999982 3.9999999999999991 3 6 3 3
leaf_count=3 3 4 3 6 3 3
internal_value=0.000896312 1.3244 2.75159 -2.34016 0.195779 -0.0833581
internal_weight=25 16 7 9 9 6
internal_count=25 16 7 9 9 6
is_linear=0
shrinkage=0.05


Tree=6
num_leaves=7
num_cat=0
split_feature=5 3 3 1 11 8
split_gain=28261.7 9365.17 967.671 843.322 504.472 107.785
threshold=2.5000000000000004 1.5000000000000002 2.5000000000000004 2009.5000000000002 1.0000000180025095e-35 1.0000000180025095e-35
decision_type=2 2 2 2 2 2
left_child=3 4 -3 -1 5 -2
right_child=1 2 -4 -5 -6 -7
leaf_value=-2.6797088772642832 -0.28722313373319569 1.8237975089780747 3.1534278497463313 -1.6059627346876191 0.70452316960980799 0.12959776232319492
leaf_weight=5.0000000000000018 2.9999999999999982 2.9999999999999991 4 4 3 3
leaf_count=5 3 3 4 4 3 3
internal_value=0.00108554 1.26014 2.618 -2.22593 0.186306 -0.079285
internal_weight=25 16 7 9 9 6
internal_count=25 16 7 9 9 6
is_linear=0
shrinkage=0.05


Tree=7
num_leaves=8
num_cat=0
split_feature=5 3 5 5 11 8 1
split_gain=25569.8 8475.55 909.927 798.182 456.818 97.621 2.44094
threshold=2.5000000000000004 1.5000000000000002 5.5000000000000009 1.0000000180025095e-35 1.0000000180025095e-35 1.0000000180025095e-35 2010.5000000000002
decision_type=2 2 2 2 2 2 2
left_child=3 4 -3 -1 5 -2 -5
right_child=1 2 -4 6 -6 -7 -8
leaf_value=-2.818783274004534 -0.27332524849522505 1.9024522874413472 3.1866182881016876 -1.9219108458488217 0.67043332745951967 0.12332690569662275 -1.4705455287810292
leaf_weight=3.0000000000000018 2.9999999999999982 3.9999999999999991 3 3 3 3 3
leaf_count=3 3 4 3 3 3 3 3
internal_value=0.00127795 1.19888 2.49064 -2.11702 0.177291 -0.075409 -1.72485
internal_weight=25 16 7 9 9 6 6
internal_count=25 16 7 9 9 6 6
is_linear=0
shrinkage=0.05


Tree=8
num_leaves=8
num_cat=0
split_feature=5 3 3 5 11 8 1
split_gain=23153.6 7672.18 877.211 722.345 413.666 88.4163 1.89278
threshold=2.5000000000000004 1.5000000000000002 2.5000000000000004 1.0000000180025095e-35 1.0000000180025095e-35 1.0000000180025095e-35 2010.5000000000002
decision_type=2 2 2 2 2 2 2
left_child=3 4 -3 -1 5 -2 -5
right_child=1 2 -4 6 -6 -7 -8
leaf_value=-2.6823904960386193 -0.26009983439599321 1.6227827748944685 2.8754783072122709 -1.8289151714694112 0.63799298040328467 0.11735947564724949 -1.3993900422127012
leaf_weight=3.0000000000000018 2.9999999999999982 2.9999999999999991 4 3 3 3 3
leaf_count=3 3 3 4 3 3 3 3
internal_value=0.00108423 1.14071 2.36973 -2.01463 0.168712 -0.0717205 -1.64143
internal_weight=25 16 7 9 9 6 6
internal_count=25 16 7 9 9 6 6
is_linear=0
shrinkage=0.05


Tree=9
num_leaves=8
num_cat=0
split_feature=5 3 5 5 11 8 1
split_gain=20964.3 6943.35 830.54 653.692 374.589 80.0801 1.41173
threshold=2.5000000000000004 1.5000000000000002 5.5000000000000009 1.0000000180025095e-35 1.0000000180025095e-35 1.0000000180025095e-35 2010.5000000000002
decision_type=2 2 2 2 2 2 2
left_child=3 4 -3 -1 5 -2 -5
right_child=1 2 -4 6 -6 -7 -8
leaf_value=-2.5525974519791124 -0.24751435018354853 1.6999361038208012 2.9134956236808525 -1.7404193324427446 0.60712235819908855 0.111680789724473 -1.3316776275634763
leaf_weight=3.0000000000000018 2.9999999999999982 3.9999999999999991 3 3 3 3 3
leaf_count=3 3 4 3 3 3 3 3
internal_value=0.000837333 1.08525 2.25445 -1.9172 0.160549 -0.0682105 -1.56205
internal_weight=25 16 7 9 9 6 6
internal_count=25 16 7 9 9 6 6
is_linear=0
shrinkage=0.05


Tree=10
num_leaves=7
num_cat=0
split_feature=5 3 3 1 11 8
split_gain=18983.4 6285.25 793.67 592.353 339.203 72.5304
threshold=2.5000000000000004 1.5000000000000002 2.5000000000000004 2009.5000000000002 1.0000000180025095e-35 1.0000000180025095e-35
decision_type=2 2 2 2 2 2
left_child=3 4 -3 -1 5 -2
right_child=1 2 -4 -5 -6 -7
leaf_value=-2.2038035336662731 -0.2355378600858874 1.4424324712445662 2.6226883678901487 -1.306939129713105 0.57774547069303439 0.10627687808967404
leaf_weight=5.0000000000000018 2.9999999999999982 2.9999999999999991 4 4 3 3
leaf_count=5 3 3 4 4 3 3
internal_value=0.000677945 1.0326 2.14501 -1.82449 0.15278 -0.0648703
internal_weight=25 16 7 9 9 6
internal_count=25 16 7 9 9 6
is_linear=0
shrinkage=0.05


Tree=11
num_leaves=7
num_cat=0
split_feature=5 3 5 5 11 8
split_gain=17175.3 5688.15 756.319 562.232 307.159 65.6931
threshold=2.5000000000000004 1.5000000000000002 5.5000000000000009 1.0000000180025095e-35 1.0000000180025095e-35 1.0000000180025095e-35
decision_type=2 2 2 2 2 2
left_child=3 4 -3 -1 5 -2
right_child=1 2 -4 -5 -6 -7
leaf_value=-2.322449013494674 -0.22414085403565442 1.5178630340390091 2.6646522768082153 -1.4075275045926454 0.54979004629196637 0.10113445263235797
leaf_weight=3.0000000000000018 2.9999999999999982 3.9999999999999991 3 6 3 3
leaf_count=3 3 4 3 6 3 3
internal_value=0.000843828 0.982403 2.04066 -1.73522 0.145388 -0.0616918
internal_weight=25 16 7 9 9 6
internal_count=25 16 7 9 9 6
is_linear=0
shrinkage=0.05


Tree=12
num_leaves=7
num_cat=0
split_feature=4 5 3 5 7 1
split_gain=15551.3 4939.98 1082.44 510.519 143.294 4.61447
threshold=1.0000000180025095e-35 2.5000000000000004 2.5000000000000004 1.0000000180025095e-35 1.0000000180025095e-35 2010.5000000000002
decision_type=2 2 2 2 2 2
left_child=1 3 -2 -1 -3 -5
right_child=2 4 -4 5 -6 -7
leaf_value=-2.2100724620203813 1.1737684552262464 -0.21656823004445719 2.3927397658185261 -1.4959292011876257 0.21432934554987676 -1.1358964735461816
leaf_weight=3 4.0000000000000018 3 4 3 5 3
leaf_count=3 4 3 4 3 5 3
internal_value=0.000976798 -0.853694 1.80589 -1.65054 0.0514467 -1.3383
internal_weight=25 17 8 9 8 6
internal_count=25 17 8 9 8 6
is_linear=0
shrinkage=0.05


Tree=13
num_leaves=6
num_cat=0
split_feature=4 5 3 1 8
split_gain=14076 4473.29 979.075 464.722 133.451
threshold=1.0000000180025095e-35 2.5000000000000004 2.5000000000000004 2009.5000000000002 1.0000000180025095e-35
decision_type=2 2 2 2 2
left_child=1 3 -2 -1 -3
right_child=2 4 -4 -5 -6
leaf_value=-1.9055340000227385 1.116511442603134 -0.20976619028276008 2.2760207990320716 -1.1147259084189809 0.20605808505240605
leaf_weight=5 4.0000000000000018 3 4 4 5
leaf_count=5 4 3 4 4 5
internal_value=0.00065353 -0.812455 1.71782 -1.57073 0.0488421
internal_weight=25 17 8 9 8
internal_count=25 17 8 9 8
is_linear=0
shrinkage=0.05


Tree=14
num_leaves=7
num_cat=0
split_feature=4 5 5 5 7 1
split_gain=12735.5 4045.97 964.079 438.754 123.769 0.379176
threshold=1.0000000180025095e-35 2.5000000000000004 5.5000000000000009 1.0000000180025095e-35 1.0000000180025095e-35 2010.5000000000002
decision_type=2 2 2 2 2 2
left_child=1 3 -2 -1 -3 -5
right_child=2 4 -4 5 -6 -7
leaf_value=-2.0109301290204442 1.1669689010171325 -0.20264597323633005 2.3481722247216004 -1.3440972051312843 0.19779883027076717 -1.0269954189177479
leaf_weight=3 5.0000000000000018 3 3 3 5 3
leaf_count=3 5 3 3 3 5 3
internal_value=0.000684314 -0.772731 1.63406 -1.49388 0.0463669 -1.2058
internal_weight=25 17 8 9 8 6
internal_count=25 17 8 9 8 6
is_linear=0
shrinkage=0.05


Tree=15
num_leaves=7
num_cat=0
split_feature=4 5 5 5 8 1
split_gain=11529.2 3663.76 874.076 396.993 115.279 0.121297
threshold=1.0000000180025095e-35 2.5000000000000004 5.5000000000000009 1.0000000180025095e-35 1.0000000180025095e-35 2010.5000000000002
decision_type=2 2 2 2 2 2
left_child=1 3 -2 -1 -3 -5
right_child=2 4 -4 5 -6 -7
leaf_value=-1.9136271076817661 1.1097645516489061 -0.19626955678386068 2.2345510359733329 -1.2790602468675181 0.19018711494464499 -0.97730204982142266
leaf_weight=3 5.0000000000000018 3 3 3 5 3
leaf_count=3 5 3 3 3 5 3
internal_value=0.000456531 -0.735406 1.55456 -1.42164 0.0440146 -1.1475
internal_weight=25 17 8 9 8 6
internal_count=25 17 8 9 8 6
is_linear=0
shrinkage=0.05


Tree=16
num_leaves=6
num_cat=0
split_feature=4 5 3 5 7
split_gain=10437.1 3317.66 855.042 359.192 106.905
threshold=1.0000000180025095e-35 2.5000000000000004 2.5000000000000004 1.0000000180025095e-35 1.0000000180025095e-35
decision_type=2 2 2 2 2
left_child=1 3 -2 -1 -3
right_child=2 4 -4 -5 -6
leaf_value=-1.8210322226247475 0.92286546521070489 -0.18957678194968927 1.9976915312976371 -1.0920112906909381 0.18256869818650037
leaf_weight=3 4.0000000000000018 3 4 6 5
leaf_count=3 4 3 4 6 5
internal_value=0.000248098 -0.699886 1.47892 -1.35291 0.0417793
internal_weight=25 17 8 9 8
internal_count=25 17 8 9 8
is_linear=0
shrinkage=0.05


Tree=17
num_leaves=6
num_cat=0
split_feature=4 5 5 1 8
split_gain=9444.08 3001.52 779.601 335.704 99.5828
threshold=1.0000000180025095e-35 2.5000000000000004 5.5000000000000009 2009.5000000000002 1.0000000180025095e-35
decision_type=2 2 2 2 2
left_child=1 3 -2 -1 -3
right_child=2 4 -4 -5 -6
leaf_value=-1.570290999319039 0.98905081281474949 -0.18360190852995839 2.0471009962020377 -0.90176250178639483 0.1755632538421481
leaf_weight=5 5.0000000000000018 3 3 4 5
leaf_count=5 5 3 3 4 5
internal_value=0.000225839 -0.66576 1.40681 -1.28689 0.0396551
internal_weight=25 17 8 9 8
internal_count=25 17 8 9 8
is_linear=0
shrinkage=0.05


Tree=18
num_leaves=7
num_cat=0
split_feature=4 5 3 5 7 1
split_gain=8546.2 2714.8 759.578 309.315 92.3397 1.83921
threshold=1.0000000180025095e-35 2.5000000000000004 2.5000000000000004 1.0000000180025095e-35 1.0000000180025095e-35 2010.5000000000002
decision_type=2 2 2 2 2 2
left_child=1 3 -2 -1 -3 -5
right_child=2 4 -4 5 -6 -7
leaf_value=-1.6569359440957343 0.81669820110972291 -0.17731274174105732 1.8261907205349062 -1.0991319287207817 0.16853443337421789 -0.8335403380855434
leaf_weight=3 4.0000000000000018 3 4 3 5 3
leaf_count=3 4 3 4 3 5 3
internal_value=0.000315348 -0.633212 1.33838 -1.22393 0.0376366 -0.982997
internal_weight=25 17 8 9 8 6
internal_count=25 17 8 9 8 6
is_linear=0
shrinkage=0.05


Tree=19
num_leaves=7
num_cat=0
split_feature=4 5 5 5 8 1
split_gain=7735.56 2458.36 694.802 279.836 86.0246 1.48447
threshold=1.0000000180025095e-35 2.5000000000000004 5.5000000000000009 1.0000000180025095e-35 1.0000000180025095e-35 2010.5000000000002
decision_type=2 2 2 2 2 2
left_child=1 3 -2 -1 -3 -5
right_child=2 4 -4 5 -6 -7
leaf_value=-1.5767616518082155 0.8807397253373086 -0.17171647702493972 1.8759658321257555 -1.0459480962445658 0.16208637719060859 -0.79320772847821619
leaf_weight=3 5.0000000000000018 3 3 3 5 3
leaf_count=3 5 3 3 3 5 3
internal_value=8.93206e-05 -0.602633 1.27312 -1.16476 0.0357184 -0.935473
internal_weight=25 17 8 9 8 6
internal_count=25 17 8 9 8 6
is_linear=0
shrinkage=0.05


Tree=20
num_leaves=6
num_cat=0
split_feature=4 5 3 1 7
split_gain=7003.01 2226.16 674.363 257.117 79.7592
threshold=1.0000000180025095e-35 2.5000000000000004 2.5000000000000004 2009.5000000000002 1.0000000180025095e-35
decision_type=2 2 2 2 2
left_child=1 3 -2 -1 -3
right_child=2 4 -4 -5 -6
leaf_value=-1.3561468535778569 0.72175943444414803 -0.16580815315246578 1.6698715209960939 -0.77209940654475506 0.15560010741738711
leaf_weight=5 4.0000000000000018 3 4 4 5
leaf_count=5 4 3 4 4 5
internal_value=0 -0.573532 1.2112 -1.10846 0.0338957
internal_weight=25 17 8 9 8
internal_count=25 17 8 9 8
is_linear=0
shrinkage=0.05


Tree=21
num_leaves=6
num_cat=0
split_feature=4 5 5 5 8
split_gain=6336.23 2013.51 618.791 240.142 74.3132
threshold=1.0000000180025095e-35 2.5000000000000004 5.5000000000000009 1.0000000180025095e-35 1.0000000180025095e-35
decision_type=2 2 2 2 2
left_child=1 3 -2 -1 -3
right_child=2 4 -4 -5 -6
leaf_value=-1.4348467303860568 0.78359541145025491 -0.16056865107628604 1.7196851914928801 -0.84270083630671255 0.149664572874705
leaf_weight=3 5.0000000000000018 3 3 6 5
leaf_count=3 5 3 3 6 5
internal_value=0 -0.545496 1.15214 -1.05423 0.0321638
internal_weight=25 17 8 9 8
internal_count=25 17 8 9 8
is_linear=0
shrinkage=0.05


Tree=22
num_leaves=6
num_cat=0
split_feature=4 5 3 1 7
split_gain=5734.49 1821.66 598.372 219.013 68.8932
threshold=1.0000000180025095e-35 2.5000000000000004 2.5000000000000004 2009.5000000000002 1.0000000180025095e-35
decision_type=2 2 2 2 2
left_child=1 3 -2 -1 -3
right_child=2 4 -4 -5 -6
leaf_value=-1.2309441416871314 0.63691175739939587 -0.15501948556592385 1.5273587575772913 -0.69332866436097673 0.14367765795950796
leaf_weight=5 4.0000000000000018 3 4 4 5
leaf_count=5 4 3 4 4 5
internal_value=9.64603e-06 -0.518905 1.09611 -1.0028 0.030518
internal_weight=25 17 8 9 8
internal_count=25 17 8 9 8
is_linear=0
shrinkage=0.05


Tree=23
num_leaves=8
num_cat=0
split_feature=5 5 3 5 7 0 1
split_gain=5272.23 1837.33 701.916 206.7 75.078 17.6979 0.269734
threshold=4.5000000000000009 2.5000000000000004 2.5000000000000004 1.0000000180025095e-35 1.0000000180025095e-35 2.5000000000000004 2010.5000000000002
decision_type=2 2 2 2 2 2 2
left_child=1 3 -2 -1 -3 -6 -5
right_child=2 4 -4 6 5 -7 -8
leaf_value=-1.3058568646830881 0.69181376433954012 -0.14751854865781719 1.7286474227905271 -0.84747136639010501 0.23925623912965094 0.063081887845070114 -0.64314304474861372
leaf_weight=3.0000000000000036 3.9999999999999991 3 3 3 3 3 3
leaf_count=3 4 3 3 3 3 3 3
internal_value=4.47483e-05 -0.452714 1.15496 -0.953743 0.0527407 0.154467 -0.758345
internal_weight=25 18 7 9 9 6 6
internal_count=25 18 7 9 9 6 6
is_linear=0
shrinkage=0.05


Tree=24
num_leaves=8
num_cat=0
split_feature=5 5 3 5 7 0 1
split_gain=4773.67 1664.09 635.812 186.969 68.0166 15.9982 0.104578
threshold=4.5000000000000009 2.5000000000000004 2.5000000000000004 1.0000000180025095e-35 1.0000000180025095e-35 2.5000000000000004 2010.5000000000002
decision_type=2 2 2 2 2 2 2
left_child=1 3 -2 -1 -3 -6 -5
right_child=2 4 -4 6 5 -7 -8
leaf_value=-1.2426702191752756 0.65806676003991116 -0.14038055019993931 1.6450031403572325 -0.80646467824136026 0.22767931165233729 0.060029543599774741 -0.61202323667464698
leaf_weight=3.0000000000000036 3.9999999999999991 3 3 3 3 3 3
leaf_count=3 4 3 3 3 3 3 3
internal_value=0 -0.430822 1.09896 -0.907647 0.0501888 0.147032 -0.721691
internal_weight=25 18 7 9 9 6 6
internal_count=25 18 7 9 9 6 6
is_linear=0
shrinkage=0.05


Tree=25
num_leaves=7
num_cat=0
split_feature=3 6 5 5 11 1
split_gain=4350.9 1498.23 322.934 169.112 73.2599 21.6339
threshold=1.5000000000000002 1.0000000180025095e-35 5.5000000000000009 1.0000000180025095e-35 1.0000000180025095e-35 2009.5000000000002
decision_type=2 2 2 2 2 2
left_child=1 3 -2 -1 5 -3
right_child=2 4 -4 -5 -6 -7
leaf_value=-1.1825409919984862 0.72198155042601808 -0.14849559568589729 1.4463325377433529 -0.68680973834678782 0.24290556715380754 0.03787491821473643
leaf_weight=3.0000000000000036 3.9999999999999991 3 3 6 3 3
leaf_count=3 4 3 3 6 3 3
internal_value=0 -0.411344 1.04912 -0.863782 0.0450641 -0.0553974
internal_weight=25 18 7 9 9 6
internal_count=25 18 7 9 9 6
is_linear=0
shrinkage=0.05


Tree=26
num_leaves=7
num_cat=0
split_feature=5 5 3 1 7 0
split_gain=3964.27 1347.66 545.733 158.298 54.0354 14.5918
threshold=4.5000000000000009 2.5000000000000004 2.5000000000000004 2009.5000000000002 1.0000000180025095e-35 2.5000000000000004
decision_type=2 2 2 2 2 2
left_child=1 3 -2 -1 -3 -6
right_child=2 4 -4 -5 5 -7
leaf_value=-1.0149694648443477 0.59359856233364205 -0.12940865024443593 1.5071054643200288 -0.55991416326383259 0.20349497482661275 0.044258252651460696
leaf_weight=5.0000000000000036 3.9999999999999991 3 3 4 3 3
leaf_count=5 4 3 3 4 3 3
internal_value=2.61711e-05 -0.392548 1.00152 -0.821648 0.0403152 0.126727
internal_weight=25 18 7 9 9 6
internal_count=25 18 7 9 9 6
is_linear=0
shrinkage=0.05


Tree=27
num_leaves=8
num_cat=0
split_feature=3 5 5 5 1 11 1
split_gain=3613.21 1211.42 267.773 145.342 58.2487 17.2336 0.529719
threshold=1.5000000000000002 2.5000000000000004 5.5000000000000009 1.0000000180025095e-35 2009.5000000000002 1.0000000180025095e-35 2010.5000000000002
decision_type=2 2 2 2 2 2 2
left_child=1 3 -2 -1 -3 -6 -5
right_child=2 4 -4 6 5 -7 -8
leaf_value=-1.0762098743069535 0.65812323035263443 -0.14041803575331169 1.3181582020175071 -0.69243765492593068 0.036701808437224342 0.20872155891791461 -0.52208385006073965
leaf_weight=3.0000000000000053 3.9999999999999991 2.9999999999999982 3 3 3 3 3
leaf_count=3 4 3 3 3 3 3 3
internal_value=0.000153184 -0.374627 0.956281 -0.781458 0.035771 0.125543 -0.618036
internal_weight=25 18 7 9 9 6 6
internal_count=25 18 7 9 9 6 6
is_linear=0
shrinkage=0.05


Tree=28
num_leaves=7
num_cat=0
split_feature=5 5 3 1 7 0
split_gain=3293.13 1090.58 468.418 131.697 42.7868 13.3608
threshold=4.5000000000000009 2.5000000000000004 2.5000000000000004 2009.5000000000002 1.0000000180025095e-35 2.5000000000000004
decision_type=2 2 2 2 2 2
left_child=1 3 -2 -1 -3 -6
right_child=2 4 -4 -5 5 -7
leaf_value=-0.91998561597337847 0.53545076556322058 -0.11920928801259685 1.3810449169528098 -0.50505629283625897 0.18193188732670196 0.030317902949548527
leaf_weight=5.0000000000000036 3.9999999999999991 3 3 4 3 3
leaf_count=5 4 3 3 4 3 3
internal_value=9.38445e-05 -0.357692 0.9129 -0.743699 0.0316951 0.108684
internal_weight=25 18 7 9 9 6
internal_count=25 18 7 9 9 6
is_linear=0
shrinkage=0.05


Tree=29
num_leaves=7
num_cat=0
split_feature=3 6 5 5 1 11
split_gain=3001.6 980.234 221.751 124.581 48.4022 11.6938
threshold=1.5000000000000002 1.0000000180025095e-35 5.5000000000000009 1.0000000180025095e-35 2009.5000000000002 1.0000000180025095e-35
decision_type=2 2 2 2 2 2
left_child=1 3 -2 -1 -3 -6
right_child=2 4 -4 -5 5 -7
leaf_value=-0.97961977066532124 0.60005934238433845 -0.13271253954979678 1.2011902009287185 -0.55652929055886191 0.035870646661327721 0.17841513397232175
leaf_weight=3.0000000000000036 3.9999999999999991 3 3 6 3 3
leaf_count=3 4 3 3 6 3 3
internal_value=0.000205578 -0.341369 0.871681 -0.707324 0.0277887 0.109719
internal_weight=25 18 7 9 9 6
internal_count=25 18 7 9 9 6
is_linear=0
shrinkage=0.05


Tree=30
num_leaves=7
num_cat=0
split_feature=5 5 3 9 0 7
split_gain=2736 881.278 402.061 123.643 35.8178 10.2184
threshold=4.5000000000000009 2.5000000000000004 2.5000000000000004 1.0000000180025095e-35 2.5000000000000004 1.0000000180025095e-35
decision_type=2 2 2 2 2 2
left_child=1 3 -2 -1 -3 -6
right_child=2 4 -4 -5 5 -7
leaf_value=-0.80609546645742902 0.48301317808104732 0.16271320408390411 1.2657937449793659 -0.3872792859231271 -0.10973860602225023 0.018015413899575502
leaf_weight=6.0000000000000036 3.9999999999999991 3 3 3 3 3
leaf_count=6 4 3 3 3 3 3
internal_value=0.000264364 -0.325839 0.832298 -0.672829 0.0241834 -0.0457938
internal_weight=25 18 7 9 9 6
internal_count=25 18 7 9 9 6
is_linear=0
shrinkage=0.05


Tree=31
num_leaves=7
num_cat=0
split_feature=3 6 3 5 1 11
split_gain=2492.83 792.18 186.278 115.189 40.2869 7.64252
threshold=1.5000000000000002 1.0000000180025095e-35 2.5000000000000004 1.0000000180025095e-35 2009.5000000000002 1.0000000180025095e-35
decision_type=2 2 2 2 2 2
left_child=1 3 -2 -1 -3 -6
right_child=2 4 -4 -5 5 -7
leaf_value=-0.89996927630516665 0.46913361011012911 -0.12537541543283767 1.0200540426300793 -0.49638079346203412 0.035323808654662087 0.15157666264041775
leaf_weight=3.0000000000000036 2.9999999999999991 3 4 6 3 3
leaf_count=3 3 3 4 6 3 3
internal_value=0.00037593 -0.310889 0.794583 -0.639871 0.0209591 0.0958019
internal_weight=25 18 7 9 9 6
internal_count=25 18 7 9 9 6
is_linear=0
shrinkage=0.05


Tree=32
num_leaves=7
num_cat=0
split_feature=5 5 3 9 0 7
split_gain=2290.3 706.67 330.944 112.785 27.9374 7.51867
threshold=4.5000000000000009 2.5000000000000004 2.5000000000000004 1.0000000180025095e-35 2.5000000000000004 1.0000000180025095e-35
decision_type=2 2 2 2 2 2
left_child=1 3 -2 -1 -3 -6
right_child=2 4 -4 -5 5 -7
leaf_value=-0.73542305993252066 0.44431229509958414 0.13796490469286515 1.1551881667106378 -0.33801205542779728 -0.10095404271156555 0.008437549298809419
leaf_weight=6.0000000000000036 3.9999999999999991 3 3 3 3 3
leaf_count=6 4 3 3 3 3 3
internal_value=0.000387879 -0.297957 0.761657 -0.608672 0.0154824 -0.0461969
internal_weight=25 18 7 9 9 6
internal_count=25 18 7 9 9 6
is_linear=0
shrinkage=0.05


Tree=33
num_leaves=7
num_cat=0
split_feature=5 5 3 5 0 7
split_gain=2072.94 639.208 299.725 106.277 25.2906 6.81717
threshold=4.5000000000000009 2.5000000000000004 2.5000000000000004 1.0000000180025095e-35 2.5000000000000004 1.0000000180025095e-35
decision_type=2 2 2 2 2 2
left_child=1 3 -2 -1 -3 -6
right_child=2 4 -4 -5 5 -7
leaf_value=-0.82724724123554738 0.42263850816866255 0.13128918640075188 1.0992919768056559 -0.44231520637136984 -0.096069172889955562 0.008029280554863712
leaf_weight=3.0000000000000036 3.9999999999999991 3 3 6 3 3
leaf_count=3 4 3 3 6 3 3
internal_value=0.000482335 -0.283343 0.724736 -0.578856 0.0147333 -0.0439219
internal_weight=25 18 7 9 9 6
internal_count=25 18 7 9 9 6
is_linear=0
shrinkage=0.05


Tree=34
num_leaves=7
num_cat=0
split_feature=3 6 5 9 1 11
split_gain=1900.96 571.28 153.296 102.771 30.7994 3.02419
threshold=1.5000000000000002 1.0000000180025095e-35 5.5000000000000009 1.0000000180025095e-35 2009.5000000000002 1.0000000180025095e-35
decision_type=2 2 2 2 2 2
left_child=1 3 -2 -1 -3 -6
right_child=2 4 -4 -5 5 -7
leaf_value=-0.67119113656341023 0.46938495258005664 -0.11729608082002206 0.96726559669740719 -0.29404570056546109 0.036261199366661799 0.11193335287032587
leaf_weight=6.0000000000000036 3.9999999999999991 3 3 3 3 3
leaf_count=6 4 3 3 3 3 3
internal_value=0.000517104 -0.271272 0.694085 -0.550638 0.0105259 0.0761317
internal_weight=25 18 7 9 9 6
internal_count=25 18 7 9 9 6
is_linear=0
shrinkage=0.05


Tree=35
num_leaves=7
num_cat=0
split_feature=5 5 3 5 0 7
split_gain=1723.4 515.897 256.476 97.8715 21.6193 4.8033
threshold=4.5000000000000009 2.5000000000000004 2.5000000000000004 1.0000000180025095e-35 2.5000000000000004 1.0000000180025095e-35
decision_type=2 2 2 2 2 2
left_child=1 3 -2 -1 -3 -6
right_child=2 4 -4 -5 5 -7
leaf_value=-0.76082516331826378 0.38177178720148602 0.1174522526802555 1.007327608908376 -0.39373530638022497 -0.088221771486343858 0
leaf_weight=3.0000000000000036 3.9999999999999991 3 3 6 3 3
leaf_count=3 4 3 3 6 3 3
internal_value=0.000591317 -0.258184 0.660983 -0.523664 0.00958302 -0.0445732
internal_weight=25 18 7 9 9 6
internal_count=25 18 7 9 9 6
is_linear=0
shrinkage=0.05


Tree=36
num_leaves=7
num_cat=0
split_feature=3 6 5 9 1 11
split_gain=1580.03 461.097 127.048 93.5586 25.6819 1.5412
threshold=1.5000000000000002 1.0000000180025095e-35 5.5000000000000009 1.0000000180025095e-35 2009.5000000000002 1.0000000180025095e-35
decision_type=2 2 2 2 2 2
left_child=1 3 -2 -1 -3 -6
right_child=2 4 -4 -5 5 -7
leaf_value=-0.61279983129657645 0.42811555353606628 -0.11066899414985408 0.88181040210108574 -0.25484516774454419 0.035929557200401051 0.09230761028105211
leaf_weight=6.0000000000000036 3.9999999999999991 3 3 3 3 3
leaf_count=6 4 3 3 3 3 3
internal_value=0.000607504 -0.247162 0.632942 -0.498143 0.00598476 0.0659894
internal_weight=25 18 7 9 9 6
internal_count=25 18 7 9 9 6
is_linear=0
shrinkage=0.05


Tree=37
num_leaves=7
num_cat=0
split_feature=5 5 3 5 0 7
split_gain=1433.55 416.074 219.437 89.9814 18.5544 3.23474
threshold=4.5000000000000009 2.5000000000000004 2.5000000000000004 1.0000000180025095e-35 2.5000000000000004 1.0000000180025095e-35
decision_type=2 2 2 2 2 2
left_child=1 3 -2 -1 -3 -6
right_child=2 4 -4 -5 5 -7
leaf_value=-0.70013289913054333 0.34492266207206546 0.10516013868393435 0.92323533027402793 -0.35010169881289122 -0.080962514108227135 -0.0059379732416522113
leaf_weight=3.0000000000000036 3.9999999999999991 3 3 6 3 3
leaf_count=3 4 3 3 6 3 3
internal_value=0.000668725 -0.235327 0.602988 -0.47374 0.00512142 -0.0449822
internal_weight=25 18 7 9 9 6
internal_count=25 18 7 9 9 6
is_linear=0
shrinkage=0.05


Tree=38
num_leaves=7
num_cat=0
split_feature=3 6 5 9 1 11
split_gain=1313.37 372.04 105.165 85.1019 21.448 0.607795
threshold=1.5000000000000002 1.0000000180025095e-35 5.5000000000000009 1.0000000180025095e-35 2009.5000000000002 1.0000000180025095e-35
decision_type=2 2 2 2 2 2
left_child=1 3 -2 -1 -3 -6
right_child=2 4 -4 -5 5 -7
leaf_value=-0.55970580968700445 0.39055650583127655 -0.10439848361476774 0.80379708966901198 -0.21992787853364015 0.035688423725866496 0.075018439946636067
leaf_weight=6.0000000000000036 3.9999999999999991 3 3 3 3 3
leaf_count=6 4 3 3 3 3 3
internal_value=0.000662421 -0.225217 0.577191 -0.450657 0.00214901 0.0570805
internal_weight=25 18 7 9 9 6
internal_count=25 18 7 9 9 6
is_linear=0
shrinkage=0.05


Tree=39
num_leaves=7
num_cat=0
split_feature=5 5 3 5 0 7
split_gain=1193.14 335.274 187.718 82.606 15.9963 2.06174
threshold=4.5000000000000009 2.5000000000000004 2.5000000000000004 1.0000000180025095e-35 2.5000000000000004 1.0000000180025095e-35
decision_type=2 2 2 2 2 2
left_child=1 3 -2 -1 -3 -6
right_child=2 4 -4 -5 5 -7
leaf_value=-0.64465322648325185 0.31170215432236836 0.094246318647938365 0.84633444816835446 -0.31092718995985436 -0.074252903846002374 -0.013101188429901673
leaf_weight=3.0000000000000036 3.9999999999999991 3 3 6 3 3
leaf_count=3 4 3 3 6 3 3
internal_value=0.000713174 -0.21457 0.550228 -0.42858 0.001249 -0.0452127
internal_weight=25 18 7 9 9 6
internal_count=25 18 7 9 9 6
is_linear=0
shrinkage=0.05


Tree=40
num_leaves=7
num_cat=0
split_feature=3 5 3 9 1 11
split_gain=1091.79 300.109 90.1857 77.3535 17.9541 0.0759966
threshold=1.5000000000000002 2.5000000000000004 2.5000000000000004 1.0000000180025095e-35 2009.5000000000002 1.0000000180025095e-35
decision_type=2 2 2 2 2 2
left_child=1 3 -2 -1 -3 -6
right_child=2 4 -4 -5 5 -7
leaf_value=-0.51141688002914631 0.30067375521025347 -0.098471784207128751 0.68295256568164353 -0.18885866326670489 0.035581808320937609 0.059813511371612532
leaf_weight=6.0000000000000053 2.9999999999999991 2.9999999999999982 4 3 3 3
leaf_count=6 3 3 4 3 3 3
internal_value=0.000699295 -0.205229 0.526365 -0.407704 0 0.0492993
internal_weight=25 18 7 9 9 6
internal_count=25 18 7 9 9 6
is_linear=0
shrinkage=0.05


Tree=41
num_leaves=7
num_cat=0
split_feature=5 5 3 5 0 7
split_gain=1000.99 267.83 153.834 75.7364 12.6695 1.27125
threshold=4.5000000000000009 2.5000000000000004 2.5000000000000004 1.0000000180025095e-35 2.5000000000000004 1.0000000180025095e-35
decision_type=2 2 2 2 2 2
left_child=1 3 -2 -1 -3 -6
right_child=2 4 -4 -5 5 -7
leaf_value=-0.59391692992179534 0.28770480824679867 0.079294172410042052 0.772336673736572 -0.27577188190866686 -0.068057412485922522 -0.01846463824472119
leaf_weight=3.0000000000000036 3.9999999999999991 3 3 6 3 3
leaf_count=3 4 3 3 6 3 3
internal_value=0.00072016 -0.196451 0.504061 -0.387731 -0.00246224 -0.0447899
internal_weight=25 18 7 9 9 6
internal_count=25 18 7 9 9 6
is_linear=0
shrinkage=0.05


Tree=42
num_leaves=6
num_cat=0
split_feature=3 6 5 9 1
split_gain=907.528 241.989 79.2197 70.2658 15.0482
threshold=1.5000000000000002 1.0000000180025095e-35 5.5000000000000009 1.0000000180025095e-35 2009.5000000000002
decision_type=2 2 2 2 2
left_child=1 3 -2 -1 -3
right_child=2 4 -4 -5 -6
leaf_value=-0.46748717026632314 0.3187329346813807 -0.092790559799440425 0.67614032222378617 -0.1612451734081391 0.042447595518143449
leaf_weight=6.0000000000000036 3.9999999999999991 3 3 3 6
leaf_count=6 4 3 3 3 6
internal_value=0.000700711 -0.187031 0.479977 -0.36885 -0.00260664
internal_weight=25 18 7 9 9
internal_count=25 18 7 9 9
is_linear=0
shrinkage=0.05


Tree=43
num_leaves=7
num_cat=0
split_feature=5 5 3 5 0 7
split_gain=834.328 215.302 131.24 69.3572 11.0698 0.659343
threshold=4.5000000000000009 2.5000000000000004 2.5000000000000004 1.0000000180025095e-35 2.5000000000000004 1.0000000180025095e-35
decision_type=2 2 2 2 2 2
left_child=1 3 -2 -1 -3 -6
right_child=2 4 -4 -5 5 -7
leaf_value=-0.54749802466361674 0.26050252296575688 0.071128489894251662 0.70801370989891765 -0.24423851214471407 -0.062455706442556047 -0.024081320916452709
leaf_weight=3.0000000000000036 3.9999999999999991 3 3 6 3 3
leaf_count=3 4 3 3 6 3 3
internal_value=0.000718629 -0.179274 0.460268 -0.35078 -0.00524906 -0.0447975
internal_weight=25 18 7 9 9 6
internal_count=25 18 7 9 9 6
is_linear=0
shrinkage=0.05


Tree=44
num_leaves=7
num_cat=0
split_feature=5 5 3 9 0 7
split_gain=755.382 194.815 118.826 63.7917 10.0327 0.588825
threshold=4.5000000000000009 2.5000000000000004 2.5000000000000004 1.0000000180025095e-35 2.5000000000000004 1.0000000180025095e-35
decision_type=2 2 2 2 2 2
left_child=1 3 -2 -1 -3 -6
right_child=2 4 -4 -5 5 -7
leaf_value=-0.42751281691379206 0.24779507206162302 0.067686781191056755 0.67375499817632845 -0.1367337140344804 -0.059433654815919924 -0.02291609241116431
leaf_weight=6.0000000000000036 3.9999999999999991 3 3 3 3 3
leaf_count=6 4 3 3 3 3 3
internal_value=0.000694916 -0.170561 0.437972 -0.333704 -0.00499508 -0.0426695
internal_weight=25 18 7 9 9 6
internal_count=25 18 7 9 9 6
is_linear=0
shrinkage=0.05


Tree=45
num_leaves=6
num_cat=0
split_feature=3 5 6 5 1
split_gain=693.555 173.92 63.0523 59.9729 11.7221
threshold=1.5000000000000002 1.0000000180025095e-35 1.0000000180025095e-35 5.5000000000000009 2009.5000000000002
decision_type=2 2 2 2 2
left_child=1 -1 -3 -2 -4
right_child=3 2 4 -5 -6
leaf_value=-0.50501008033752326 0.27901567511442232 -0.21596843829897591 -0.086607737310471056 0.59065232200007267 0.03265897240795073
leaf_weight=3.0000000000000062 3.9999999999999991 5.9999999999999973 3 3 6
leaf_count=3 4 6 3 3 6
internal_value=0.000708506 -0.163381 -0.0918326 0.419716 -0.00706201
internal_weight=25 18 15 7 9
internal_count=25 18 15 7 9
is_linear=0
shrinkage=0.05


Tree=46
num_leaves=6
num_cat=0
split_feature=5 5 3 5 7
split_gain=629.525 157.316 101.338 56.7541 4.10845
threshold=4.5000000000000009 1.0000000180025095e-35 2.5000000000000004 2.5000000000000004 1.0000000180025095e-35
decision_type=2 2 2 2 2
left_child=1 -1 -2 -3 -5
right_child=2 3 -4 4 -6
leaf_value=-0.48057410640101195 0.2243052462252175 -0.20534704400867715 0.61760037022252223 -0.05429079301895632 0.016164512126172172
leaf_weight=3.0000000000000044 3.9999999999999991 5.9999999999999991 3 3 6
leaf_count=3 4 6 3 3 6
internal_value=0.000681993 -0.155641 0.399889 -0.0875705 -0.00710966
internal_weight=25 18 7 15 9
internal_count=25 18 7 15 9
is_linear=0
shrinkage=0.05


Tree=47
num_leaves=6
num_cat=0
split_feature=3 5 3 6 1
split_gain=577.252 141.59 50.3052 50.2525 9.68433
threshold=1.5000000000000002 1.0000000180025095e-35 2.5000000000000004 1.0000000180025095e-35 2009.5000000000002
decision_type=2 2 2 2 2
left_child=1 -1 -2 -3 -5
right_child=2 3 -4 4 -6
leaf_value=-0.45732052710748383 0.21429264776168333 -0.19524800856521396 0.49990031079548153 -0.080926439839024686 0.027423178270214895
leaf_weight=3.0000000000000062 2.9999999999999991 5.9999999999999956 4 3 6
leaf_count=3 3 6 4 3 6
internal_value=0.000661411 -0.149022 0.382943 -0.0844108 -0.00863633
internal_weight=25 18 7 15 9
internal_count=25 18 7 15 9
is_linear=0
shrinkage=0.05


Tree=48
num_leaves=7
num_cat=0
split_feature=5 5 3 5 0 1
split_gain=528.92 127.456 82.7753 44.5127 7.50057 0.00458176
threshold=4.5000000000000009 1.0000000180025095e-35 2.5000000000000004 2.5000000000000004 2.5000000000000004 2010.5000000000002
decision_type=2 2 2 2 2 2
left_child=1 -1 -2 5 -5 -3
right_child=2 3 -4 4 -6 -7
leaf_value=-0.43519210277065073 0.207468020043722 -0.21087430816504266 0.56352776711986896 0.052799400206535077 -0.042481499812642085 -0.15281550288200374
leaf_weight=3.0000000000000044 3.9999999999999991 2.9999999999999991 3 3 6 3
leaf_count=3 4 3 3 3 6 3
internal_value=0.000620001 -0.142652 0.366557 -0.0813177 -0.00994055 -0.185646
internal_weight=25 18 7 15 9 6
internal_count=25 18 7 15 9 6
is_linear=0
shrinkage=0.05


Tree=49
num_leaves=7
num_cat=0
split_feature=3 5 5 7 5 0
split_gain=480.704 115.184 45.1409 40.722 20.0709 2.23819
threshold=1.5000000000000002 1.0000000180025095e-35 5.5000000000000009 1.0000000180025095e-35 2.5000000000000004 2.5000000000000004
decision_type=2 2 2 2 2 2
left_child=1 -1 -2 4 -3 -5
right_child=2 3 -4 5 -6 -7
leaf_value=-0.41413442011802326 0.22779620158963088 -0.21485718962024244 0.49742522393503474 -0.013644585086078177 -0.047440042803364404 0.042196345329284651
leaf_weight=3.0000000000000062 3.9999999999999991 4.9999999999999982 3 4 3 3
leaf_count=3 4 5 3 4 3 3
internal_value=0.000565577 -0.13601 0.349434 -0.0776801 -0.154054 0.00984026
internal_weight=25 18 7 15 8 7
internal_count=25 18 7 15 8 7
is_linear=0
shrinkage=0.05


Tree=50
num_leaves=7
num_cat=0
split_feature=5 5 3 7 5 1
split_gain=441.521 103.554 70.4014 35.7331 18.1151 11.7633
threshold=4.5000000000000009 1.0000000180025095e-35 2.5000000000000004 1.0000000180025095e-35 2.5000000000000004 2010.5000000000002
decision_type=2 2 2 2 2 2
left_child=1 -1 -2 4 -3 -5
right_child=2 3 -4 5 -6 -7
leaf_value=-0.39409568079056206 0.18815527049506586 -0.20432497087646931 0.51654017971407962 0.064548796560706154 -0.045144556414696467 -0.045144556414696467
leaf_weight=3.0000000000000044 3.9999999999999991 5 3 4.0000000000000009 3 3
leaf_count=3 4 5 3 4 3 3
internal_value=0.000532784 -0.13035 0.334889 -0.0750094 -0.146544 0.00695265
internal_weight=25 18 7 15 8 7
internal_count=25 18 7 15 8 7
is_linear=0
shrinkage=0.05


Tree=51
num_leaves=7
num_cat=0
split_feature=5 5 3 7 5 1
split_gain=400.143 93.6205 63.7254 32.1164 16.3485 10.7834
threshold=4.5000000000000009 1.0000000180025095e-35 2.5000000000000004 1.0000000180025095e-35 2.5000000000000004 2010.5000000000002
decision_type=2 2 2 2 2 2
left_child=1 -1 -2 4 -3 -5
right_child=2 3 -4 5 -6 -7
leaf_value=-0.3750265244514705 0.17897696422367565 -0.19430903675509431 0.49154629092062657 0.061400075075103006 -0.042960142320202233 -0.042960142320202233
leaf_weight=3.0000000000000044 3.9999999999999991 5 3 4.0000000000000009 3 3
leaf_count=3 4 5 3 4 3 3
internal_value=0.000362152 -0.124227 0.318676 -0.0715846 -0.139402 0.00608813
internal_weight=25 18 7 15 8 7
internal_count=25 18 7 15 8 7
is_linear=0
shrinkage=0.05


Tree=52
num_leaves=7
num_cat=0
split_feature=3 5 5 8 1 0
split_gain=365.102 84.343 35.1716 30.1753 12.6531 5.64331
threshold=1.5000000000000002 1.0000000180025095e-35 5.5000000000000009 1.0000000180025095e-35 2009.5000000000002 2.5000000000000004
decision_type=2 2 2 2 2 2
left_child=1 -1 -2 4 -3 -5
right_child=2 3 -4 5 -6 -7
leaf_value=-0.35688007493172841 0.19684130418591383 -0.19261718406909875 0.43491585446942227 -0.029687616517466865 -0.069490682786586239 0.065227806952691841
leaf_weight=3.0000000000000062 3.9999999999999991 3.9999999999999947 3 3.0000000000000009 5 3
leaf_count=3 4 4 3 3 5 3
internal_value=0.00019928 -0.1188 0.304266 -0.0688052 -0.126278 0.0172417
internal_weight=25 18 7 15 9 6
internal_count=25 18 7 15 9 6
is_linear=0
shrinkage=0.05


Tree=53
num_leaves=7
num_cat=0
split_feature=5 5 3 7 5 1
split_gain=334.055 75.961 54.2627 25.824 14.687 8.89481
threshold=4.5000000000000009 1.0000000180025095e-35 2.5000000000000004 1.0000000180025095e-35 2.5000000000000004 2010.5000000000002
decision_type=2 2 2 2 2 2
left_child=1 -1 -2 4 -3 -5
right_child=2 3 -4 5 -6 -7
leaf_value=-0.33961168066147773 0.16210860915300326 -0.17896343878671234 0.45055741879247835 0.054813431821218339 -0.035720029569441258 -0.035720029569441258
leaf_weight=3.0000000000000044 3.9999999999999991 5 3 4.0000000000000009 3 3
leaf_count=3 4 5 3 4 3 3
internal_value=0.000179023 -0.11364 0.291038 -0.0661645 -0.126969 0.00343127
internal_weight=25 18 7 15 8 7
internal_count=25 18 7 15 8 7
is_linear=0
shrinkage=0.05


Tree=54
num_leaves=7
num_cat=0
split_feature=3 5 5 8 1 0
split_gain=302.871 68.6263 29.5305 24.4288 11.464 5.27234
threshold=1.5000000000000002 1.0000000180025095e-35 5.5000000000000009 1.0000000180025095e-35 2009.5000000000002 2.5000000000000004
decision_type=2 2 2 2 2 2
left_child=1 -1 -2 4 -3 -5
right_child=2 3 -4 5 -6 -7
leaf_value=-0.3231788550653758 0.17843084393478026 -0.17798503753615613 0.39672279011818656 -0.031173731434729776 -0.061007836519503124 0.060609223765711609
leaf_weight=3.0000000000000062 3.9999999999999991 3.9999999999999947 3 3.0000000000000009 5 3
leaf_count=3 4 4 3 3 5 3
internal_value=0 -0.108369 0.276959 -0.0632204 -0.114932 0.0141393
internal_weight=25 18 7 15 9 6
internal_count=25 18 7 15 9 6
is_linear=0
shrinkage=0.05


Tree=55
num_leaves=6
num_cat=0
split_feature=5 5 3 5 0
split_gain=279.072 61.5737 46.2216 20.8826 5.0156
threshold=4.5000000000000009 1.0000000180025095e-35 2.5000000000000004 2.5000000000000004 2.5000000000000004
decision_type=2 2 2 2 2
left_child=1 -1 -2 -3 -5
right_child=2 3 -4 4 -6
leaf_value=-0.30754117465788267 0.14682782743035294 -0.13274392016598435 0.41308081765328669 0.039087230543936445 -0.038681898156150446
leaf_weight=3.0000000000000044 3.9999999999999991 5.9999999999999991 3 3 6
leaf_count=3 4 6 3 3 6
internal_value=0 -0.104028 0.265851 -0.061227 -0.0120647
internal_weight=25 18 7 15 9
internal_count=25 18 7 15 9
is_linear=0
shrinkage=0.05


Tree=56
num_leaves=7
num_cat=0
split_feature=5 5 3 7 5 1
split_gain=252.673 55.767 41.8293 19.3355 12.3218 6.96248
threshold=4.5000000000000009 1.0000000180025095e-35 2.5000000000000004 1.0000000180025095e-35 2.5000000000000004 2010.5000000000002
decision_type=2 2 2 2 2 2
left_child=1 -1 -2 4 -3 -5
right_child=2 3 -4 5 -6 -7
leaf_value=-0.29266015598850814 0.1396654948955629 -0.15839940917258166 0.39309302683799485 0.048901915840986292 -0.027356052014135535 -0.027356052014135535
leaf_weight=3.0000000000000044 3.9999999999999991 5 3 4.0000000000000009 3 3
leaf_count=3 4 5 3 4 3 3
internal_value=3.20037e-07 -0.0989618 0.252988 -0.0582094 -0.11082 0.00192653
internal_weight=25 18 7 15 8 7
internal_count=25 18 7 15 8 7
is_linear=0
shrinkage=0.05


Tree=57
num_leaves=7
num_cat=0
split_feature=3 5 3 8 1 0
split_gain=231.164 50.1135 23.1419 17.3843 10.7401 5.1771
threshold=1.5000000000000002 1.0000000180025095e-35 2.5000000000000004 1.0000000180025095e-35 2009.5000000000002 2.5000000000000004
decision_type=2 2 2 2 2 2
left_child=1 -1 -2 4 -3 -5
right_child=2 3 -4 5 -6 -7
leaf_value=-0.27849917296440302 0.12763161082421579 -0.16059109815737116 0.32099234360020334 -0.035894576964839796 -0.047984808186690014 0.05518592019234933
leaf_weight=3.0000000000000062 2.9999999999999991 3.9999999999999947 4 3.0000000000000009 5 3
leaf_count=3 3 4 4 3 5 3
internal_value=0 -0.0948448 0.241792 -0.0561816 -0.0997963 0.00898413
internal_weight=25 18 7 15 9 6
internal_count=25 18 7 15 9 6
is_linear=0
shrinkage=0.05


Tree=58
num_leaves=6
num_cat=0
split_feature=5 5 3 5 0
split_gain=212.907 44.9556 34.0033 15.1309 3.80671
threshold=4.5000000000000009 1.0000000180025095e-35 2.5000000000000004 2.5000000000000004 2.5000000000000004
decision_type=2 2 2 2 2
left_child=1 -1 -2 -3 -5
right_child=2 3 -4 4 -6
leaf_value=-0.26502341551165381 0.12950432256954475 -0.11529360450193532 0.35854050843946383 0.032040252224091549 -0.035609148760310939
leaf_weight=3.0000000000000044 3.9999999999999991 5.9999999999999991 3 3 6
leaf_count=3 4 6 3 3 6
internal_value=0 -0.0910362 0.232034 -0.0543829 -0.0124056
internal_weight=25 18 7 15 9
internal_count=25 18 7 15 9
is_linear=0
shrinkage=0.05


Tree=59
num_leaves=7
num_cat=0
split_feature=5 7 0 3 1 5
split_gain=192.774 42.582 36.0523 30.7659 7.56328 5.83351
threshold=4.5000000000000009 1.0000000180025095e-35 2.5000000000000004 2.5000000000000004 2009.5000000000002 2.5000000000000004
decision_type=2 2 2 2 2 2
left_child=1 2 -1 -2 -3 -4
right_child=3 4 5 -5 -6 -7
leaf_value=-0.2699674225435022 0.12318704142803101 0.061166963894521025 -0.12424097128452789 0.34119177287624719 -0.037859071352902576 -0.037859071352902576
leaf_weight=4.0000000000000036 3.9999999999999991 3 3 3 5 3
leaf_count=4 4 3 3 3 5 3
internal_value=0 -0.0866042 -0.154859 0.220811 0 -0.0741322
internal_weight=25 18 10 7 8 6
internal_count=25 18 10 7 8 6
is_linear=0
shrinkage=0.05


Tree=60
num_leaves=7
num_cat=0
split_feature=3 5 5 7 5 0
split_gain=176.795 39.9554 19.133 11.8518 8.98144 1.14507
threshold=1.5000000000000002 1.0000000180025095e-35 5.5000000000000009 1.0000000180025095e-35 2.5000000000000004 2.5000000000000004
decision_type=2 2 2 2 2 2
left_child=1 -1 -2 4 -3 -5
right_child=2 3 -4 5 -6 -7
leaf_value=-0.24682805749677789 0.13240632807336203 -0.13004661105007084 0.30783921260266522 -0.01793806102217697 -0.018187194485818178 0.022313116442772642
leaf_weight=3.0000000000000062 3.9999999999999991 4.9999999999999982 3 4 3 3
leaf_count=3 4 5 3 4 3 3
internal_value=0 -0.0828265 0.211573 -0.0482777 -0.089459 0
internal_weight=25 18 7 15 8 7
internal_count=25 18 7 15 8 7
is_linear=0
shrinkage=0.05


Tree=61
num_leaves=7
num_cat=0
split_feature=5 5 3 7 1 1
split_gain=160.735 36.0989 26.0885 10.6252 9.11852 5.16564
threshold=4.5000000000000009 1.0000000180025095e-35 2.5000000000000004 1.0000000180025095e-35 2009.5000000000002 2010.5000000000002
decision_type=2 2 2 2 2 2
left_child=1 -1 -2 4 -3 -5
right_child=2 3 -4 5 -6 -7
leaf_value=-0.23488476478284365 0.11175571465637629 -0.13795341253280638 0.31261661206522284 0.038304134403786994 -0.028968119330522485 -0.028968119330522485
leaf_weight=3.0000000000000044 3.9999999999999991 4 3 4.0000000000000009 4 3
leaf_count=3 4 4 3 4 4 3
internal_value=0 -0.0789754 0.201734 -0.0461134 -0.0851084 -0.00027244
internal_weight=25 18 7 15 8 7
internal_count=25 18 7 15 8 7
is_linear=0
shrinkage=0.05


Tree=62
num_leaves=7
num_cat=0
split_feature=3 7 0 5 5 1
split_gain=146.772 32.8211 31.1538 16.131 4.97372 3.79934
threshold=1.5000000000000002 1.0000000180025095e-35 2.5000000000000004 5.5000000000000009 2.5000000000000004 2010.5000000000002
decision_type=2 2 2 2 2 2
left_child=1 2 -1 -2 -4 -3
right_child=3 5 4 -5 -6 -7
leaf_value=-0.24244795060012372 0.11983795747524356 0.046535472139235451 -0.10533024505261451 0.28105685105246869 -0.012389835234611263 -0.012389835234611263
leaf_weight=4.0000000000000036 3.9999999999999991 3 3 3 3 5
leaf_count=4 4 3 3 3 3 5
internal_value=0 -0.0756188 -0.135541 0.192621 -0.0606446 0
internal_weight=25 18 10 7 6 8
internal_count=25 18 10 7 6 8
is_linear=0
shrinkage=0.05


Tree=63
num_leaves=7
num_cat=0
split_feature=5 5 3 7 1 1
split_gain=134.927 31.6556 22.0379 7.64211 8.20433 3.86462
threshold=4.5000000000000009 1.0000000180025095e-35 2.5000000000000004 1.0000000180025095e-35 2009.5000000000002 2010.5000000000002
decision_type=2 2 2 2 2 2
left_child=1 -1 -2 4 -3 -5
right_child=2 3 -4 5 -6 -7
leaf_value=-0.21866061312537002 0.1017174411110762 -0.12500841617584227 0.28649078203785794 0.032377752152884867 -0.021878231880141465 -0.021878231880141465
leaf_weight=3.0000000000000044 3.9999999999999991 4 3 4.0000000000000009 4 3
leaf_count=3 4 4 3 4 4 3
internal_value=0 -0.0726581 0.18453 -0.0418718 -0.0749673 -0.00282096
internal_weight=25 18 7 15 8 7
internal_count=25 18 7 15 8 7
is_linear=0
shrinkage=0.05


Tree=64
num_leaves=6
num_cat=0
split_feature=5 5 3 5 0
split_gain=122.454 28.5496 19.9331 6.91463 2.40328
threshold=4.5000000000000009 1.0000000180025095e-35 2.5000000000000004 2.5000000000000004 2.5000000000000004
decision_type=2 2 2 2 2
left_child=1 -1 -2 -3 -5
right_child=2 3 -4 4 -6
leaf_value=-0.20808026569504856 0.096755619746882751 -0.081392953825778658 0.27262832791574526 0.023626914331989896 -0.029971635927919477
leaf_weight=3.0000000000000044 3.9999999999999991 5.9999999999999991 3 3 6
leaf_count=3 4 6 3 3 6
internal_value=-0.000170659 -0.0693994 0.175612 -0.0401378 -0.0114927
internal_weight=25 18 7 15 9
internal_count=25 18 7 15 9
is_linear=0
shrinkage=0.05


Tree=65
num_leaves=7
num_cat=0
split_feature=3 5 5 8 1 0
split_gain=112.43 25.6692 12.4944 6.51066 7.59502 4.80674
threshold=1.5000000000000002 1.0000000180025095e-35 5.5000000000000009 1.0000000180025095e-35 2009.5000000000002 2.5000000000000004
decision_type=2 2 2 2 2 2
left_child=1 -1 -2 4 -3 -5
right_child=2 3 -4 5 -6 -7
leaf_value=-0.19801186544279856 0.10404095198595671 -0.11619424340201601 0.24622003532225079 -0.022260791764539829 -0.022260791764539829 0.048586322799805653
leaf_weight=3.0000000000000062 3.9999999999999991 3.9999999999999947 3 3.0000000000000009 5 3
leaf_count=3 4 4 3 3 5 3
internal_value=-0.000137513 -0.0664808 0.168289 -0.0387063 -0.0653765 0.000895348
internal_weight=25 18 7 15 9 6
internal_count=25 18 7 15 9 6
is_linear=0
shrinkage=0.05


Tree=66
num_leaves=7
num_cat=0
split_feature=5 7 0 3 1 5
split_gain=102.158 24.2702 26.5396 16.9725 8.40254 2.50535
threshold=4.5000000000000009 1.0000000180025095e-35 2.5000000000000004 2.5000000000000004 2009.5000000000002 2.5000000000000004
decision_type=2 2 2 2 2 2
left_child=1 2 -1 -2 -3 -4
right_child=3 4 5 -5 -6 -7
leaf_value=-0.2136032198987354 0.087443308423205135 0.066411961855426901 -0.08610754528593631 0.24981597104380204 -0.037938030560811353 -0.037938030560811353
leaf_weight=4.0000000000000036 3.9999999999999991 3 3 3 5 3
leaf_count=4 4 3 3 3 5 3
internal_value=-0.000264374 -0.0635129 -0.115047 0.160274 0.000912732 -0.0460988
internal_weight=25 18 10 7 8 6
internal_count=25 18 10 7 8 6
is_linear=0
shrinkage=0.05


Tree=67
num_leaves=7
num_cat=0
split_feature=3 5 5 1 1 0
split_gain=93.3781 22.8794 10.4616 4.80661 18.5019 3.90051
threshold=1.5000000000000002 1.0000000180025095e-35 5.5000000000000009 2009.5000000000002 2010.5000000000002 2.5000000000000004
decision_type=2 2 2 2 2 2
left_child=1 -1 -2 -3 -5 -6
right_child=2 3 -4 4 5 -7
leaf_value=-0.18466775746595432 0.094505617458645913 -0.074044522935268961 0.22483721317783473 0.088045986813883662 -0.023224420954541459 -0.10091623413947318
leaf_weight=3.0000000000000062 3.9999999999999991 4.9999999999999973 3 2.9999999999999982 4 3
leaf_count=3 4 5 3 3 4 3
internal_value=-2.97456e-05 -0.0605091 0.153446 -0.0342877 -0.013378 -0.0581775
internal_weight=25 18 7 15 10 7
internal_count=25 18 7 15 10 7
is_linear=0
shrinkage=0.05


Tree=68
num_leaves=7
num_cat=0
split_feature=5 7 0 3 1 5
split_gain=86.0814 20.9098 23.5918 14.0629 8.07398 1.97357
threshold=4.5000000000000009 1.0000000180025095e-35 2.5000000000000004 2.5000000000000004 2009.5000000000002 2.5000000000000004
decision_type=2 2 2 2 2 2
left_child=1 2 -1 -2 -3 -4
right_child=3 4 5 -5 -6 -7
leaf_value=-0.19884231570290334 0.080797272775231355 0.065846974234427161 -0.07875494889674646 0.22895100607026003 -0.036423287204667636 -0.036423287204667636
leaf_weight=4.0000000000000036 3.9999999999999991 3 3 3 5 3
leaf_count=4 4 3 3 3 5 3
internal_value=-2.33703e-05 -0.0580996 -0.105938 0.147326 0.00165023 -0.0409372
internal_weight=25 18 10 7 8 6
internal_count=25 18 10 7 8 6
is_linear=0
shrinkage=0.05


Tree=69
num_leaves=6
num_cat=0
split_feature=5 5 3 1 1
split_gain=77.7273 20.4378 12.7144 5.3385 5.54064
threshold=4.5000000000000009 1.0000000180025095e-35 2.5000000000000004 2010.5000000000002 2009.5000000000002
decision_type=2 2 2 2 2
left_child=1 -1 -2 4 -3
right_child=2 3 -4 -5 -6
leaf_value=-0.17231690056862342 0.076855940353579649 -0.038854991021703512 0.21787273633864612 -0.071983968744090951 0.036094279841678893
leaf_weight=3.0000000000000044 3.9999999999999991 5.9999999999999982 3 5.0000000000000009 4
leaf_count=3 4 6 3 5 4
internal_value=0 -0.0549906 0.140213 -0.0302084 -0.00831969
internal_weight=25 18 7 15 10
internal_count=25 18 7 15 10
is_linear=0
shrinkage=0.05


Tree=70
num_leaves=7
num_cat=0
split_feature=3 5 3 1 1 0
split_gain=71.1783 18.4053 8.45802 3.82865 15.7239 3.80065
threshold=1.5000000000000002 1.0000000180025095e-35 2.5000000000000004 2009.5000000000002 2010.5000000000002 2.5000000000000004
decision_type=2 2 2 2 2 2
left_child=1 -1 -2 -3 -5 -6
right_child=2 3 -4 4 5 -7
leaf_value=-0.16397899235448493 0.064898750858922161 -0.064542741401522802 0.18208135293751226 0.064898750858922161 -0.018067283165164108 -0.09439620510224371
leaf_weight=3.0000000000000062 2.9999999999999991 4.9999999999999973 4 2.9999999999999982 4 3
leaf_count=3 3 5 4 3 4 3
internal_value=0 -0.0526136 0.134186 -0.0290709 -0.0103765 -0.0523527
internal_weight=25 18 7 15 10 7
internal_count=25 18 7 15 10 7
is_linear=0
shrinkage=0.05


Tree=71
num_leaves=7
num_cat=0
split_feature=5 7 0 3 1 5
split_gain=66.1631 17.6939 20.6026 9.97295 7.83231 1.62774
threshold=4.5000000000000009 1.0000000180025095e-35 2.5000000000000004 2.5000000000000004 2009.5000000000002 2.5000000000000004
decision_type=2 2 2 2 2 2
left_child=1 2 -1 -2 -3 -4
right_child=3 4 5 -5 -6 -7
leaf_value=-0.18142143429779409 0.072895476294726869 0.067442561734107218 -0.068465471652246285 0.19852010703855941 -0.03322119829701442 -0.03322119829701442
leaf_weight=4.0000000000000036 3.9999999999999991 3 3 3 5 3
leaf_count=4 4 3 3 3 5 3
internal_value=0 -0.0506215 -0.0946429 0.129477 0.00427702 -0.0339452
internal_weight=25 18 10 7 8 6
internal_count=25 18 10 7 8 6
is_linear=0
shrinkage=0.05


Tree=72
num_leaves=6
num_cat=0
split_feature=5 5 3 1 1
split_gain=59.7201 16.4377 9.01239 4.19481 4.3738
threshold=4.5000000000000009 1.0000000180025095e-35 2.5000000000000004 2010.5000000000002 2009.5000000000002
decision_type=2 2 2 2 2
left_child=1 -1 -2 4 -3
right_child=2 3 -4 -5 -6
leaf_value=-0.15310186666827022 0.069339604203293978 -0.033378254878716401 0.18891430516396795 -0.062646080699621451 0.033218143480580019
leaf_weight=3.0000000000000044 3.9999999999999991 5.9999999999999982 3 5.0000000000000009 4
leaf_count=3 4 6 3 5 4
internal_value=0.000135576 -0.0478742 0.123229 -0.025623 -0.0061795
internal_weight=25 18 7 15 10
internal_count=25 18 7 15 10
is_linear=0
shrinkage=0.05


Tree=73
num_leaves=7
num_cat=0
split_feature=5 7 1 0 3 1
split_gain=54.0903 15.7282 18.4647 26.4856 8.14322 5.82973
threshold=4.5000000000000009 1.0000000180025095e-35 2009.5000000000002 2.5000000000000004 2.5000000000000004 2009.5000000000002
decision_type=2 2 2 2 2 2
left_child=1 2 3 -1 -2 -3
right_child=4 5 -4 -5 -6 -7
leaf_value=-0.24468108761695087 0.065957183081929285 0.065957183081929285 -0.0022524445522122262 -0.032800483511340225 0.1797732906956826 -0.0022524445522122262
leaf_weight=3.0000000000000036 3.9999999999999991 3 4 3 3 5
leaf_count=3 4 3 4 3 3 5
internal_value=0.000127271 -0.045554 -0.0870721 -0.141835 0.117285 0.00616059
internal_weight=25 18 10 6 7 8
internal_count=25 18 10 6 7 8
is_linear=0
shrinkage=0.05


Tree=74
num_leaves=7
num_cat=0
split_feature=3 5 5 1 1 0
split_gain=49.6444 14.3605 6.54033 3.32815 13.3942 3.70605
threshold=1.5000000000000002 1.0000000180025095e-35 5.5000000000000009 2010.5000000000002 2009.5000000000002 2.5000000000000004
decision_type=2 2 2 2 2 2
left_child=1 -1 -2 4 -3 -5
right_child=2 3 -4 5 -6 -7
leaf_value=-0.1422820239297802 0.06552649445650055 -0.051401039198333158 0.16842622372411908 -0.014327817137648417 0.06552649445650055 -0.089452978487937665
leaf_weight=3.0000000000000062 3.9999999999999991 4.9999999999999982 3 4 3 3
leaf_count=3 4 5 3 4 3 3
internal_value=0 -0.0439227 0.112082 -0.0231077 -0.000355305 -0.048035
internal_weight=25 18 7 15 8 7
internal_count=25 18 7 15 8 7
is_linear=0
shrinkage=0.05


Tree=75
num_leaves=7
num_cat=0
split_feature=5 7 0 1 3 5
split_gain=45.9128 13.4994 15.9587 7.25989 6.62228 1.33165
threshold=4.5000000000000009 1.0000000180025095e-35 2.5000000000000004 2009.5000000000002 2.5000000000000004 2.5000000000000004
decision_type=2 2 2 2 2 2
left_child=1 2 -1 -3 -2 -4
right_child=4 3 5 -5 -6 -7
leaf_value=-0.15698365787180446 0.066600878777042502 0.066600878777042502 -0.058926116458831279 -0.027143827667001814 0.16458459284997751 -0.027143827667001814
leaf_weight=4.0000000000000036 3.9999999999999991 3 3 5 3 3
leaf_count=4 4 3 3 5 3 3
internal_value=0 -0.042148 -0.0806149 0.00571986 0.107878 -0.0271438
internal_weight=25 18 10 8 7 6
internal_count=25 18 10 8 7 6
is_linear=0
shrinkage=0.05


Tree=76
num_leaves=6
num_cat=0
split_feature=5 1 3 1 1
split_gain=41.3653 13.6293 6.0635 3.71405 2.82871
threshold=4.5000000000000009 2008.5000000000002 2.5000000000000004 2010.5000000000002 2009.5000000000002
decision_type=2 2 2 2 2
left_child=1 -1 -2 4 -3
right_child=2 3 -4 -5 -6
leaf_value=-0.13565006409921923 0.057903470353382405 -0.02342068875422245 0.15662082972065092 -0.054374287175197211 0.030222885056239795
leaf_weight=3.0000000000000062 3.9999999999999991 5.9999999999999947 3 5.0000000000000009 4
leaf_count=3 4 6 3 5 4
internal_value=4.59109e-05 -0.0398772 0.102525 -0.0196199 -0.00138142
internal_weight=25 18 7 15 10
internal_count=25 18 7 15 10
is_linear=0
shrinkage=0.05


Tree=77
num_leaves=6
num_cat=0
split_feature=7 0 5 0 0
split_gain=37.9012 33.689 30.4341 14.0664 9.14497
threshold=1.0000000180025095e-35 1.0000000180025095e-35 4.5000000000000009 2.5000000000000004 2.5000000000000004
decision_type=2 2 2 2 2
left_child=3 -2 4 -1 -3
right_child=1 2 -4 -5 -6
leaf_value=-0.14643731233550281 -0.074737651336311106 0.070457830952435005 0.18142573295855052 -0.02450119638052143 -0.02450119638052143
leaf_weight=4 2.9999999999999991 4 5 6 3
leaf_count=4 3 4 5 6 3
internal_value=3.9893e-05 0.0503875 0.0883773 -0.0747377 0.0195908
internal_weight=25 15 12 10 7
internal_count=25 15 12 10 7
is_linear=0
shrinkage=0.05


Tree=78
num_leaves=7
num_cat=0
split_feature=3 1 5 1 1 0
split_gain=34.1842 12.7073 5.25996 3.55415 10.0734 4.08855
threshold=1.5000000000000002 2008.5000000000002 5.5000000000000009 2010.5000000000002 2009.5000000000002 2.5000000000000004
decision_type=2 2 2 2 2 2
left_child=1 -1 -2 4 -3 -5
right_child=2 3 -4 5 -6 -7
leaf_value=-0.12899729359534448 0.051344992474811849 -0.039566596582824125 0.14325996598889748 -0.0078320113624014507 0.051344992474811849 -0.086126370199265001
leaf_weight=3.0000000000000062 3.9999999999999991 4.9999999999999982 3 4 3 3
leaf_count=3 4 5 3 4 3 3
internal_value=0 -0.0365494 0.0929043 -0.0169968 0.00524088 -0.0428314
internal_weight=25 18 7 15 8 7
internal_count=25 18 7 15 8 7
is_linear=0
shrinkage=0.05


Tree=79
num_leaves=6
num_cat=0
split_feature=7 0 5 0 1
split_gain=32.6873 31.0776 26.1225 12.3254 5.10448
threshold=1.0000000180025095e-35 1.0000000180025095e-35 4.5000000000000009 2.5000000000000004 2009.5000000000002
decision_type=2 2 2 2 2
left_child=3 -2 4 -1 -3
right_child=1 2 -4 -5 -6
leaf_value=-0.13666034791527723 -0.06953540352901609 0.068055626269309735 0.16956090716754688 -0.022459040850889483 -0.016438645851321335
leaf_weight=4 2.9999999999999991 3 5 6 4
leaf_count=4 3 3 5 6 4
internal_value=0 0.0466657 0.0833334 -0.0695354 0.0195175
internal_weight=25 15 12 10 7
internal_count=25 15 12 10 7
is_linear=0
shrinkage=0.05


Tree=80
num_leaves=6
num_cat=0
split_feature=9 0 3 5 0
split_gain=30.2195 27.2891 18.0245 16.1387 12.6819
threshold=1.0000000180025095e-35 1.0000000180025095e-35 1.5000000000000002 2.5000000000000004 2.5000000000000004
decision_type=2 2 2 2 2
left_child=3 -2 -3 4 -1
right_child=1 2 -4 -5 -6
leaf_value=-0.20129408990183181 -0.048101610090674408 0.031994200625070711 0.18395323026471022 -0.048101610090674408 -0.051836130503685234
leaf_weight=3 4.0000000000000009 4 4 7 3
leaf_count=3 4 4 4 7 3
internal_value=0 0.0568734 0.109924 -0.0527202 -0.12946
internal_weight=25 12 8 13 6
internal_count=25 12 8 13 6
is_linear=0
shrinkage=0.05


Tree=81
num_leaves=7
num_cat=0
split_feature=9 5 0 3 0 1
split_gain=26.5067 25.4046 18.5342 16.2885 11.4605 0.272467
threshold=1.0000000180025095e-35 2.5000000000000004 1.0000000180025095e-35 1.5000000000000002 2.5000000000000004 2009.5000000000002
decision_type=2 2 2 2 2 2
left_child=1 4 -2 -4 -1 -3
right_child=2 5 3 -5 -6 -7
leaf_value=-0.19155406028993663 0.015620347017973241 0.0011224927698693624 0.030433508244956411 0.17497989927850119 -0.049327924751466301 0.015620347017973241
leaf_weight=3 4.0000000000000009 4 4 4 3 3
leaf_count=3 4 4 4 4 3 3
internal_value=0.000548566 -0.0485366 0.0540991 0.104592 -0.123235 0.0156203
internal_weight=25 13 12 8 6 7
internal_count=25 13 12 8 6 7
is_linear=0
shrinkage=0.05


Tree=82
num_leaves=6
num_cat=0
split_feature=9 0 3 5 0
split_gain=23.392 23.3213 14.7187 12.5166 10.3555
threshold=1.0000000180025095e-35 1.0000000180025095e-35 1.5000000000000002 2.5000000000000004 2.5000000000000004
decision_type=2 2 2 2 2
left_child=3 -2 -3 4 -1
right_child=1 2 -4 -5 -6
leaf_value=-0.18228531499062811 -0.045974423844395707 0.028948946987710347 0.16644428735826072 -0.045974423844395707 -0.046941090399219128
leaf_weight=3 4.0000000000000009 4 4 7 3
leaf_count=3 4 4 4 7 3
internal_value=0.00012458 0.0504456 0.09952 -0.0459744 -0.117312
internal_weight=25 12 8 13 6
internal_count=25 12 8 13 6
is_linear=0
shrinkage=0.05


Tree=83
num_leaves=7
num_cat=0
split_feature=9 5 0 3 0 1
split_gain=20.4281 22.0054 14.865 13.2993 9.35601 0.248988
threshold=1.0000000180025095e-35 2.5000000000000004 1.0000000180025095e-35 1.5000000000000002 2.5000000000000004 2009.5000000000002
decision_type=2 2 2 2 2 2
left_child=1 4 -2 -4 -1 -3
right_child=2 5 3 -5 -6 -7
leaf_value=-0.17346505811137536 0.017525064966208495 0.003310392288173117 0.02753680246632273 0.15832506040247474 -0.044669752543972374 0.017525064966208495
leaf_weight=3 4.0000000000000009 4 4 4 3 3
leaf_count=3 4 4 4 4 3 3
internal_value=0.000944949 -0.0421214 0.0479759 0.0946955 -0.111675 0.0175251
internal_weight=25 13 12 8 6 7
internal_count=25 13 12 8 6 7
is_linear=0
shrinkage=0.05


Tree=84
num_leaves=7
num_cat=0
split_feature=9 5 0 3 0 1
split_gain=17.9628 20.0721 13.6695 12.0159 8.45193 0.237552
threshold=1.0000000180025095e-35 2.5000000000000004 1.0000000180025095e-35 1.5000000000000002 2.5000000000000004 2009.5000000000002
decision_type=2 2 2 2 2 2
left_child=1 4 -2 -4 -1 -3
right_child=2 5 3 -5 -6 -7
leaf_value=-0.16507158587055817 0.017061566970717739 0.0031489078591509564 0.026193544922805415 0.15060189031973117 -0.042508307387751909 0.017061566970717739
leaf_weight=3 4.0000000000000009 4 4 4 3 3
leaf_count=3 4 4 4 4 3 3
internal_value=0.000496824 -0.0398749 0.0446141 0.0901063 -0.106311 0.0170616
internal_weight=25 13 12 8 6 7
internal_count=25 13 12 8 6 7
is_linear=0
shrinkage=0.05


Tree=85
num_leaves=7
num_cat=0
split_feature=1 5 1 8 0 7
split_gain=16.8673 11.7293 7.57659 9.77224 4.401 0.0846864
threshold=2008.5000000000002 5.5000000000000009 2010.5000000000002 1.0000000180025095e-35 2.5000000000000004 1.0000000180025095e-35
decision_type=2 2 2 2 2 2
left_child=-1 2 3 5 -4 -2
right_child=1 -3 4 -5 -6 -7
leaf_value=-0.10895538176259674 -0.0047565671264148107 0.10577439435066716 -0.0040515504232267064 0.10149597583278534 -0.08495241634307367 0.005112652240260954
leaf_weight=3.0000000000000027 6.0000000000000053 2.9999999999999991 3.9999999999999991 2.9999999999999991 3 3
leaf_count=3 6 3 4 3 3 3
internal_value=6.56087e-05 0.0155841 0.000602505 0.024915 -0.0401358 -0.000897345
internal_weight=25 22 19 12 7 9
internal_count=25 22 19 12 7 9
is_linear=0
shrinkage=0.05


Tree=86
num_leaves=7
num_cat=0
split_feature=1 5 1 8 0 7
split_gain=15.2719 10.6239 6.86895 8.8488 3.97818 0.0767839
threshold=2008.5000000000002 5.5000000000000009 2010.5000000000002 1.0000000180025095e-35 2.5000000000000004 1.0000000180025095e-35
decision_type=2 2 2 2 2 2
left_child=-1 2 3 5 -4 -2
right_child=1 -3 4 -5 -6 -7
leaf_value=-0.10368334708675252 -0.0045226384381778862 0.10065627809493774 -0.0038539115975542771 0.096584883812935132 -0.080841816625287444 0.0048652660462164101
leaf_weight=3.0000000000000027 6.0000000000000053 2.9999999999999991 3.9999999999999991 2.9999999999999991 3 3
leaf_count=3 6 3 4 3 3 3
internal_value=4.43341e-05 0.0148204 0.000549565 0.0237114 -0.0382269 -0.00082481
internal_weight=25 22 19 12 7 9
internal_count=25 22 19 12 7 9
is_linear=0
shrinkage=0.05


Tree=87
num_leaves=6
num_cat=0
split_feature=7 0 5 0 1
split_gain=14.7819 21.8805 11.3353 5.90807 5.54323
threshold=1.0000000180025095e-35 1.0000000180025095e-35 4.5000000000000009 2.5000000000000004 2009.5000000000002
decision_type=2 2 2 2 2
left_child=3 -2 4 -1 -3
right_child=1 2 -4 -5 -6
leaf_value=-0.09311615577558191 -0.046600177485753992 0.071910691261291487 0.12080249681192286 -0.013751730151840898 -0.013751730151840898
leaf_weight=4 2.9999999999999991 3 5 6 4
leaf_count=4 3 3 5 6 4
internal_value=2.40312e-05 0.0315407 0.0638404 -0.0466002 0.0213205
internal_weight=25 15 12 10 7
internal_count=25 15 12 10 7
is_linear=0
shrinkage=0.05


Tree=88
num_leaves=7
num_cat=0
split_feature=1 5 1 8 0 1
split_gain=13.9617 8.95643 6.04411 7.21753 4.01986 0.0562121
threshold=2008.5000000000002 5.5000000000000009 2010.5000000000002 1.0000000180025095e-35 2.5000000000000004 2009.5000000000002
decision_type=2 2 2 2 2 2
left_child=-1 2 3 5 -4 -2
right_child=1 -3 4 -5 -6 -7
leaf_value=-0.099484240239666247 0.0025602634812964746 0.092640570479054607 -0.0012260605649250312 0.088236372701583382 -0.078434940691917157 -0.0056950790266836835
leaf_weight=3.0000000000000027 6.0000000000000053 2.9999999999999991 3.9999999999999991 2.9999999999999991 3 3
leaf_count=3 6 3 4 3 3 3
internal_value=0 0.0138238 0.000697406 0.0224377 -0.0356585 0
internal_weight=25 22 19 12 7 9
internal_count=25 22 19 12 7 9
is_linear=0
shrinkage=0.05


Tree=89
num_leaves=6
num_cat=0
split_feature=7 0 5 1 0
split_gain=12.9428 20.4405 9.20682 5.29788 5.15165
threshold=1.0000000180025095e-35 1.0000000180025095e-35 4.5000000000000009 2009.5000000000002 2.5000000000000004
decision_type=2 2 2 2 2
left_child=4 -2 3 -3 -1
right_child=1 2 -4 -5 -6
leaf_value=-0.087408182388398703 -0.043932965604385525 0.07159901857376097 0.11210317407168593 -0.014449855467168295 -0.014449855467168295
leaf_weight=4 2.9999999999999991 3 5 4 6
leaf_count=4 3 3 5 4 6
internal_value=0 0.0291865 0.0606974 0.022213 -0.043933
internal_weight=25 15 12 7 10
internal_count=25 15 12 7 10
is_linear=0
shrinkage=0.05


Tree=90
num_leaves=7
num_cat=0
split_feature=1 5 1 8 0 1
split_gain=12.8036 7.53924 5.31726 5.86305 4.02527 0.0595973
threshold=2008.5000000000002 5.5000000000000009 2010.5000000000002 1.0000000180025095e-35 2.5000000000000004 2009.5000000000002
decision_type=2 2 2 2 2 2
left_child=-1 2 3 5 -4 -2
right_child=1 -3 4 -5 -6 -7
leaf_value=-0.095570322390525472 0.0036357150947461331 0.085250323722439444 0 0.080583697749722405 -0.075981688499450667 -0.0047203238933317118
leaf_weight=3.0000000000000027 6.0000000000000053 2.9999999999999991 3.9999999999999991 2.9999999999999991 3 3
leaf_count=3 6 3 4 3 3 3
internal_value=-0.000218181 0.0129317 0.000864694 0.021269 -0.0332167 0.000279655
internal_weight=25 22 19 12 7 9
internal_count=25 22 19 12 7 9
is_linear=0
shrinkage=0.05


Tree=91
num_leaves=7
num_cat=0
split_feature=1 5 1 8 0 1
split_gain=11.5942 6.82743 4.8154 5.30962 3.6448 0.053973
threshold=2008.5000000000002 5.5000000000000009 2010.5000000000002 1.0000000180025095e-35 2.5000000000000004 2009.5000000000002
decision_type=2 2 2 2 2 2
left_child=-1 2 3 5 -4 -2
right_child=1 -3 4 -5 -6 -7
leaf_value=-0.090945947939349667 0.0034569083667192278 0.081125310015293869 0 0.076684484943266851 -0.072305156723145511 -0.004491922740013368
leaf_weight=3.0000000000000027 6.0000000000000053 2.9999999999999991 3.9999999999999991 2.9999999999999991 3 3
leaf_count=3 6 3 4 3 3 3
internal_value=-0.000199256 0.0123046 0.000808516 0.0202384 -0.0316115 0.000237602
internal_weight=25 22 19 12 7 9
internal_count=25 22 19 12 7 9
is_linear=0
shrinkage=0.05


Tree=92
num_leaves=7
num_cat=0
split_feature=7 0 5 0 1 0
split_gain=11.1395 19.3146 6.65128 8.7917 3.49088 8.80123
threshold=1.0000000180025095e-35 1.0000000180025095e-35 4.5000000000000009 2.5000000000000004 2009.5000000000002 2.5000000000000004
decision_type=2 2 2 2 2 2
left_child=4 -2 3 -3 5 -1
right_child=1 2 -4 -5 -6 -7
leaf_value=-0.14031869211504533 -0.041023972792790665 0.073045003995662772 0.10171575034950293 -0.038061061597639501 -0.041023972792790665 -0.038061061597639501
leaf_weight=3 2.9999999999999991 4 5 3 4 3
leaf_count=3 3 4 5 3 4 3
internal_value=-0.000181211 0.0268075 0.0578715 0.0248585 -0.041024 -0.0783204
internal_weight=25 15 12 7 10 6
internal_count=25 15 12 7 10 6
is_linear=0
shrinkage=0.05


Tree=93
num_leaves=7
num_cat=0
split_feature=1 0 5 1 1 0
split_gain=10.5866 6.34789 14.6494 6.88096 0.548854 0.73828
threshold=2008.5000000000002 1.0000000180025095e-35 4.5000000000000009 2010.5000000000002 2009.5000000000002 2.5000000000000004
decision_type=2 2 2 2 2 2
left_child=-1 -2 3 4 5 -3
right_child=1 2 -4 -5 -6 -7
leaf_value=-0.086638416397956011 -0.04378888403497088 0.023611715147572158 0.096729684489614831 -0.068359723398762381 0.031172340526813409 -0.010341120246917967
leaf_weight=3.0000000000000027 4.0000000000000027 3.0000000000000018 4.9999999999999991 2.9999999999999991 4 3
leaf_count=3 4 3 5 3 4 3
internal_value=0 0.0120279 0.0248813 -0.00289845 0.0167273 0.0059244
internal_weight=25 22 18 13 10 6
internal_count=25 22 18 13 10 6
is_linear=0
shrinkage=0.05


Tree=94
num_leaves=7
num_cat=0
split_feature=1 0 8 0 3 1
split_gain=9.582 5.74411 13.4854 5.24849 1.71585 1.24655
threshold=2008.5000000000002 1.0000000180025095e-35 1.0000000180025095e-35 2.5000000000000004 1.5000000000000002 2009.5000000000002
decision_type=2 2 2 2 2 2
left_child=-1 -2 3 -3 -4 -5
right_child=1 2 4 5 -6 -7
leaf_value=-0.082446235226046563 -0.041652839649014325 0.033997740978147908 0.043508605034120622 -0.0098407438205134461 0.10004241716389249 -0.055057755621468141
leaf_weight=3.0000000000000027 4.0000000000000027 4.0000000000000018 2.9999999999999991 3 4 4
leaf_count=3 4 4 3 3 4 4
internal_value=0 0.0114218 0.0236574 -0.0105272 0.0774719 -0.0367948
internal_weight=25 22 18 11 7 7
internal_count=25 22 18 11 7 7
is_linear=0
shrinkage=0.05


Tree=95
num_leaves=6
num_cat=0
split_feature=5 0 8 0 3
split_gain=8.91742 5.23139 15.9084 7.35535 1.03639
threshold=1.0000000180025095e-35 1.0000000180025095e-35 1.0000000180025095e-35 2.5000000000000004 1.5000000000000002
decision_type=2 2 2 2 2
left_child=-1 -2 3 -3 -4
right_child=1 2 4 -5 -6
leaf_value=-0.079545984729643707 -0.039620994358527922 0.032339307157004747 0.051642752565988687 -0.053895770233185564 0.09516229618613313
leaf_weight=3.0000000000000027 4.0000000000000027 4 4 6 4
leaf_count=3 4 4 4 6 4
internal_value=0 0.0110082 0.0226921 -0.018928 0.074926
internal_weight=25 22 18 10 8
internal_count=25 22 18 10 8
is_linear=0
shrinkage=0.05


Tree=96
num_leaves=7
num_cat=0
split_feature=1 0 8 0 3 1
split_gain=8.29656 4.76722 10.8087 4.15379 1.41356 1.16349
threshold=2008.5000000000002 1.0000000180025095e-35 1.0000000180025095e-35 2.5000000000000004 1.5000000000000002 2009.5000000000002
decision_type=2 2 2 2 2 2
left_child=-1 -2 3 -3 -4 -5
right_child=1 2 4 5 -6 -7
leaf_value=-0.076723850927045187 -0.037688264323443875 0.03076178446048642 0.03890450577582083 -0.0063430074722536133 0.090520235205568914 -0.049742951189599385
leaf_weight=3.0000000000000027 4.0000000000000027 4.0000000000000018 2.9999999999999991 3 4 4
leaf_count=3 4 4 3 3 4 4
internal_value=0 0.0106212 0.0217818 -0.00878253 0.0699629 -0.0321985
internal_weight=25 22 18 11 7 7
internal_count=25 22 18 11 7 7
is_linear=0
shrinkage=0.05


Tree=97
num_leaves=6
num_cat=0
split_feature=7 0 0 5 0
split_gain=7.77271 14.7002 4.02152 2.9036 7.33638
threshold=1.0000000180025095e-35 1.0000000180025095e-35 2.5000000000000004 4.5000000000000009 2.5000000000000004
decision_type=2 2 2 2 2
left_child=2 -2 -1 4 -3
right_child=1 3 -4 -5 -6
leaf_value=-0.072400504786793773 -0.034082463885297863 0.073994889782696235 -0.0069493140353531135 0.079468858242034923 -0.0069493140353531135
leaf_weight=4 2.9999999999999991 4 6 5 3
leaf_count=4 3 4 6 5 3
internal_value=0 0.0225809 -0.0340825 0.0500709 0.0275446
internal_weight=25 15 10 12 7
internal_count=25 15 10 12 7
is_linear=0
shrinkage=0.05


Tree=98
num_leaves=6
num_cat=0
split_feature=1 5 1 0 1
split_gain=7.6669 4.06765 3.58265 4.27495 0.523535
threshold=2008.5000000000002 5.5000000000000009 2010.5000000000002 2.5000000000000004 2009.5000000000002
decision_type=2 2 2 2 2
left_child=-1 2 4 -4 -2
right_child=1 -3 3 -5 -6
leaf_value=-0.074230590558821072 0.0058951732198722975 0.062854392297806275 0.0057341793688332173 -0.071348884797865331 0.02815897025045801
leaf_weight=3.0000000000000027 6.0000000000000053 2.9999999999999991 3.9999999999999991 3 6
leaf_count=3 6 3 4 3 6
internal_value=-0.000406667 0.00972432 0.000788422 -0.0271368 0.017581
internal_weight=25 22 19 7 12
internal_count=25 22 19 7 12
is_linear=0
shrinkage=0.05


Tree=99
num_leaves=7
num_cat=0
split_feature=9 5 0 0 3 1
split_gain=7.02928 11.7803 6.37969 5.04065 1.36338 0.09656
threshold=1.0000000180025095e-35 2.5000000000000004 2.5000000000000004 1.0000000180025095e-35 1.5000000000000002 2009.5000000000002
decision_type=2 2 2 2 2 2
left_child=1 2 -1 -2 -5 -3
right_child=3 5 -4 4 -6 -7
leaf_value=-0.12766497212071568 0.017518343178319257 0.0070736843638303792 -0.02206699540538172 0.034109280167556384 0.080008242842627739 0.017518343178319257
leaf_weight=3 4.0000000000000009 4 3 4 4 3
leaf_count=3 4 4 3 4 4 3
internal_value=-0.000365007 -0.0259381 -0.076913 0.0269113 0.0583805 0.0175183
internal_weight=25 13 6 12 8 7
internal_count=25 13 6 12 8 7
is_linear=0
shrinkage=0.05


end of trees

feature_importances:
Column_5=185
Column_1=100
Column_3=95
Column_0=75
Column_7=43
Column_8=29
Column_11=20
Column_9=14
Column_4=11
Column_6=9

parameters:
[boosting: gbdt]
[objective: regression]
[metric: l2]
[tree_learner: serial]
[device_type: cpu]
[data_sample_strategy: bagging]
[data: ]
[valid: ]
[num_iterations: 100]
[learning_rate: 0.05]
[num_leaves: 8]
[num_threads: 4]
[seed: 42]
[deterministic: 0]
[force_col_wise: 0]
[force_row_wise: 0]
[histogram_pool_size: -1]
[max_depth: -1]
[min_data_in_leaf: 3]
[min_sum_hessian_in_leaf: 0.001]
[bagging_fraction: 1]
[pos_bagging_fraction: 1]
[neg_bagging_fraction: 1]
[bagging_freq: 0]
[bagging_seed: 400]
[bagging_by_query: 0]
[feature_fraction: 1]
[feature_fraction_bynode: 1]
[feature_fraction_seed: 30056]
[extra_trees: 0]
[extra_seed: 12879]
[early_stopping_round: 0]
[early_stopping_min_delta: 0]
[first_metric_only: 0]
[max_delta_step: 0]
[lambda_l1: 0.1]
[lambda_l2: 0.1]
[linear_lambda: 0]
[min_gain_to_split: 0]
[drop_rate: 0.1]
[max_drop: 50]
[skip_drop: 0.5]
[xgboost_dart_mode: 0]
[uniform_drop: 0]
[drop_seed: 17869]
[top_rate: 0.2]
[other_rate: 0.1]
[min_data_per_group: 100]
[max_cat_threshold: 32]
[cat_l2: 10]
[cat_smooth: 10]
[max_cat_to_onehot: 4]
[top_k: 20]
[monotone_constraints: 0,0,0,1,1,1,1,1,1,1,1,1,1,0]
[monotone_constraints_method: advanced]
[monotone_penalty: 0]
[feature_contri: ]
[forcedsplits_filename: ]
[refit_decay_rate: 0.9]
[cegb_tradeoff: 1]
[cegb_penalty_split: 0]
[cegb_penalty_feature_lazy: ]
[cegb_penalty_feature_coupled: ]
[path_smooth: 0]
[interaction_constraints: ]
[verbosity: -1]
[saved_feature_importance_type: 0]
[use_quantized_grad: 0]
[num_grad_quant_bins: 4]
[quant_train_renew_leaf: 0]
[stochastic_rounding: 1]
[linear_tree: 0]
[max_bin: 255]
[max_bin_by_feature: ]
[min_data_in_bin: 3]
[bin_construct_sample_cnt: 200000]
[data_random_seed: 175]
[is_enable_sparse: 1]
[enable_bundle: 1]
[use_missing: 1]
[zero_as_missing: 0]
[feature_pre_filter: 1]
[pre_partition: 0]
[two_round: 0]
[header: 0]
[label_column: ]
[weight_column: ]
[group_column: ]
[ignore_column: ]
[categorical_feature: ]
[forcedbins_filename: ]
[precise_float_parser: 0]
[parser_config_file: ]
[objective_seed: 16083]
[num_class: 1]
[is_unbalance: 0]
[scale_pos_weight: 1]
[sigmoid: 1]
[boost_from_average: 1]
[reg_sqrt: 0]
[alpha: 0.9]
[fair_c: 1]
[poisson_max_delta_step: 0.7]
[tweedie_variance_power: 1.5]
[lambdarank_truncation_level: 30]
[lambdarank_norm: 1]
[label_gain: ]
[lambdarank_position_bias_regularization: 0]
[eval_at: ]
[multi_error_top_k: 1]
[auc_mu_weights: ]
[num_machines: 1]
[local_listen_port: 12400]
[time_out: 120]
[machine_list_filename: ]
[machines: ]
[gpu_platform_id: -1]
[gpu_device_id: -1]
[gpu_use_dp: 0]
[num_gpu: 1]

end of parameters

pandas_categorical:null
