tree
version=v4
num_class=1
num_tree_per_iteration=1
label_index=0
max_feature_idx=13
objective=regression
feature_names=Column_0 Column_1 Column_2 Column_3 Column_4 Column_5 Column_6 Column_7 Column_8 Column_9 Column_10 Column_11 Column_12 Column_13
monotone_constraints=0 0 0 1 1 1 1 1 1 1 1 1 1 0
feature_infos=[0:4] [2008:2013] none [0:4] [0:3] [0:8] [0:1] [0:1] [0:1] [0:1] [0:1] [0:1] none none
tree_sizes=720 635 632 709 708 725 740 807 728 794 796 807 727 722 720 637 805 722 811 823 721 737 811 731 736 732 735 730 728 812 732 730 736 732 741 731 750 736 740 734 660 736 736 679 678 678 752 753 751 755 746 758 753 752 679 675 733 677 733 676 735 754 744 685 727 686 723 711 736 688 735 697 651 650 650 752 651 648 651 652 628 791 721 793 723 787 802 696 650 715 798 651 794 776 652 771 785 662 770 661

Tree=0
num_leaves=7
num_cat=0
split_feature=5 3 5 3 11 8
split_gain=56880 19838.3 1968.49 1189.97 874.313 206.59
threshold=2.5000000000000004 1.5000000000000002 1.0000000180025095e-35 2.5000000000000004 1.0000000180025095e-35 1.0000000180025095e-35
decision_type=2 2 2 2 2 2
left_child=2 4 -1 -3 5 -2
right_child=1 3 -4 -5 -6 -7
leaf_value=392.98806461949505 396.82677420077789 400.04935481902095 394.6880327356057 401.62951229932833 398.14612904333302 397.40419355177113
leaf_weight=3.0000000000000018 2.9999999999999982 2.9999999999999991 6 4 3 3
leaf_count=3 3 3 6 4 3 3
internal_value=397.24 399.026 394.08 401.002 397.464 397.114
internal_weight=25 16 9 7 9 6
internal_count=25 16 9 7 9 6
is_linear=0
shrinkage=1


Tree=1
num_leaves=6
num_cat=0
split_feature=4 5 3 5 8
split_gain=51502.5 16356.9 2407.18 1787.74 468.588
threshold=1.0000000180025095e-35 2.5000000000000004 2.5000000000000004 1.0000000180025095e-35 1.0000000180025095e-35
decision_type=2 2 2 2 2
left_child=1 3 -2 -1 -3
right_child=2 4 -4 -5 -6
leaf_value=-4.0461968206590209 2.3122659357582638 -0.39323102216566752 4.1753898062357084 -2.4264606913582223 0.3862270697659137
leaf_weight=3 4.0000000000000018 3 4 6 5
leaf_count=3 4 3 4 6 5
internal_value=2.03214e-05 -1.55549 3.28449 -3.00545 0.0920669
internal_weight=25 17 8 9 8
internal_count=25 17 8 9 8
is_linear=0
shrinkage=0.05


Tree=2
num_leaves=6
num_cat=0
split_feature=4 5 3 5 8
split_gain=46601.3 14798 2177.45 1623.54 424.076
threshold=1.0000000180025095e-35 2.5000000000000004 2.5000000000000004 1.0000000180025095e-35 1.0000000180025095e-35
decision_type=2 2 2 2 2
left_child=1 3 -2 -1 -3
right_child=2 4 -4 -5 -6
leaf_value=-3.8504127748550894 2.1994724320202326 -0.37420370299969941 3.971712140339176 -2.3071265799100278 0.36729437048528707
leaf_weight=3 4.0000000000000018 3 4 6 5
leaf_count=3 4 3 4 6 5
internal_value=1.09489e-05 -1.47962 3.1243 -2.85876 0.0874284
internal_weight=25 17 8 9 8
internal_count=25 17 8 9 8
is_linear=0
shrinkage=0.05


Tree=3
num_leaves=7
num_cat=0
split_feature=4 5 3 5 8 1
split_gain=42166.5 13387.7 1969.62 1474.39 383.793 11.0194
threshold=1.0000000180025095e-35 2.5000000000000004 2.5000000000000004 1.0000000180025095e-35 1.0000000180025095e-35 2010.5000000000002
decision_type=2 2 2 2 2 2
left_child=1 3 -2 -1 -3 -5
right_child=2 4 -4 5 -6 -7
leaf_value=-3.6641025912377132 2.0921811638808818 -0.35609707292770176 3.7779701325951542 -2.4477957202542209 0.34928974561831527 -1.8671505589638984
leaf_weight=3 4.0000000000000018 3 4 3 5 3
leaf_count=3 4 3 4 3 5 3
internal_value=1.81648e-06 -1.40746 2.97193 -2.71924 0.0830218 -2.19366
internal_weight=25 17 8 9 8 6
internal_count=25 17 8 9 8 6
is_linear=0
shrinkage=0.05


Tree=4
num_leaves=7
num_cat=0
split_feature=4 5 3 5 8 1
split_gain=38165.5 12122.7 1781.6 1334.56 347.337 9.5747
threshold=1.0000000180025095e-35 2.5000000000000004 2.5000000000000004 1.0000000180025095e-35 1.0000000180025095e-35 2010.5000000000002
decision_type=2 2 2 2 2 2
left_child=1 3 -2 -1 -3 -5
right_child=2 4 -4 5 -6 -7
leaf_value=-3.4868073986422625 1.9901235208278738 -0.33886656443918894 3.5936789442853225 -2.3293539847097082 0.33216770396513096 -1.7768046225270913
leaf_weight=3 4.0000000000000018 3 4 3 5 3
leaf_count=3 4 3 4 3 5 3
internal_value=-4.12578e-05 -1.33945 2.82699 -2.58771 0.0788357 -2.08756
internal_weight=25 17 8 9 8 6
internal_count=25 17 8 9 8 6
is_linear=0
shrinkage=0.05


Tree=5
num_leaves=7
num_cat=0
split_feature=3 6 1 5 11 8
split_gain=34667.9 12377.7 1214.2 690.431 521.063 103.771
threshold=1.5000000000000002 1.0000000180025095e-35 2009.5000000000002 5.5000000000000009 1.0000000180025095e-35 1.0000000180025095e-35
decision_type=2 2 2 2 2 2
left_child=1 2 -1 -2 5 -3
right_child=3 4 -4 -5 -6 -7
leaf_value=-3.0007472917145348 2.3941058461259055 -0.32246980590205032 -1.7318142030297257 3.6122593172134887 0.6773808294726954 0.086814237602295397
leaf_weight=5.0000000000000036 3.9999999999999991 3 4 3 3 3
leaf_count=5 4 3 4 3 3 3
internal_value=-0.000440767 -1.16215 -2.46255 2.9604 0.150478 -0.11894
internal_weight=25 18 9 7 9 6
internal_count=25 18 9 7 9 6
is_linear=0
shrinkage=0.05


Tree=6
num_leaves=7
num_cat=0
split_feature=3 5 5 5 11 8
split_gain=31375 11197 1146.73 626.352 471.835 93.9938
threshold=1.5000000000000002 2.5000000000000004 1.0000000180025095e-35 5.5000000000000009 1.0000000180025095e-35 1.0000000180025095e-35
decision_type=2 2 2 2 2 2
left_child=1 2 -1 -2 5 -3
right_child=3 4 -4 -5 -6 -7
leaf_value=-3.1728933765042151 2.2773201686580009 -0.30686642412216436 -1.8806115009745612 3.437472595707062 0.6446043352926929 0.082613546425296391
leaf_weight=3.0000000000000053 3.9999999999999991 2.9999999999999982 6 3 3 3
leaf_count=3 4 3 6 3 3 3
internal_value=-5.70664e-05 -1.10523 -2.34205 2.81664 0.143197 -0.113145
internal_weight=25 18 9 7 9 6
internal_count=25 18 9 7 9 6
is_linear=0
shrinkage=0.05


Tree=7
num_leaves=8
num_cat=0
split_feature=3 5 5 3 11 7 1
split_gain=28397.1 10131.5 1041.21 622.711 427.258 89.2424 12.8993
threshold=1.5000000000000002 2.5000000000000004 1.0000000180025095e-35 2.5000000000000004 1.0000000180025095e-35 1.0000000180025095e-35 2010.5000000000002
decision_type=2 2 2 2 2 2 2
left_child=1 2 -1 -2 5 -3 -4
right_child=3 4 6 -5 -6 -7 -8
leaf_value=-3.0193663320233686 1.9931810194446198 -0.29643031704810369 -2.0009151950959234 3.1324953963116897 0.61341380919179589 0.083028386100645973 -1.5160353629819805
leaf_weight=3.0000000000000053 2.9999999999999991 2.9999999999999982 3 4 3 3 3
leaf_count=3 3 3 3 4 3 3 3
internal_value=0 -1.05125 -2.22776 2.67987 0.136268 -0.10763 -1.78812
internal_weight=25 18 9 7 9 6 6
internal_count=25 18 9 7 9 6 6
is_linear=0
shrinkage=0.05


Tree=8
num_leaves=7
num_cat=0
split_feature=3 6 1 5 11 8
split_gain=25705.9 9175.37 953.563 582.879 386.891 82.3716
threshold=1.5000000000000002 1.0000000180025095e-35 2009.5000000000002 5.5000000000000009 1.0000000180025095e-35 1.0000000180025095e-35
decision_type=2 2 2 2 2 2
left_child=1 2 -1 -2 5 -3
right_child=3 4 -4 -5 -6 -7
leaf_value=-2.5954182045132486 2.0412148312824532 -0.28379493990252086 -1.475732249748416 3.1379469348538298 0.58373251115122127 0.080718917615952013
leaf_weight=5.0000000000000036 3.9999999999999991 3 4 3 3 3
leaf_count=5 4 3 4 3 3 3
internal_value=-1.92687e-05 -1.00039 -2.12001 2.54952 0.129674 -0.102383
internal_weight=25 18 9 7 9 6
internal_count=25 18 9 7 9 6
is_linear=0
shrinkage=0.05


Tree=9
num_leaves=8
num_cat=0
split_feature=3 6 5 3 11 7 1
split_gain=23264.3 8300.14 894.011 571.439 350.337 78.2434 3.70647
threshold=1.5000000000000002 1.0000000180025095e-35 1.0000000180025095e-35 2.5000000000000004 1.0000000180025095e-35 1.0000000180025095e-35 2010.5000000000002
decision_type=2 2 2 2 2 2 2
left_child=1 2 -1 -2 5 -3 -4
right_child=3 4 6 -5 -6 -7 -8
leaf_value=-2.7476832236013067 1.7802790734075733 -0.27423415876203955 -1.7965714608469314 2.853369810523056 0.55548736972193546 0.080984385167398754 -1.3712724624141568
leaf_weight=3.0000000000000036 2.9999999999999991 3 3 4 3 3 3
leaf_count=3 3 3 3 4 3 3 3
internal_value=0 -0.951392 -2.01628 2.42573 0.1234 -0.0973892 -1.61071
internal_weight=25 18 9 7 9 6 6
internal_count=25 18 9 7 9 6 6
is_linear=0
shrinkage=0.05


Tree=10
num_leaves=8
num_cat=0
split_feature=3 6 5 5 11 8 1
split_gain=21059.5 7516.9 809.141 539.758 317.235 72.1847 3.05978
threshold=1.5000000000000002 1.0000000180025095e-35 1.0000000180025095e-35 5.5000000000000009 1.0000000180025095e-35 1.0000000180025095e-35 2010.5000000000002
decision_type=2 2 2 2 2 2 2
left_child=1 2 -1 -2 5 -3 -4
right_child=3 4 6 -5 -6 -7 -8
leaf_value=-2.6147308103499838 1.8286275677564672 -0.26252286703355837 -1.7096405398461123 2.8653523598947825 0.52860896664281032 0.078623891261316095 -1.3049205410865043
leaf_weight=3.0000000000000036 3.9999999999999991 3 3 3 3 3 3
leaf_count=3 4 3 3 3 3 3 3
internal_value=0 -0.90537 -1.91877 2.30774 0.117429 -0.0926372 -1.53281
internal_weight=25 18 9 7 9 6 6
internal_count=25 18 9 7 9 6 6
is_linear=0
shrinkage=0.05


Tree=11
num_leaves=8
num_cat=0
split_feature=3 6 5 3 11 7 1
split_gain=19066.2 6807.6 732.307 522.565 287.261 68.5993 2.48851
threshold=1.5000000000000002 1.0000000180025095e-35 1.0000000180025095e-35 2.5000000000000004 1.0000000180025095e-35 1.0000000180025095e-35 2010.5000000000002
decision_type=2 2 2 2 2 2 2
left_child=1 2 -1 -2 5 -3 -4
right_child=3 4 6 -5 -6 -7 -8
leaf_value=-2.4882116379276367 1.5889331817626955 -0.25376440478909396 -1.6269159993817723 2.5996937914592464 0.50303110614899649 0.078763769903490599 -1.2417792412542525
leaf_weight=3.0000000000000036 2.9999999999999991 3 3 4 3 3 3
leaf_count=3 3 3 3 4 3 3 3
internal_value=-3.16551e-06 -0.861576 -1.82598 2.1957 0.111747 -0.0881151 -1.45868
internal_weight=25 18 9 7 9 6 6
internal_count=25 18 9 7 9 6 6
is_linear=0
shrinkage=0.05


Tree=12
num_leaves=7
num_cat=0
split_feature=3 6 1 5 11 8
split_gain=17259.3 6165.25 674.977 497.73 260.118 63.2562
threshold=1.5000000000000002 1.0000000180025095e-35 2009.5000000000002 5.5000000000000009 1.0000000180025095e-35 1.0000000180025095e-35
decision_type=2 2 2 2 2 2
left_child=1 2 -1 -2 5 -3
right_child=3 4 -4 -5 -6 -7
leaf_value=-2.1366415061202688 1.6372646750473399 -0.24290458848399493 -1.1978057116996952 2.6172173161660464 0.47869089957206462 0.076371722067556061
leaf_weight=5.0000000000000036 3.9999999999999991 3 4 3 3 3
leaf_count=5 4 3 4 3 3 3
internal_value=-0.000160412 -0.8199 -1.73768 2.0889 0.10634 -0.0838118
internal_weight=25 18 9 7 9 6
internal_count=25 18 9 7 9 6
is_linear=0
shrinkage=0.05


Tree=13
num_leaves=7
num_cat=0
split_feature=3 6 5 3 11 7
split_gain=15620.1 5577.21 628.33 476.426 235.539 60.1436
threshold=1.5000000000000002 1.0000000180025095e-35 1.0000000180025095e-35 2.5000000000000004 1.0000000180025095e-35 1.0000000180025095e-35
decision_type=2 2 2 2 2 2
left_child=1 2 -1 -2 5 -3
right_child=3 4 -4 -5 -6 -7
leaf_value=-2.2644283294677705 1.4170211730464812 -0.23488165716971113 -1.313840259489466 2.3691115774759428 0.45552843078490213 0.076406836894250665
leaf_weight=3.0000000000000036 2.9999999999999991 3 6 4 3 3
leaf_count=3 3 3 6 4 3 3
internal_value=0 -0.77974 -1.65265 1.98748 0.101194 -0.0797167
internal_weight=25 18 9 7 9 6
internal_count=25 18 9 7 9 6
is_linear=0
shrinkage=0.05


Tree=14
num_leaves=7
num_cat=0
split_feature=3 6 1 5 11 8
split_gain=14135.9 5046.62 575.07 457.318 213.281 55.4307
threshold=1.5000000000000002 1.0000000180025095e-35 2009.5000000000002 5.5000000000000009 1.0000000180025095e-35 1.0000000180025095e-35
decision_type=2 2 2 2 2 2
left_child=1 2 -1 -2 5 -3
right_child=3 4 -4 -5 -6 -7
leaf_value=-1.9395417830523307 1.4650533536585368 -0.22480668021786593 -1.075286381419112 2.3912996230586878 0.43348674081986938 0.073999993647298493
leaf_weight=5.0000000000000036 3.9999999999999991 3 4 3 3 3
leaf_count=5 4 3 4 3 3 3
internal_value=0 -0.741659 -1.57202 1.89081 0.0962976 -0.0758198
internal_weight=25 18 9 7 9 6
internal_count=25 18 9 7 9 6
is_linear=0
shrinkage=0.05


Tree=15
num_leaves=6
num_cat=0
split_feature=4 5 3 5 7
split_gain=12796.2 4032.12 853.783 540.654 134.971
threshold=1.0000000180025095e-35 2.5000000000000004 2.5000000000000004 1.0000000180025095e-35 1.0000000180025095e-35
decision_type=2 2 2 2 2
left_child=1 3 -2 -1 -3
right_child=2 4 -4 -5 -6
leaf_value=-2.0610105206889489 1.0740086090273968 -0.21745813315914517 2.1594877289562691 -1.1821741541878121 0.20073200230504951
leaf_weight=3 4.0000000000000018 3 4 6 5
leaf_count=3 4 3 4 6 5
internal_value=6.18737e-05 -0.775192 1.63733 -1.4951 0.0425448
internal_weight=25 17 8 9 8
internal_count=25 17 8 9 8
is_linear=0
shrinkage=0.05


Tree=16
num_leaves=8
num_cat=0
split_feature=3 6 5 5 11 8 1
split_gain=11633.2 4112.28 490.686 416.393 174.34 47.8609 4.79941
threshold=1.5000000000000002 1.0000000180025095e-35 1.0000000180025095e-35 5.5000000000000009 1.0000000180025095e-35 1.0000000180025095e-35 2010.5000000000002
decision_type=2 2 2 2 2 2 2
left_child=1 2 -1 -2 5 -3 -4
right_child=3 4 6 -5 -6 -7 -8
leaf_value=-1.961284120621217 1.3147215540816148 -0.21015176503889019 -1.2592668287215691 2.1886078988352127 0.3887136120950021 0.067451510121745425 -0.95092992474955873
leaf_weight=3.0000000000000036 3.9999999999999991 3 3 3 3 3 3
leaf_count=3 4 3 3 3 3 3 3
internal_value=4.3568e-05 -0.672594 -1.42215 1.7155 0.0838067 -0.0717001 -1.12403
internal_weight=25 18 9 7 9 6 6
internal_count=25 18 9 7 9 6 6
is_linear=0
shrinkage=0.05


Tree=17
num_leaves=7
num_cat=0
split_feature=3 6 1 3 11 7
split_gain=10532.3 3724.35 451.822 381.682 157.863 44.185
threshold=1.5000000000000002 1.0000000180025095e-35 2009.5000000000002 2.5000000000000004 1.0000000180025095e-35 1.0000000180025095e-35
decision_type=2 2 2 2 2 2
left_child=1 2 -1 -2 5 -3
right_child=3 4 -4 -5 -6 -7
leaf_value=-1.6782919977225497 1.1329478202327605 -0.20124480262879399 -0.91501935400613932 1.9686998320788871 0.36990489728989129 0.065449397794661968
leaf_weight=5.0000000000000036 2.9999999999999991 3 4 4 3 3
leaf_count=5 3 3 4 4 3 3
internal_value=0 -0.640062 -1.35339 1.63223 0.0797516 -0.0681911
internal_weight=25 18 9 7 9 6
internal_count=25 18 9 7 9 6
is_linear=0
shrinkage=0.05


Tree=18
num_leaves=8
num_cat=0
split_feature=3 6 5 5 11 8 1
split_gain=9530.71 3369.16 420.634 380.514 142.943 41.9612 0.495234
threshold=1.5000000000000002 1.0000000180025095e-35 1.0000000180025095e-35 5.5000000000000009 1.0000000180025095e-35 1.0000000180025095e-35 2010.5000000000002
decision_type=2 2 2 2 2 2 2
left_child=1 2 -1 -2 5 -3 -4
right_child=3 4 6 -5 -6 -7 -8
leaf_value=-1.7851756065122519 1.1749388462159693 -0.19454700946807857 -1.1294377603838519 2.0009277466804747 0.35200627042401211 0.065322343764766561 -0.86064203939130202
leaf_weight=3.0000000000000036 3.9999999999999991 3 3 3 3 3 3
leaf_count=3 4 3 3 3 3 3 3
internal_value=9.78685e-05 -0.608711 -1.28717 1.55283 0.0758926 -0.0648519 -1.01217
internal_weight=25 18 9 7 9 6 6
internal_count=25 18 9 7 9 6 6
is_linear=0
shrinkage=0.05


Tree=19
num_leaves=8
num_cat=0
split_feature=3 5 5 3 11 7 1
split_gain=8628.85 3051.36 380.624 345.694 129.433 38.7202 0.262021
threshold=1.5000000000000002 2.5000000000000004 1.0000000180025095e-35 2.5000000000000004 1.0000000180025095e-35 1.0000000180025095e-35 2010.5000000000002
decision_type=2 2 2 2 2 2 2
left_child=1 2 -1 -2 5 -3 -4
right_child=3 4 6 -5 -6 -7 -8
leaf_value=-1.698796155375816 1.0079534961331276 -0.18628502122817509 -1.0747875152095669 1.7952055396103277 0.33497372019675459 0.063313167325911954 -0.8189980968352284
leaf_weight=3.0000000000000053 2.9999999999999991 2.9999999999999982 3 4 3 3 3
leaf_count=3 3 3 3 4 3 3 3
internal_value=8.00227e-06 -0.579271 -1.22495 1.47746 0.0722204 -0.0616742 -0.963235
internal_weight=25 18 9 7 9 6 6
internal_count=25 18 9 7 9 6 6
is_linear=0
shrinkage=0.05


Tree=20
num_leaves=7
num_cat=0
split_feature=3 6 1 5 11 8
split_gain=7811.13 2763.56 347.639 346.881 117.199 36.7886
threshold=1.5000000000000002 1.0000000180025095e-35 2009.5000000000002 5.5000000000000009 1.0000000180025095e-35 1.0000000180025095e-35
decision_type=2 2 2 2 2 2
left_child=1 2 -1 -2 5 -3
right_child=3 4 -4 -5 -6 -7
leaf_value=-1.4503329258339068 1.0492550268405825 -0.18014541595212871 -0.7820532193998011 1.8299414480886147 0.31876530416550164 0.063123820674034839
leaf_weight=5.0000000000000036 3.9999999999999991 3 4 3 3 3
leaf_count=5 4 3 4 3 3 3
internal_value=0 -0.551255 -1.16573 1.4056 0.0687259 -0.0586503
internal_weight=25 18 9 7 9 6
internal_count=25 18 9 7 9 6
is_linear=0
shrinkage=0.05


Tree=21
num_leaves=7
num_cat=0
split_feature=3 6 5 5 11 7
split_gain=7069.46 2500.02 326.226 314.324 106.12 33.9306
threshold=1.5000000000000002 1.0000000180025095e-35 1.0000000180025095e-35 5.5000000000000009 1.0000000180025095e-35 1.0000000180025095e-35
decision_type=2 2 2 2 2 2
left_child=1 2 -1 -2 5 -3
right_child=3 4 -4 -5 -6 -7
leaf_value=-1.5464189344836798 0.99807189615761382 -0.17247821284878634 -0.86724977336946074 1.7413958949427446 0.30334118816160377 0.061118947305986937
leaf_weight=3.0000000000000036 3.9999999999999991 3 6 3 3 3
leaf_count=3 4 3 6 3 3 3
internal_value=5.75177e-05 -0.524253 -1.10869 1.33738 0.0654004 -0.0557727
internal_weight=25 18 9 7 9 6
internal_count=25 18 9 7 9 6
is_linear=0
shrinkage=0.05


Tree=22
num_leaves=8
num_cat=0
split_feature=3 6 3 5 8 11 1
split_gain=6398.8 2262.27 312.632 295.987 98.1276 30.2149 0.512837
threshold=1.5000000000000002 1.0000000180025095e-35 2.5000000000000004 1.0000000180025095e-35 1.0000000180025095e-35 1.0000000180025095e-35 2010.5000000000002
decision_type=2 2 2 2 2 2 2
left_child=1 3 -2 -1 -3 -6 -5
right_child=2 4 -4 6 5 -7 -8
leaf_value=-1.4715921709614397 0.83553650917545452 -0.16685068838057976 1.5705939316168065 -0.92141927288424563 0.060879771171077582 0.28866337422401667 -0.69956414007371448
leaf_weight=3.0000000000000036 2.9999999999999991 3 4 3 3 3 3
leaf_count=3 3 3 4 3 3 3 3
internal_value=0.000157793 -0.498654 1.27248 -1.05461 0.0622359 0.178456 -0.824598
internal_weight=25 18 7 9 9 6 6
internal_count=25 18 7 9 9 6 6
is_linear=0
shrinkage=0.05


Tree=23
num_leaves=7
num_cat=0
split_feature=3 6 5 1 7 11
split_gain=5792.42 2048.94 285.687 273.324 89.674 27.0643
threshold=1.5000000000000002 1.0000000180025095e-35 5.5000000000000009 2009.5000000000002 1.0000000180025095e-35 1.0000000180025095e-35
decision_type=2 2 2 2 2 2
left_child=1 3 -2 -1 -3 -6
right_child=2 4 -4 -5 5 -7
leaf_value=-1.2554011943293544 0.89069933309787686 -0.15973215180058631 1.5929941423477663 -0.66476877026441616 0.058888864517211897 0.27469579913923808
leaf_weight=5.0000000000000036 3.9999999999999991 3 3 4 3 3
leaf_count=5 4 3 3 4 3 3
internal_value=3.95954e-05 -0.474539 1.21058 -1.00364 0.0592245 0.170346
internal_weight=25 18 7 9 9 6
internal_count=25 18 7 9 9 6
is_linear=0
shrinkage=0.05


Tree=24
num_leaves=7
num_cat=0
split_feature=3 6 3 5 8 11
split_gain=5242.47 1853.57 281.961 253.479 83.2527 23.8046
threshold=1.5000000000000002 1.0000000180025095e-35 2.5000000000000004 1.0000000180025095e-35 1.0000000180025095e-35 1.0000000180025095e-35
decision_type=2 2 2 2 2 2
left_child=1 3 -2 -1 -3 -6
right_child=2 4 -4 -5 5 -7
leaf_value=-1.3396408696328423 0.74068163902528816 -0.15457443498796031 1.4334016939488852 -0.74236186136964888 0.058610660799087999 0.26140405660675409
leaf_weight=3.0000000000000036 2.9999999999999991 3 4 6 3 3
leaf_count=3 3 3 4 6 3 3
internal_value=0.000184496 -0.451294 1.15184 -0.954538 0.0563588 0.16345
internal_weight=25 18 7 9 9 6
internal_count=25 18 7 9 9 6
is_linear=0
shrinkage=0.05


Tree=25
num_leaves=7
num_cat=0
split_feature=3 6 5 1 7 11
split_gain=4744.36 1677.34 259.171 232.613 76.0734 21.3123
threshold=1.5000000000000002 1.0000000180025095e-35 5.5000000000000009 2009.5000000000002 1.0000000180025095e-35 1.0000000180025095e-35
decision_type=2 2 2 2 2 2
left_child=1 3 -2 -1 -3 -6
right_child=2 4 -4 -5 5 -7
leaf_value=-1.1399046056410838 0.79422417384822208 -0.1479622379426033 1.4577284536054054 -0.59612825323895702 0.056641869391164459 0.24875547390791672
leaf_weight=5.0000000000000036 3.9999999999999991 3 3 4 3 3
leaf_count=5 4 3 3 4 3 3
internal_value=0.000226566 -0.429259 1.09581 -0.907982 0.0536317 0.156022
internal_weight=25 18 7 9 9 6
internal_count=25 18 7 9 9 6
is_linear=0
shrinkage=0.05


Tree=26
num_leaves=7
num_cat=0
split_feature=3 6 3 5 8 11
split_gain=4293.95 1517.42 253.956 217.637 70.675 18.7038
threshold=1.5000000000000002 1.0000000180025095e-35 2.5000000000000004 1.0000000180025095e-35 1.0000000180025095e-35 1.0000000180025095e-35
decision_type=2 2 2 2 2 2
left_child=1 3 -2 -1 -3 -6
right_child=2 4 -4 -5 5 -7
leaf_value=-1.2196629185830377 0.65571034185348021 -0.14323562806652435 1.3085540143454946 -0.66762009917712606 0.056333990250864323 0.23671891939255493
leaf_weight=3.0000000000000036 2.9999999999999991 3 4 6 3 3
leaf_count=3 3 3 4 6 3 3
internal_value=0.00034938 -0.408232 1.04264 -0.863565 0.0510367 0.149748
internal_weight=25 18 7 9 9 6
internal_count=25 18 7 9 9 6
is_linear=0
shrinkage=0.05


Tree=27
num_leaves=7
num_cat=0
split_feature=3 6 5 1 7 11
split_gain=3885.98 1373.16 234.723 197.865 64.5732 16.737
threshold=1.5000000000000002 1.0000000180025095e-35 5.5000000000000009 2009.5000000000002 1.0000000180025095e-35 1.0000000180025095e-35
decision_type=2 2 2 2 2 2
left_child=1 3 -2 -1 -3 -6
right_child=2 4 -4 -5 5 -7
leaf_value=-1.0350639249764231 0.70757263346416199 -0.1370908891001055 1.3344058744369012 -0.53448197783493412 0.05439415900937971 0.22526479382668768
leaf_weight=5.0000000000000036 3.9999999999999991 3 3 4 3 3
leaf_count=5 4 3 3 4 3 3
internal_value=0.000377087 -0.388301 0.99193 -0.821451 0.0485671 0.142941
internal_weight=25 18 7 9 9 6
internal_count=25 18 7 9 9 6
is_linear=0
shrinkage=0.05


Tree=28
num_leaves=7
num_cat=0
split_feature=5 5 3 5 0 7
split_gain=3548.9 1232.23 436.391 186.833 57.8467 17.6274
threshold=4.5000000000000009 2.5000000000000004 2.5000000000000004 1.0000000180025095e-35 2.5000000000000004 1.0000000180025095e-35
decision_type=2 2 2 2 2 2
left_child=1 3 -2 -1 -3 -6
right_child=2 4 -4 -5 5 -7
leaf_value=-1.1105632074417593 0.5808501697168118 0.21869810781171239 1.4015355017877391 -0.60029406156696252 -0.1304574612648256 0.037682151025341393
leaf_weight=3.0000000000000036 3.9999999999999991 3 3 6 3 3
leaf_count=3 4 3 3 6 3 3
internal_value=0.000480745 -0.370949 0.948063 -0.781268 0.0428968 -0.0463284
internal_weight=25 18 7 9 9 6
internal_count=25 18 7 9 9 6
is_linear=0
shrinkage=0.05


Tree=29
num_leaves=8
num_cat=0
split_feature=3 6 3 5 8 11 1
split_gain=3227.58 1110.37 202.282 169.447 53.1584 11.0599 0.486268
threshold=1.5000000000000002 1.0000000180025095e-35 2.5000000000000004 1.0000000180025095e-35 1.0000000180025095e-35 1.0000000180025095e-35 2010.5000000000002
decision_type=2 2 2 2 2 2 2
left_child=1 3 -2 -1 -3 -6 -5
right_child=2 4 -4 6 5 -7 -8
leaf_value=-1.0568263053894029 0.56028993129730231 -0.1291593874654462 1.1409750147563655 -0.63994823578865279 0.05203363433960944 0.19210038685029548 -0.48156968085996549
leaf_weight=3.0000000000000036 2.9999999999999991 3 4 3 3 3 3
leaf_count=3 3 3 4 3 3 3 3
internal_value=0.000535881 -0.353671 0.904211 -0.743172 0.0391672 0.124888 -0.570771
internal_weight=25 18 7 9 9 6 6
internal_count=25 18 7 9 9 6 6
is_linear=0
shrinkage=0.05


Tree=30
num_leaves=7
num_cat=0
split_feature=5 5 3 9 0 7
split_gain=2970.59 990.587 358.125 164.581 44.3745 13.8426
threshold=4.5000000000000009 2.5000000000000004 2.5000000000000004 1.0000000180025095e-35 2.5000000000000004 1.0000000180025095e-35
decision_type=2 2 2 2 2 2
left_child=1 3 -2 -1 -3 -6
right_child=2 4 -4 -5 5 -7
leaf_value=-0.85980589194375912 0.53416502650191144 0.18577546881091206 1.2785108381702051 -0.38267726898193349 -0.12081782125657602 0.028065851042347562
leaf_weight=6.0000000000000036 3.9999999999999991 3 3 3 3 3
leaf_count=6 4 3 3 3 3 3
internal_value=0.000426995 -0.339378 0.867389 -0.707265 0.0316893 -0.0463166
internal_weight=25 18 7 9 9 6
internal_count=25 18 7 9 9 6
is_linear=0
shrinkage=0.05


Tree=31
num_leaves=7
num_cat=0
split_feature=5 5 3 5 0 7
split_gain=2688.59 896.009 324.365 155.729 40.1756 12.5439
threshold=4.5000000000000009 2.5000000000000004 2.5000000000000004 1.0000000180025095e-35 2.5000000000000004 1.0000000180025095e-35
decision_type=2 2 2 2 2 2
left_child=1 3 -2 -1 -3 -6
right_child=2 4 -4 -5 5 -7
leaf_value=-0.97178164451352866 0.50810820765611608 0.1767863269775144 1.2166474003945627 -0.50872933981848545 -0.11497179385154475 0.026707822661246012
leaf_weight=3.0000000000000036 3.9999999999999991 3 3 6 3 3
leaf_count=3 4 3 3 6 3 3
internal_value=0.000537762 -0.322727 0.825331 -0.672612 0.030156 -0.0440358
internal_weight=25 18 7 9 9 6
internal_count=25 18 7 9 9 6
is_linear=0
shrinkage=0.05


Tree=32
num_leaves=7
num_cat=0
split_feature=3 6 5 9 8 11
split_gain=2462.26 802.144 160.342 149.866 37.5609 5.04897
threshold=1.5000000000000002 1.0000000180025095e-35 5.5000000000000009 1.0000000180025095e-35 1.0000000180025095e-35 1.0000000180025095e-35
decision_type=2 2 2 2 2 2
left_child=1 3 -2 -1 -3 -6
right_child=2 4 -4 -5 5 -7
leaf_value=-0.78490985729655238 0.5560317347689373 -0.11618706141748734 1.0721160734853434 -0.33207610960929612 0.046587711764920131 0.14333571387875463
leaf_weight=6.0000000000000036 3.9999999999999991 3 3 3 3 3
leaf_count=6 4 3 3 3 3 3
internal_value=0.000577155 -0.308774 0.7899 -0.639823 0.025119 0.0973381
internal_weight=25 18 7 9 9 6
internal_count=25 18 7 9 9 6
is_linear=0
shrinkage=0.05


Tree=33
num_leaves=7
num_cat=0
split_feature=5 5 3 5 0 7
split_gain=2235.75 723.345 276.927 143.244 33.1326 9.62907
threshold=4.5000000000000009 2.5000000000000004 2.5000000000000004 1.0000000180025095e-35 2.5000000000000004 1.0000000180025095e-35
decision_type=2 2 2 2 2 2
left_child=1 3 -2 -1 -3 -6
right_child=2 4 -4 -5 5 -7
leaf_value=-0.89408422900784279 0.45997099062291591 0.15620062082044536 1.1142246707793202 -0.45253124706080694 -0.10641208233371856 0.017569828802539451
leaf_weight=3.0000000000000036 3.9999999999999991 3 3 6 3 3
leaf_count=3 4 3 3 6 3 3
internal_value=0.000664811 -0.294104 0.752814 -0.608473 0.0229463 -0.0443297
internal_weight=25 18 7 9 9 6
internal_count=25 18 7 9 9 6
is_linear=0
shrinkage=0.05


Tree=34
num_leaves=7
num_cat=0
split_feature=3 6 9 5 8 11
split_gain=2046.69 647.744 136.351 132.199 29.9642 2.96268
threshold=1.5000000000000002 1.0000000180025095e-35 1.0000000180025095e-35 5.5000000000000009 1.0000000180025095e-35 1.0000000180025095e-35
decision_type=2 2 2 2 2 2
left_child=1 2 -1 -2 -3 -6
right_child=3 4 -4 -5 5 -7
leaf_value=-0.71681351661682091 0.50759157058669302 -0.10741584762450185 -0.28698942199830074 0.97687788009643528 0.043247048316463338 0.11904297374909921
leaf_weight=6.0000000000000036 3.9999999999999991 3 3 3 3 3
leaf_count=6 4 3 3 3 3 3
internal_value=0.000690325 -0.281333 -0.578816 0.720345 0.0186934 0.0832949
internal_weight=25 18 9 7 9 6
internal_count=25 18 9 7 9 6
is_linear=0
shrinkage=0.05


Tree=35
num_leaves=7
num_cat=0
split_feature=5 5 3 5 0 7
split_gain=1860.19 583.558 236.357 131.559 27.353 7.33892
threshold=4.5000000000000009 2.5000000000000004 2.5000000000000004 1.0000000180025095e-35 2.5000000000000004 1.0000000180025095e-35
decision_type=2 2 2 2 2 2
left_child=1 3 -2 -1 -3 -6
right_child=2 4 -4 -5 5 -7
leaf_value=-0.8230701784933756 0.41652658392743369 0.1378379775631812 1.0206114153708179 -0.40206877833507093 -0.098495622219577889 0.0095676947024560723
leaf_weight=3.0000000000000036 3.9999999999999991 3 3 6 3 3
leaf_count=3 4 3 3 6 3 3
internal_value=0.000762487 -0.268095 0.686853 -0.550455 0.0166617 -0.0443732
internal_weight=25 18 7 9 9 6
internal_count=25 18 7 9 9 6
is_linear=0
shrinkage=0.05


Tree=36
num_leaves=7
num_cat=0
split_feature=3 5 9 3 1 11
split_gain=1701.41 522.941 123.962 110.582 25.7116 1.23956
threshold=1.5000000000000002 2.5000000000000004 1.0000000180025095e-35 2.5000000000000004 2009.5000000000002 1.0000000180025095e-35
decision_type=2 2 2 2 2 2
left_child=1 2 -1 -2 -3 -6
right_child=3 4 -4 -5 5 -7
leaf_value=-0.65488485742787794 0.40260341898087532 -0.10353190898895266 -0.24685754545273314 0.83200281887519645 0.044702139977485893 0.097623300552368147
leaf_weight=6.0000000000000053 2.9999999999999991 2.9999999999999982 3 4 3 3
leaf_count=6 3 3 3 4 3 3
internal_value=0.000776338 -0.256342 -0.523633 0.656941 0.0132154 0.073149
internal_weight=25 18 9 7 9 6
internal_count=25 18 9 7 9 6
is_linear=0
shrinkage=0.05


Tree=37
num_leaves=7
num_cat=0
split_feature=5 5 3 5 0 7
split_gain=1559.05 467.296 193.163 120.664 21.8079 5.37865
threshold=4.5000000000000009 2.5000000000000004 2.5000000000000004 1.0000000180025095e-35 2.5000000000000004 1.0000000180025095e-35
decision_type=2 2 2 2 2 2
left_child=1 3 -2 -1 -3 -6
right_child=2 4 -4 -5 5 -7
leaf_value=-0.75813732454853566 0.38400757196472912 0.11784430319263087 0.93096881374236051 -0.35677642626840561 -0.091110960514314693 0.0011691349167977606
leaf_weight=3.0000000000000036 3.9999999999999991 3 3 6 3 3
leaf_count=3 4 3 3 6 3 3
internal_value=0.000811559 -0.245307 0.628934 -0.497974 0.00950524 -0.0448885
internal_weight=25 18 7 9 9 6
internal_count=25 18 7 9 9 6
is_linear=0
shrinkage=0.05


Tree=38
num_leaves=7
num_cat=0
split_feature=3 6 9 5 1 11
split_gain=1414.32 422.054 112.623 99.0179 21.2377 0.34043
threshold=1.5000000000000002 1.0000000180025095e-35 1.0000000180025095e-35 5.5000000000000009 2009.5000000000002 1.0000000180025095e-35
decision_type=2 2 2 2 2 2
left_child=1 2 -1 -2 -3 -6
right_child=3 4 -4 -5 5 -7
leaf_value=-0.59855132923751542 0.41590728767034491 -0.097483958351996622 -0.21117589204542095 0.82041111915342246 0.043970952495451882 0.078611537718003777
leaf_weight=6.0000000000000036 3.9999999999999991 3 3 3 3 3
leaf_count=6 4 3 3 3 3 3
internal_value=0.000816391 -0.233591 -0.473715 0.599084 0.00855005 0.0631157
internal_weight=25 18 9 7 9 6
internal_count=25 18 9 7 9 6
is_linear=0
shrinkage=0.05


Tree=39
num_leaves=7
num_cat=0
split_feature=5 5 3 5 0 7
split_gain=1298.64 376.392 164.43 110.538 18.8424 3.75618
threshold=4.5000000000000009 2.5000000000000004 2.5000000000000004 1.0000000180025095e-35 2.5000000000000004 1.0000000180025095e-35
decision_type=2 2 2 2 2 2
left_child=1 3 -2 -1 -3 -6
right_child=2 4 -4 -5 5 -7
leaf_value=-0.69873911180803749 0.34828108432816296 0.10573837295655281 0.8527489077660344 -0.31614350901275379 -0.084266934087199541 -0.0037882314003523307
leaf_weight=3.0000000000000036 3.9999999999999991 3 3 6 3 3
leaf_count=3 4 3 3 6 3 3
internal_value=0.000865552 -0.223743 0.574151 -0.450502 0.00492505 -0.045569
internal_weight=25 18 7 9 9 6
internal_count=25 18 7 9 9 6
is_linear=0
shrinkage=0.05


Tree=40
num_leaves=6
num_cat=0
split_feature=3 6 9 5 1
split_gain=1175.99 340.495 102.263 81.6213 17.5515
threshold=1.5000000000000002 1.0000000180025095e-35 1.0000000180025095e-35 5.5000000000000009 2009.5000000000002
decision_type=2 2 2 2 2
left_child=1 2 -1 -2 -3
right_child=3 4 -4 -5 -6
leaf_value=-0.54729428955765991 0.37972912718030832 -0.091754161927007846 -0.17948953220921174 0.74758838684328122 0.054277945932794794
leaf_weight=6.0000000000000036 3.9999999999999991 3 3 3 6
leaf_count=6 4 3 3 3 6
internal_value=0.000842959 -0.212887 -0.428562 0.546396 0.00457775
internal_weight=25 18 9 7 9
internal_count=25 18 9 7 9
is_linear=0
shrinkage=0.05


Tree=41
num_leaves=7
num_cat=0
split_feature=5 5 3 5 0 7
split_gain=1083.03 302.624 139.781 101.153 16.454 2.48676
threshold=4.5000000000000009 2.5000000000000004 2.5000000000000004 1.0000000180025095e-35 2.5000000000000004 1.0000000180025095e-35
decision_type=2 2 2 2 2 2
left_child=1 3 -2 -1 -3 -6
right_child=2 4 -4 -5 5 -7
leaf_value=-0.64437948349983376 0.3162201442369601 0.095101793350711922 0.78124642218312879 -0.27970894164726379 -0.078105141462818259 -0.011480497160265521
leaf_weight=3.0000000000000036 3.9999999999999991 3 3 6 3 3
leaf_count=3 4 3 3 6 3 3
internal_value=0.000863173 -0.204238 0.524418 -0.407561 0.000780229 -0.0463468
internal_weight=25 18 7 9 9 6
internal_count=25 18 7 9 9 6
is_linear=0
shrinkage=0.05


Tree=42
num_leaves=7
num_cat=0
split_feature=5 5 3 9 0 7
split_gain=980.518 273.837 126.566 92.8076 14.909 2.24339
threshold=4.5000000000000009 2.5000000000000004 2.5000000000000004 1.0000000180025095e-35 2.5000000000000004 1.0000000180025095e-35
decision_type=2 2 2 2 2 2
left_child=1 3 -2 -1 -3 -6
right_child=2 4 -4 -5 5 -7
leaf_value=-0.50064378996364378 0.30079476600740018 0.09050009173731649 0.74344418741041585 -0.15138847347228757 -0.074325861853937941 -0.010924986677785071
leaf_weight=6.0000000000000036 3.9999999999999991 3 3 3 3 3
leaf_count=6 4 3 3 3 3 3
internal_value=0.000835729 -0.194307 0.499005 -0.387718 0.000689303 -0.0441439
internal_weight=25 18 7 9 9 6
internal_count=25 18 7 9 9 6
is_linear=0
shrinkage=0.05


Tree=43
num_leaves=6
num_cat=0
split_feature=3 5 6 5 1
split_gain=898.929 249.022 87.8848 61.0462 13.2603
threshold=1.5000000000000002 1.0000000180025095e-35 1.0000000180025095e-35 5.5000000000000009 2009.5000000000002
decision_type=2 2 2 2 2
left_child=1 -1 -3 -2 -4
right_child=3 2 4 -5 -6
leaf_value=-0.59460827458289223 0.33309719795134013 -0.24705643751582171 -0.085390890221441931 0.65227931391808269 0.041588954945079616
leaf_weight=3.0000000000000062 3.9999999999999991 5.9999999999999973 3 3 6
leaf_count=3 4 6 3 3 6
internal_value=0.0008532 -0.185986 -0.100534 0.477854 -0.000661443
internal_weight=25 18 15 7 9
internal_count=25 18 15 7 9
is_linear=0
shrinkage=0.05


Tree=44
num_leaves=6
num_cat=0
split_feature=5 5 3 5 7
split_gain=817.695 225.039 107.533 78.8569 8.31521
threshold=4.5000000000000009 1.0000000180025095e-35 2.5000000000000004 2.5000000000000004 1.0000000180025095e-35
decision_type=2 2 2 2 2
left_child=1 -1 -2 -3 -5
right_child=2 3 -4 4 -6
leaf_value=-0.56583690489492011 0.27309069502644423 -0.23490612130673205 0.6810572670352073 -0.068645691102550865 0.031880006633821081
leaf_weight=3.0000000000000044 3.9999999999999991 5.9999999999999991 3 3 6
leaf_count=3 4 6 3 3 6
internal_value=0.000820479 -0.177368 0.455768 -0.09611 -0.00146523
internal_weight=25 18 7 15 9
internal_count=25 18 7 15 9
is_linear=0
shrinkage=0.05


Tree=45
num_leaves=6
num_cat=0
split_feature=3 5 6 3 1
split_gain=748.27 202.798 70.0972 54.3095 10.7742
threshold=1.5000000000000002 1.0000000180025095e-35 1.0000000180025095e-35 2.5000000000000004 2009.5000000000002
decision_type=2 2 2 2 2
left_child=1 -1 -3 -2 -4
right_child=3 2 4 -5 -6
leaf_value=-0.53845771512677476 0.25845504230068572 -0.22335336755533694 -0.079558890096602886 0.55839921090661016 0.034845432003990554
leaf_weight=3.0000000000000062 2.9999999999999991 5.9999999999999973 3 4 6
leaf_count=3 3 6 3 4 6
internal_value=0.00079273 -0.169655 -0.0924855 0.436007 -0.0031951
internal_weight=25 18 15 7 9
internal_count=25 18 15 7 9
is_linear=0
shrinkage=0.05


Tree=46
num_leaves=7
num_cat=0
split_feature=5 5 3 7 1 5
split_gain=686.964 182.444 87.3374 63.3666 29.2815 24.6121
threshold=4.5000000000000009 1.0000000180025095e-35 2.5000000000000004 1.0000000180025095e-35 2010.5000000000002 2.5000000000000004
decision_type=2 2 2 2 2 2
left_child=1 -1 -2 5 -5 -3
right_child=2 3 -4 4 -6 -7
leaf_value=-0.51240330588432959 0.25261552897168371 -0.25375864721980745 0.62108358106305506 0.10793307379978456 -0.095481798136907214 -0.095481798136907214
leaf_weight=3.0000000000000044 3.9999999999999991 5 3 4.0000000000000009 3 3
leaf_count=3 4 5 3 4 3 3
internal_value=0.00074519 -0.162562 0.417758 -0.089333 0.0199341 -0.184625
internal_weight=25 18 7 15 7 8
internal_count=25 18 7 15 7 8
is_linear=0
shrinkage=0.05


Tree=47
num_leaves=7
num_cat=0
split_feature=5 5 3 7 1 5
split_gain=621.421 165.477 79.0642 56.9735 26.5084 22.5368
threshold=4.5000000000000009 1.0000000180025095e-35 2.5000000000000004 1.0000000180025095e-35 2010.5000000000002 2.5000000000000004
decision_type=2 2 2 2 2 2
left_child=1 -1 -2 5 -5 -3
right_child=2 3 -4 4 -6 -7
leaf_value=-0.48760960025171995 0.24029281719065299 -0.24131949298522049 0.5910311422040383 0.10266804724204828 -0.090861708670854552 -0.090861708670854552
leaf_weight=3.0000000000000044 3.9999999999999991 5 3 4.0000000000000009 3 3
leaf_count=3 4 5 3 4 3 3
internal_value=0.000891502 -0.154421 0.397521 -0.0846643 0.0189109 -0.175024
internal_weight=25 18 7 15 7 8
internal_count=25 18 7 15 7 8
is_linear=0
shrinkage=0.05


Tree=48
num_leaves=7
num_cat=0
split_feature=3 5 7 5 5 0
split_gain=565.198 149.708 50.6333 42.9909 21.9274 2.23764
threshold=1.5000000000000002 1.0000000180025095e-35 1.0000000180025095e-35 5.5000000000000009 2.5000000000000004 2.5000000000000004
decision_type=2 2 2 2 2 2
left_child=1 -1 4 -2 -3 -4
right_child=3 2 5 -5 -6 -7
leaf_value=-0.4640155784545395 0.25858218233759811 -0.22949010332425443 -0.0065646050906762845 0.52511100461406079 -0.05430311195312007 0.049009990692138655
leaf_weight=3.0000000000000062 3.9999999999999991 4.9999999999999982 4 3 3 3
leaf_count=3 4 5 4 3 3 3
internal_value=0.00103027 -0.147081 -0.0807101 0.3793 -0.165894 0.0169037
internal_weight=25 18 15 7 8 7
internal_count=25 18 15 7 8 7
is_linear=0
shrinkage=0.05


Tree=49
num_leaves=7
num_cat=0
split_feature=5 5 3 7 1 5
split_gain=518.333 134.742 66.9533 44.6082 22.3902 18.2393
threshold=4.5000000000000009 1.0000000180025095e-35 2.5000000000000004 1.0000000180025095e-35 2010.5000000000002 2.5000000000000004
decision_type=2 2 2 2 2 2
left_child=1 -1 -2 5 -5 -3
right_child=2 3 -4 4 -6 -7
leaf_value=-0.44156323940523134 0.21849636035721476 -0.21824059381204491 0.54132311421055934 0.090835337522553211 -0.087043898144075926 -0.087043898144075926
leaf_weight=3.0000000000000044 3.9999999999999991 5 3 4.0000000000000009 3 3
leaf_count=3 4 5 3 4 3 3
internal_value=0.000974434 -0.140855 0.363231 -0.0778565 0.0137449 -0.157805
internal_weight=25 18 7 15 7 8
internal_count=25 18 7 15 7 8
is_linear=0
shrinkage=0.05


Tree=50
num_leaves=7
num_cat=0
split_feature=5 5 3 7 1 1
split_gain=468.774 122.262 60.6027 40.0328 20.2698 17.2004
threshold=4.5000000000000009 1.0000000180025095e-35 2.5000000000000004 1.0000000180025095e-35 2010.5000000000002 2009.5000000000002
decision_type=2 2 2 2 2 2
left_child=1 -1 -2 5 -5 -3
right_child=2 3 -4 4 -6 -7
leaf_value=-0.42019725653432954 0.20783800279221884 -0.22292860899029707 0.51513005687344449 0.08640434858275621 -0.082832097430383 -0.082832097430383
leaf_weight=3.0000000000000044 3.9999999999999991 4 3 4.0000000000000009 3 4
leaf_count=3 4 4 3 4 3 4
internal_value=0.00112754 -0.133742 0.345639 -0.073717 0.0130251 -0.149457
internal_weight=25 18 7 15 7 8
internal_count=25 18 7 15 7 8
is_linear=0
shrinkage=0.05


Tree=51
num_leaves=7
num_cat=0
split_feature=3 5 6 5 8 0
split_gain=427.372 110.414 36.5407 33.4573 6.36203 4.36706
threshold=1.5000000000000002 1.0000000180025095e-35 1.0000000180025095e-35 5.5000000000000009 1.0000000180025095e-35 2.5000000000000004
decision_type=2 2 2 2 2 2
left_child=1 -1 -3 -2 -4 -6
right_child=3 2 4 -5 5 -7
leaf_value=-0.39986513929982248 0.22356272790490128 -0.16506399728479937 -0.064574454784873989 0.4587469027888389 -0.017952204135156441 0.065281370378309667
leaf_weight=3.0000000000000062 3.9999999999999991 5.9999999999999973 3 3 3 3
leaf_count=3 4 6 3 3 3 3
internal_value=0.00114701 -0.127621 -0.070553 0.330102 -0.00587477 0.0232329
internal_weight=25 18 15 7 9 6
internal_count=25 18 15 7 9 6
is_linear=0
shrinkage=0.05


Tree=52
num_leaves=7
num_cat=0
split_feature=5 5 3 7 5 1
split_gain=390.96 99.4899 51.3753 32.8004 17.1927 15.0427
threshold=4.5000000000000009 1.0000000180025095e-35 2.5000000000000004 1.0000000180025095e-35 2.5000000000000004 2010.5000000000002
decision_type=2 2 2 2 2 2
left_child=1 -1 -2 4 -3 -5
right_child=2 3 -4 5 -6 -7
leaf_value=-0.38051681018644695 0.18880153458292895 -0.19264375975026801 0.47180027192638746 0.077743177297638674 -0.037906371903485579 -0.037906371903485579
leaf_weight=3.0000000000000044 3.9999999999999991 5 3 4.0000000000000009 3 3
leaf_count=3 4 5 3 4 3 3
internal_value=0.00108969 -0.122062 0.315728 -0.0678618 -0.136419 0.0106027
internal_weight=25 18 7 15 8 7
internal_count=25 18 7 15 8 7
is_linear=0
shrinkage=0.05


Tree=53
num_leaves=7
num_cat=0
split_feature=5 5 3 7 1 1
split_gain=354.573 89.8413 46.495 29.3255 16.4227 15.185
threshold=4.5000000000000009 1.0000000180025095e-35 2.5000000000000004 1.0000000180025095e-35 2009.5000000000002 2010.5000000000002
decision_type=2 2 2 2 2 2
left_child=1 -1 -2 4 -3 -5
right_child=2 3 -4 5 -6 -7
leaf_value=-0.36210471910815023 0.17959170108888212 -0.20082992367082975 0.4489712238311766 0.073950823051173495 -0.054327644153339107 -0.054327644153339107
leaf_weight=3.0000000000000044 3.9999999999999991 4 3 4.0000000000000009 4 3
leaf_count=3 4 4 3 4 4 3
internal_value=0.000792131 -0.116478 0.300442 -0.064949 -0.129771 0.00921358
internal_weight=25 18 7 15 8 7
internal_count=25 18 7 15 8 7
is_linear=0
shrinkage=0.05


Tree=54
num_leaves=6
num_cat=0
split_feature=3 5 6 3 1
split_gain=324.622 80.8162 26.8151 26.1174 4.4888
threshold=1.5000000000000002 1.0000000180025095e-35 1.0000000180025095e-35 2.5000000000000004 2009.5000000000002
decision_type=2 2 2 2 2
left_child=1 -1 -3 -2 -4
right_child=3 2 4 -5 -6
leaf_value=-0.34458352856097602 0.16428858849310107 -0.14366662790540793 -0.056469882351736847 0.3721412146963724 0.017193943946087944
leaf_weight=3.0000000000000062 2.9999999999999991 5.9999999999999973 3 4 6
leaf_count=3 3 6 3 4 6
internal_value=0.000610544 -0.111588 -0.0626848 0.287334 -0.00716193
internal_weight=25 18 15 7 9
internal_count=25 18 15 7 9
is_linear=0
shrinkage=0.05


Tree=55
num_leaves=6
num_cat=0
split_feature=5 5 3 5 0
split_gain=298.399 72.6327 37.56 23.6095 6.32043
threshold=4.5000000000000009 1.0000000180025095e-35 2.5000000000000004 2.5000000000000004 2.5000000000000004
decision_type=2 2 2 2 2
left_child=1 -1 -2 -3 -5
right_child=2 3 -4 4 -6
leaf_value=-0.32791013254994289 0.16640472150430449 -0.13660105887006541 0.40923997125317957 0.049101481899138405 -0.038356904319075291
leaf_weight=3.0000000000000044 3.9999999999999991 5.9999999999999991 3 3 6
leaf_count=3 4 6 3 3 6
internal_value=0.000571828 -0.106992 0.275479 -0.0605979 -0.00843544
internal_weight=25 18 7 15 9
internal_count=25 18 7 15 9
is_linear=0
shrinkage=0.05


Tree=56
num_leaves=7
num_cat=0
split_feature=3 7 1 0 5 1
split_gain=270.516 68.8319 55.6127 50.0955 23.7576 6.66217
threshold=1.5000000000000002 1.0000000180025095e-35 2009.5000000000002 2.5000000000000004 5.5000000000000009 2010.5000000000002
decision_type=2 2 2 2 2 2
left_child=1 2 3 -1 -2 -3
right_child=4 5 -4 -5 -6 -7
leaf_value=-0.42655650108091231 0.17300111084449585 0.065235078719354439 -0.041165734500419798 -0.1303925844930833 0.37036574502145081 -0.027519743465909768
leaf_weight=3.0000000000000036 3.9999999999999991 3 4 3 3 5
leaf_count=3 4 3 4 3 3 5
internal_value=0.000557559 -0.101848 -0.188646 -0.283859 0.262315 0.00702198
internal_weight=25 18 10 6 7 8
internal_count=25 18 10 6 7 8
is_linear=0
shrinkage=0.05


Tree=57
num_leaves=6
num_cat=0
split_feature=5 5 3 5 0
split_gain=250.242 63.2366 31.4115 18.3225 5.16994
threshold=4.5000000000000009 1.0000000180025095e-35 2.5000000000000004 2.5000000000000004 2.5000000000000004
decision_type=2 2 2 2 2
left_child=1 -1 -2 -3 -5
right_child=2 3 -4 4 -6
leaf_value=-0.30411263569708741 0.1523322040714869 -0.12165239717139574 0.37470041590352199 0.043326947381419512 -0.035722677776070896
leaf_weight=3.0000000000000044 3.9999999999999991 5.9999999999999991 3 3 6
leaf_count=3 4 6 3 3 6
internal_value=0.000506364 -0.0979792 0.252272 -0.0546804 -0.00863679
internal_weight=25 18 7 15 9
internal_count=25 18 7 15 9
is_linear=0
shrinkage=0.05


Tree=58
num_leaves=7
num_cat=0
split_feature=5 7 1 0 3 1
split_gain=226.572 58.1715 49.2618 44.537 28.4175 13.647
threshold=4.5000000000000009 1.0000000180025095e-35 2009.5000000000002 2.5000000000000004 2.5000000000000004 2009.5000000000002
decision_type=2 2 2 2 2 2
left_child=1 2 3 -1 -2 -3
right_child=4 5 -4 -5 -6 -7
leaf_value=-0.39708735327566763 0.14490137732610472 0.090495208001905858 -0.034271313395442031 -0.11802587816792148 0.35656974815553222 -0.034271313395442031
leaf_weight=3.0000000000000036 3.9999999999999991 3 4 3 3 5
leaf_count=3 4 3 4 3 3 5
internal_value=0.000492778 -0.0932096 -0.173006 -0.262599 0.240065 0.00682349
internal_weight=25 18 10 6 7 8
internal_count=25 18 10 6 7 8
is_linear=0
shrinkage=0.05


Tree=59
num_leaves=6
num_cat=0
split_feature=3 5 5 6 1
split_gain=207.312 55.6077 18.1072 14.398 5.20623
threshold=1.5000000000000002 1.0000000180025095e-35 5.5000000000000009 1.0000000180025095e-35 2010.5000000000002
decision_type=2 2 2 2 2
left_child=1 -1 -2 -3 -5
right_child=2 3 -4 4 -6
leaf_value=-0.2825488235681281 0.1512409066281668 -0.10803621147499719 0.32406137074914665 0.0253965208343431 -0.050063475166879048
leaf_weight=3.0000000000000062 3.9999999999999991 5.9999999999999956 3 5 4
leaf_count=3 4 6 3 5 4
internal_value=0.000359272 -0.089263 0.229532 -0.0486595 -0.00777341
internal_weight=25 18 7 15 9
internal_count=25 18 7 15 9
is_linear=0
shrinkage=0.05


Tree=60
num_leaves=7
num_cat=0
split_feature=5 7 1 0 3 1
split_gain=190.748 49.9767 43.6921 39.0169 23.5678 12.5601
threshold=4.5000000000000009 1.0000000180025095e-35 2009.5000000000002 2.5000000000000004 2.5000000000000004 2009.5000000000002
decision_type=2 2 2 2 2 2
left_child=1 2 3 -1 -2 -3
right_child=4 5 -4 -5 -6 -7
leaf_value=-0.36983119903072181 0.13325770482784366 0.087824655540527818 -0.028956707355157447 -0.10857695091155264 0.32642341659915053 -0.028956707355157447
leaf_weight=3.0000000000000036 3.9999999999999991 3 4 3 3 5
leaf_count=3 4 3 4 3 3 5
internal_value=0.000343309 -0.0856161 -0.159583 -0.243945 0.220179 0.00705378
internal_weight=25 18 10 6 7 8
internal_count=25 18 10 6 7 8
is_linear=0
shrinkage=0.05


Tree=61
num_leaves=7
num_cat=0
split_feature=5 5 3 7 5 1
split_gain=172.96 48.7217 21.3159 11.6634 9.50951 5.7612
threshold=4.5000000000000009 1.0000000180025095e-35 2.5000000000000004 1.0000000180025095e-35 2.5000000000000004 2010.5000000000002
decision_type=2 2 2 2 2 2
left_child=1 -1 -2 4 -3 -5
right_child=2 3 -4 5 -6 -7
leaf_value=-0.26257737259710939 0.12675732475955312 -0.12619499286600186 0.31062873563458832 0.050907094594908914 -0.01161788875056851 -0.01161788875056851
leaf_weight=3.0000000000000044 3.9999999999999991 5 3 4.0000000000000009 3 3
leaf_count=3 4 5 3 4 3 3
internal_value=0.000184067 -0.0816593 0.209529 -0.0436453 -0.0845197 0.00289658
internal_weight=25 18 7 15 8 7
internal_count=25 18 7 15 8 7
is_linear=0
shrinkage=0.05


Tree=62
num_leaves=7
num_cat=0
split_feature=3 5 5 7 1 0
split_gain=158.315 43.7429 14.0901 10.1109 9.7265 1.09751
threshold=1.5000000000000002 1.0000000180025095e-35 5.5000000000000009 1.0000000180025095e-35 2009.5000000000002 2.5000000000000004
decision_type=2 2 2 2 2 2
left_child=1 -1 -2 4 -3 -5
right_child=2 3 -4 5 -6 -7
leaf_value=-0.24987202055992563 0.13096391929358972 -0.1348530413174048 0.283637116416808 -0.015323319376968753 -0.022785612650033902 0.02401090475820725
leaf_weight=3.0000000000000062 3.9999999999999991 3.9999999999999982 3 4 4 3
leaf_count=3 4 4 3 4 4 3
internal_value=0 -0.0784151 0.200173 -0.0423649 -0.0804097 0.000930732
internal_weight=25 18 7 15 8 7
internal_count=25 18 7 15 8 7
is_linear=0
shrinkage=0.05


Tree=63
num_leaves=6
num_cat=0
split_feature=5 5 3 1 1
split_gain=144.901 39.4028 17.9488 11.482 9.90398
threshold=4.5000000000000009 1.0000000180025095e-35 2.5000000000000004 2010.5000000000002 2009.5000000000002
decision_type=2 2 2 2 2
left_child=1 -1 -2 4 -3
right_child=2 3 -4 -5 -6
leaf_value=-0.2377814365971469 0.11541199059021184 -0.049729875072104052 0.28433640447835756 -0.10194638248752144 0.050589292805369307
leaf_weight=3.0000000000000044 3.9999999999999991 5.9999999999999982 3 5.0000000000000009 4
leaf_count=3 4 6 3 5 4
internal_value=0 -0.0750268 0.191497 -0.0407856 -0.00900358
internal_weight=25 18 7 15 10
internal_count=25 18 7 15 10
is_linear=0
shrinkage=0.05


Tree=64
num_leaves=7
num_cat=0
split_feature=3 7 1 0 3 1
split_gain=132.096 38.5057 34.5574 34.5976 11.9772 8.54676
threshold=1.5000000000000002 1.0000000180025095e-35 2009.5000000000002 2.5000000000000004 2.5000000000000004 2010.5000000000002
decision_type=2 2 2 2 2 2
left_child=1 2 3 -1 -2 -3
right_child=4 5 -4 -5 -6 -7
leaf_value=-0.32981054090684414 0.099390825340824746 0.076170833264627757 -0.020421506718891421 -0.084893675965647522 0.24027868425700719 -0.020421506718891421
leaf_weight=3.0000000000000036 2.9999999999999991 3 4 3 4 5
leaf_count=3 3 3 4 3 4 5
internal_value=0 -0.0716235 -0.136565 -0.211571 0.182853 0.00962049
internal_weight=25 18 10 6 7 8
internal_count=25 18 10 6 7 8
is_linear=0
shrinkage=0.05


Tree=65
num_leaves=6
num_cat=0
split_feature=5 5 3 1 1
split_gain=122.613 34.225 14.2049 10.6057 7.89213
threshold=4.5000000000000009 1.0000000180025095e-35 2.5000000000000004 2010.5000000000002 2009.5000000000002
decision_type=2 2 2 2 2
left_child=1 -1 -2 4 -3
right_child=2 3 -4 -5 -6
leaf_value=-0.22081567241299502 0.10785605732987569 -0.043079563047065124 0.25895181240573995 -0.095947957740110501 0.04647861195773613
leaf_weight=3.0000000000000044 3.9999999999999991 5.9999999999999982 3 5.0000000000000009 4
leaf_count=3 4 6 3 5 4
internal_value=0 -0.0691208 0.176051 -0.0371892 -0.00665575
internal_weight=25 18 7 15 10
internal_count=25 18 7 15 10
is_linear=0
shrinkage=0.05


Tree=66
num_leaves=7
num_cat=0
split_feature=5 7 1 0 3 1
split_gain=111.033 33.6404 29.9844 31.3901 12.8401 12.4814
threshold=4.5000000000000009 1.0000000180025095e-35 2009.5000000000002 2.5000000000000004 2.5000000000000004 2009.5000000000002
decision_type=2 2 2 2 2 2
left_child=1 2 3 -1 -2 -3
right_child=4 5 -4 -5 -6 -7
leaf_value=-0.30890076237340081 0.1025947756883575 0.092391049092815758 -0.018218768006417807 -0.075834713059086942 0.2464218826063217 -0.018218768006417807
leaf_weight=3.0000000000000036 3.9999999999999991 3 4 3 3 5
leaf_count=3 4 3 4 3 3 5
internal_value=0 -0.0657651 -0.126473 -0.196341 0.167542 0.0101269
internal_weight=25 18 10 6 7 8
internal_count=25 18 10 6 7 8
is_linear=0
shrinkage=0.05


Tree=67
num_leaves=7
num_cat=0
split_feature=3 5 5 7 5 0
split_gain=101.28 30.1583 9.95061 5.92164 7.18883 0.458894
threshold=1.5000000000000002 1.0000000180025095e-35 5.5000000000000009 1.0000000180025095e-35 2.5000000000000004 2.5000000000000004
decision_type=2 2 2 2 2 2
left_child=1 -1 -2 4 -3 -5
right_child=2 3 -4 5 -6 -7
leaf_value=-0.20541580876996393 0.10172979889846433 -0.098285962787329012 0.22982837538565351 0 0 0.019237364876654835
leaf_weight=3.0000000000000062 3.9999999999999991 4.9999999999999982 3 4 3 3
leaf_count=3 4 5 3 4 3 3
internal_value=-4.91793e-05 -0.0630273 0.159797 -0.0330467 -0.0621573 0
internal_weight=25 18 7 15 8 7
internal_count=25 18 7 15 8 7
is_linear=0
shrinkage=0.05


Tree=68
num_leaves=7
num_cat=0
split_feature=5 7 1 0 1 3
split_gain=92.9987 28.0481 26.7463 27.6158 11.538 10.802
threshold=4.5000000000000009 1.0000000180025095e-35 2009.5000000000002 2.5000000000000004 2009.5000000000002 2.5000000000000004
decision_type=2 2 2 2 2 2
left_child=1 2 3 -1 -3 -2
right_child=5 4 -4 -5 -6 -7
leaf_value=-0.28747027766319971 0.093312167830583548 0.089592870589225507 -0.013734219568531686 -0.068852133712460906 -0.013734219568531686 0.22544361737466623
leaf_weight=3.0000000000000036 3.9999999999999991 3 4 3 5 3
leaf_count=3 4 3 4 3 5 3
internal_value=-0.000141689 -0.0604979 -0.115932 -0.181902 0.00875288 0.153022
internal_weight=25 18 10 6 8 7
internal_count=25 18 10 6 8 7
is_linear=0
shrinkage=0.05


Tree=69
num_leaves=6
num_cat=0
split_feature=5 5 1 3 1
split_gain=84.5398 26.4015 10.3837 9.76058 5.74185
threshold=4.5000000000000009 1.0000000180025095e-35 2010.5000000000002 2.5000000000000004 2009.5000000000002
decision_type=2 2 2 2 2
left_child=1 -1 4 -2 -3
right_child=3 2 -4 -5 -6
leaf_value=-0.19117423834339231 0.088760355914511355 -0.031018355049070773 -0.087939731864368209 0.21453506369744574 0.045493443128539292
leaf_weight=3.0000000000000044 3.9999999999999991 5.9999999999999982 5.0000000000000009 3 4
leaf_count=3 4 6 5 3 4
internal_value=-0.00039225 -0.0579459 -0.0298796 0.14563 0
internal_weight=25 18 15 7 10
internal_count=25 18 15 7 10
is_linear=0
shrinkage=0.05


Tree=70
num_leaves=7
num_cat=0
split_feature=3 7 1 0 1 5
split_gain=77.6472 24.5971 23.2811 25.0467 8.1901 7.77838
threshold=1.5000000000000002 1.0000000180025095e-35 2009.5000000000002 2.5000000000000004 2010.5000000000002 5.5000000000000009
decision_type=2 2 2 2 2 2
left_child=1 2 3 -1 -3 -2
right_child=5 4 -4 -5 -6 -7
leaf_value=-0.26947637373401234 0.088079753736170344 0.076489652741339884 -0.012028981563521593 -0.061436527102224275 -0.012028981563521593 0.20157812526149133
leaf_weight=3.0000000000000036 3.9999999999999991 3 4 3 5 3
leaf_count=3 4 3 4 3 5 3
internal_value=-0.000354978 -0.0555209 -0.10744 -0.168989 0.00928638 0.13958
internal_weight=25 18 10 6 8 7
internal_count=25 18 10 6 8 7
is_linear=0
shrinkage=0.05


Tree=71
num_leaves=6
num_cat=0
split_feature=5 5 1 3 1
split_gain=70.99 23.0682 9.65834 8.11993 4.40481
threshold=4.5000000000000009 1.0000000180025095e-35 2010.5000000000002 2.5000000000000004 2009.5000000000002
decision_type=2 2 2 2 2
left_child=1 -1 4 -2 -3
right_child=3 2 -4 -5 -6
leaf_value=-0.17782027384927168 0.081191548777789613 -0.025416990968047601 -0.083039304438759287 0.19623116370170343 0.041560698137050718
leaf_weight=3.0000000000000044 3.9999999999999991 5.9999999999999982 5.0000000000000009 3 4
leaf_count=3 4 6 5 3 4
internal_value=-0.000525344 -0.0532811 -0.0270295 0.133268 0.00102527
internal_weight=25 18 15 7 10
internal_count=25 18 15 7 10
is_linear=0
shrinkage=0.05


Tree=72
num_leaves=6
num_cat=0
split_feature=7 0 5 0 1
split_gain=65.9951 41.5635 42.8882 18.7178 8.76316
threshold=1.0000000180025095e-35 1.0000000180025095e-35 4.5000000000000009 2.5000000000000004 2009.5000000000002
decision_type=2 2 2 2 2
left_child=3 -2 4 -1 -3
right_child=1 2 -4 -5 -6
leaf_value=-0.18248158867766218 -0.097777680427797387 0.089141699960154863 0.21765070592655855 -0.041462010914673574 -0.021772566655787026
leaf_weight=4 2.9999999999999991 3 5 6 4
leaf_count=4 3 3 5 6 4
internal_value=-0.000482599 0.0654953 0.107198 -0.0996131 0.0256439
internal_weight=25 15 12 10 7
internal_count=25 15 12 10 7
is_linear=0
shrinkage=0.05


Tree=73
num_leaves=6
num_cat=0
split_feature=7 0 5 0 1
split_gain=59.6984 37.6295 38.7722 16.9222 7.93908
threshold=1.0000000180025095e-35 1.0000000180025095e-35 4.5000000000000009 2.5000000000000004 2009.5000000000002
decision_type=2 2 2 2 2
left_child=3 -2 4 -1 -3
right_child=1 2 -4 -5 -6
leaf_value=-0.17358004130968233 -0.093046504066836455 0.084828390613678945 0.20698155982821592 -0.039422897359386824 -0.020710488935796224
leaf_weight=4 2.9999999999999991 3 5 6 4
leaf_count=4 3 3 5 6 4
internal_value=-0.000475739 0.062266 0.101955 -0.0947681 0.0243739
internal_weight=25 15 12 10 7
internal_count=25 15 12 10 7
is_linear=0
shrinkage=0.05


Tree=74
num_leaves=6
num_cat=0
split_feature=7 0 5 0 1
split_gain=54.0027 34.0683 35.051 15.298 7.19271
threshold=1.0000000180025095e-35 1.0000000180025095e-35 4.5000000000000009 2.5000000000000004 2009.5000000000002
decision_type=2 2 2 2 2
left_child=3 -2 4 -1 -3
right_child=1 2 -4 -5 -6
leaf_value=-0.16511273558546857 -0.088544255687344475 0.080723789814979796 0.19683540358262902 -0.037484063557730839 -0.019700222189833475
leaf_weight=4 2.9999999999999991 3 5 6 4
leaf_count=4 3 3 5 6 4
internal_value=-0.000468877 0.0591951 0.0969697 -0.0901599 0.0231652
internal_weight=25 15 12 10 7
internal_count=25 15 12 10 7
is_linear=0
shrinkage=0.05


Tree=75
num_leaves=7
num_cat=0
split_feature=3 5 1 1 0 5
split_gain=48.8969 20.9992 7.31215 16.8675 8.22686 4.05265
threshold=1.5000000000000002 1.0000000180025095e-35 2010.5000000000002 2009.5000000000002 2.5000000000000004 5.5000000000000009
decision_type=2 2 2 2 2 2
left_child=1 -1 3 -3 -4 -2
right_child=5 2 4 -5 -6 -7
leaf_value=-0.16300881674453099 0.1051560221179839 -0.042533574384801542 -0.0074451684951782216 0.1051560221179839 -0.11763274996511396 0.16864337113595773
leaf_weight=3.0000000000000062 3.9999999999999991 4.9999999999999982 4 3 3 3
leaf_count=3 4 5 4 3 3 3
internal_value=-0.000462022 -0.0442791 -0.0192798 0.0128472 -0.0563643 0.110543
internal_weight=25 18 15 8 7 7
internal_count=25 18 15 8 7 7
is_linear=0
shrinkage=0.05


Tree=76
num_leaves=6
num_cat=0
split_feature=7 0 5 0 1
split_gain=46.1952 31.1017 30.0331 13.4151 6.88071
threshold=1.0000000180025095e-35 1.0000000180025095e-35 4.5000000000000009 2.5000000000000004 2009.5000000000002
decision_type=2 2 2 2 2
left_child=3 -2 4 -1 -3
right_child=1 2 -4 -5 -6
leaf_value=-0.15394233523345574 -0.083742706462888422 0.078436938408882384 0.18297124750473917 -0.03436684603573846 -0.019778674986304305
leaf_weight=4 2.9999999999999991 3 5 6 4
leaf_count=4 3 3 5 6 4
internal_value=-0.000776065 0.0543922 0.0905137 -0.0837427 0.0221214
internal_weight=25 15 12 10 7
internal_count=25 15 12 10 7
is_linear=0
shrinkage=0.05


Tree=77
num_leaves=6
num_cat=0
split_feature=7 0 5 0 1
split_gain=41.7697 28.2065 27.1497 12.1258 6.234
threshold=1.0000000180025095e-35 1.0000000180025095e-35 4.5000000000000009 2.5000000000000004 2009.5000000000002
decision_type=2 2 2 2 2
left_child=3 -2 4 -1 -3
right_child=1 2 -4 -5 -6
leaf_value=-0.1464329553813469 -0.079673544575672328 0.074641601116426523 0.17400206502746129 -0.032676669368978402 -0.018813863323956001
leaf_weight=4 2.9999999999999991 3 5 6 4
leaf_count=4 3 3 5 6 4
internal_value=-0.00077179 0.0516775 0.0860878 -0.0796735 0.0210214
internal_weight=25 15 12 10 7
internal_count=25 15 12 10 7
is_linear=0
shrinkage=0.05


Tree=78
num_leaves=6
num_cat=0
split_feature=7 0 5 0 1
split_gain=37.7673 25.5835 24.543 10.9597 5.64825
threshold=1.0000000180025095e-35 1.0000000180025095e-35 4.5000000000000009 2.5000000000000004 2009.5000000000002
decision_type=2 2 2 2 2
left_child=3 -2 4 -1 -3
right_child=1 2 -4 -5 -6
leaf_value=-0.13928988823076574 -0.075803291207492934 0.071029911502715065 0.16547255738108765 -0.031069622860580196 -0.017896113163087424
leaf_weight=4 2.9999999999999991 3 5 6 4
leaf_count=4 3 3 5 6 4
internal_value=-0.000767542 0.0490959 0.0818784 -0.0758033 0.0199745
internal_weight=25 15 12 10 7
internal_count=25 15 12 10 7
is_linear=0
shrinkage=0.05


Tree=79
num_leaves=6
num_cat=0
split_feature=7 0 5 0 1
split_gain=34.1478 23.2071 22.1863 9.90507 5.11772
threshold=1.0000000180025095e-35 1.0000000180025095e-35 4.5000000000000009 2.5000000000000004 2009.5000000000002
decision_type=2 2 2 2 2
left_child=3 -2 4 -1 -3
right_child=1 2 -4 -5 -6
leaf_value=-0.13249525965713871 -0.072122216932844402 0.067592980784754592 0.15736115469652062 -0.029541610889747494 -0.017023133359304287
leaf_weight=4 2.9999999999999991 3 5 6 4
leaf_count=4 3 3 5 6 4
internal_value=-0.000763322 0.0466407 0.0778748 -0.0721222 0.0189779
internal_weight=25 15 12 10 7
internal_count=25 15 12 10 7
is_linear=0
shrinkage=0.05


Tree=80
num_leaves=6
num_cat=0
split_feature=9 5 3 0 1
split_gain=31.7314 30.3632 18.5004 8.36777 0.496989
threshold=1.0000000180025095e-35 2.5000000000000004 1.5000000000000002 2.5000000000000004 2009.5000000000002
decision_type=2 2 2 2 2
left_child=1 3 -2 -1 -3
right_child=2 4 -4 -5 -6
leaf_value=-0.1958446871849798 0.015337769582237995 -0.001135558907578631 0.13068676485734829 -0.071171784016393833 0.015337769582237995
leaf_weight=3 7 4 5 3 3
leaf_count=3 7 4 5 3 3
internal_value=-0.000759126 -0.0548743 0.0574214 -0.136517 0.0153378
internal_weight=25 13 12 6 7
internal_count=25 13 12 6 7
is_linear=0
shrinkage=0.05


Tree=81
num_leaves=7
num_cat=0
split_feature=5 5 1 8 0 7
split_gain=29.1287 20.1089 10.4548 15.3151 10.9932 0.573913
threshold=1.0000000180025095e-35 5.5000000000000009 2010.5000000000002 1.0000000180025095e-35 2.5000000000000004 1.0000000180025095e-35
decision_type=2 2 2 2 2 2
left_child=-1 2 3 5 -4 -2
right_child=1 -3 4 -5 -6 -7
leaf_value=-0.1444794784630497 -0.021805719067068637 0.13725203121862103 0.0051985545856196719 0.10688458521191668 -0.11900768924144003 0.0044781165738259588
leaf_weight=3.0000000000000027 5.0000000000000053 2.9999999999999991 3.9999999999999991 3.9999999999999991 3 3
leaf_count=3 5 3 4 4 3 3
internal_value=-0.000761556 0.0191752 0 0.0281735 -0.0482549 -0.0113984
internal_weight=25 22 19 12 7 8
internal_count=25 22 19 12 7 8
is_linear=0
shrinkage=0.05


Tree=82
num_leaves=7
num_cat=0
split_feature=9 5 0 3 0 1
split_gain=27.2462 25.7586 15.723 16.359 7.83897 0.449592
threshold=1.0000000180025095e-35 2.5000000000000004 1.0000000180025095e-35 1.5000000000000002 2.5000000000000004 2009.5000000000002
decision_type=2 2 2 2 2 2
left_child=1 4 -2 -4 -1 -3
right_child=2 5 3 -5 -6 -7
leaf_value=-0.18333461823001981 0.013752819534758445 -0.0019063974299081939 0.024302136898040769 0.1688319956384054 -0.063126483655744955 0.013752819534758445
leaf_weight=3 4.0000000000000009 4 4 4 3 3
leaf_count=3 4 4 4 4 3 3
internal_value=-0.000709829 -0.050869 0.0531874 0.0983765 -0.12607 0.0137528
internal_weight=25 13 12 8 6 7
internal_count=25 13 12 8 6 7
is_linear=0
shrinkage=0.05


Tree=83
num_leaves=7
num_cat=0
split_feature=5 5 1 8 0 7
split_gain=24.9244 16.6577 9.61378 12.2439 9.79193 0.350145
threshold=1.0000000180025095e-35 5.5000000000000009 2010.5000000000002 1.0000000180025095e-35 2.5000000000000004 1.0000000180025095e-35
decision_type=2 2 2 2 2 2
left_child=-1 2 3 5 -4 -2
right_child=1 -3 4 -5 -6 -7
leaf_value=-0.13390532655100654 -0.016485752077663628 0.12494279723013602 0.0041454480915534796 0.09740837565282498 -0.11301501566363917 0.0038485434747511332
leaf_weight=3.0000000000000027 5.0000000000000053 2.9999999999999991 3.9999999999999991 3.9999999999999991 3 3
leaf_count=3 5 3 4 4 3 3
internal_value=-0.000952453 0.0174751 0 0.0270436 -0.0462465 -0.00828973
internal_weight=25 22 19 12 7 8
internal_count=25 22 19 12 7 8
is_linear=0
shrinkage=0.05


Tree=84
num_leaves=7
num_cat=0
split_feature=9 5 0 3 0 1
split_gain=23.205 21.8646 14.7157 12.667 7.34454 0.409239
threshold=1.0000000180025095e-35 2.5000000000000004 1.0000000180025095e-35 1.5000000000000002 2.5000000000000004 2009.5000000000002
decision_type=2 2 2 2 2 2
left_child=1 4 -2 -4 -1 -3
right_child=2 5 3 -5 -6 -7
leaf_value=-0.17177204009025324 0.012294906293842153 -0.0026461514031014786 0.027455567877467082 0.15517309409816091 -0.055823494734302627 0.012294906293842153
leaf_weight=3 4.0000000000000009 4 4 4 3 3
leaf_count=3 4 4 4 4 3 3
internal_value=-0.000891498 -0.0471948 0.0488327 0.093059 -0.116483 0.0122949
internal_weight=25 13 12 8 6 7
internal_count=25 13 12 8 6 7
is_linear=0
shrinkage=0.05


Tree=85
num_leaves=7
num_cat=0
split_feature=1 5 1 8 0 7
split_gain=21.9891 13.7199 8.9912 10.6294 8.75031 0.0382557
threshold=2008.5000000000002 5.5000000000000009 2010.5000000000002 1.0000000180025095e-35 2.5000000000000004 1.0000000180025095e-35
decision_type=2 2 2 2 2 2
left_child=-1 2 3 5 -4 -2
right_child=1 -3 4 -5 -6 -7
leaf_value=-0.12602327466011035 -0.0032371968519492203 0.11369328575749552 0.0031585943408128699 0.10631462681678035 -0.1075318315336781 0.0033083908019527299
leaf_weight=3.0000000000000027 6.0000000000000053 2.9999999999999991 3.9999999999999991 2.9999999999999991 3 3
leaf_count=3 6 3 4 3 3 3
internal_value=-0.00113693 0.01616 0 0.0264533 -0.0444223 -0.000493504
internal_weight=25 22 19 12 7 9
internal_count=25 22 19 12 7 9
is_linear=0
shrinkage=0.05


Tree=86
num_leaves=7
num_cat=0
split_feature=5 5 1 8 0 7
split_gain=19.9682 12.4153 8.14414 9.2622 7.93199 0.188237
threshold=1.0000000180025095e-35 5.5000000000000009 2010.5000000000002 1.0000000180025095e-35 2.5000000000000004 1.0000000180025095e-35
decision_type=2 2 2 2 2 2
left_child=-1 2 3 5 -4 -2
right_child=1 -3 4 -5 -6 -7
leaf_value=-0.12008050699387814 -0.011551688932904997 0.10819199912009701 0.0030045148802966609 0.086401681638345496 -0.10232868348398515 0.0031483081079298442
leaf_weight=3.0000000000000027 5.0000000000000053 2.9999999999999991 3.9999999999999991 3.9999999999999991 3 3
leaf_count=3 5 3 4 4 3 3
internal_value=-0.00106222 0.0154112 1.00853e-05 0.0252143 -0.0422395 -0.00545109
internal_weight=25 22 19 12 7 8
internal_count=25 22 19 12 7 8
is_linear=0
shrinkage=0.05


Tree=87
num_leaves=6
num_cat=0
split_feature=1 5 1 8 0
split_gain=19.114 11.1261 7.55551 8.68804 7.19056
threshold=2008.5000000000002 5.5000000000000009 2010.5000000000002 1.0000000180025095e-35 2.5000000000000004
decision_type=2 2 2 2 2
left_child=-1 2 3 -2 -4
right_child=1 -3 4 -5 -6
leaf_value=-0.11744539333928004 0 0.10295690394216968 0.0028579543276530945 0.096989645496491472 -0.097377293917440585
leaf_weight=3.0000000000000027 9.0000000000000053 2.9999999999999991 3.9999999999999991 2.9999999999999991 3
leaf_count=3 9 3 4 3 3
internal_value=-0.000995803 0.015117 0.000519354 0.0247993 -0.0401623
internal_weight=25 22 19 12 7
internal_count=25 22 19 12 7
is_linear=0
shrinkage=0.05


Tree=88
num_leaves=6
num_cat=0
split_feature=9 0 5 0 3
split_gain=18.1987 18.5949 9.49417 6.83036 6.70993
threshold=1.0000000180025095e-35 1.0000000180025095e-35 2.5000000000000004 2.5000000000000004 1.5000000000000002
decision_type=2 2 2 2 2
left_child=2 -2 3 -1 -3
right_child=1 4 -4 -5 -6
leaf_value=-0.15711972636561236 -0.041956180925587665 0.037933389878854515 -0.041956180925587665 -0.045939382430045826 0.13261469573509402
leaf_weight=3 4.0000000000000009 4 7 3 4
leaf_count=3 4 4 7 3 4
internal_value=-0.000929675 0.0430819 -0.0419562 -0.104014 0.0869441
internal_weight=25 12 13 6 8
internal_count=25 12 13 6 8
is_linear=0
shrinkage=0.05


Tree=89
num_leaves=6
num_cat=0
split_feature=1 5 1 0 8
split_gain=16.7415 9.10031 7.10993 6.72957 6.70452
threshold=2008.5000000000002 5.5000000000000009 2010.5000000000002 2.5000000000000004 1.0000000180025095e-35
decision_type=2 2 2 2 2
left_child=-1 2 4 -4 -2
right_child=1 -3 3 -5 -6
leaf_value=-0.10916348465027335 0.0027690878281226507 0.094373931231037267 0.00379092111820128 -0.093148187668092769 0.088695420757416765
leaf_weight=3.0000000000000027 9.0000000000000053 2.9999999999999991 3.9999999999999991 3 2.9999999999999991
leaf_count=3 9 3 4 3 3
internal_value=-0.000155766 0.0149094 0.00167214 -0.037777 0.0252194
internal_weight=25 22 19 7 12
internal_count=25 22 19 7 12
is_linear=0
shrinkage=0.05


Tree=90
num_leaves=7
num_cat=0
split_feature=5 5 1 8 0 0
split_gain=15.3008 8.22171 6.46121 6.6501 6.10084 2.50524
threshold=1.0000000180025095e-35 5.5000000000000009 2010.5000000000002 1.0000000180025095e-35 2.5000000000000004 2.5000000000000004
decision_type=2 2 2 2 2 2
left_child=-1 2 3 5 -4 -2
right_child=1 -3 4 -5 -6 -7
leaf_value=-0.10434152753122379 0.033031215975361419 0.089807454039973603 0.0036059984346715427 0.075945949699820547 -0.088641018059945856 -0.023871482821071849
leaf_weight=3.0000000000000027 3.0000000000000053 2.9999999999999991 3.9999999999999991 3.9999999999999991 3 5
leaf_count=3 3 3 4 4 3 5
internal_value=-0.000120621 0.0142729 0.00167686 0.0241348 -0.0359159 -0.00177133
internal_weight=25 22 19 12 7 8
internal_count=25 22 19 12 7 8
is_linear=0
shrinkage=0.05


Tree=91
num_leaves=6
num_cat=0
split_feature=9 0 5 0 3
split_gain=14.8013 17.2574 8.36935 6.55681 3.97647
threshold=1.0000000180025095e-35 1.0000000180025095e-35 2.5000000000000004 2.5000000000000004 1.5000000000000002
decision_type=2 2 2 2 2
left_child=2 -2 3 -1 -3
right_child=1 4 -4 -5 -6
leaf_value=-0.14722837017428489 -0.037122499260283603 0.043030377132136644 -0.037122499260283603 -0.038805802406803244 0.11763781338203244
leaf_weight=3 4.0000000000000009 4 7 3 4
leaf_count=3 4 4 7 3 4
internal_value=-9.75521e-05 0.0395749 -0.0371225 -0.0953616 0.0819432
internal_weight=25 12 13 6 8
internal_count=25 12 13 6 8
is_linear=0
shrinkage=0.05


Tree=92
num_leaves=7
num_cat=0
split_feature=1 5 1 0 8 0
split_gain=14.0861 6.64047 6.25757 5.73056 4.55888 1.69956
threshold=2008.5000000000002 5.5000000000000009 2010.5000000000002 2.5000000000000004 1.0000000180025095e-35 2.5000000000000004
decision_type=2 2 2 2 2 2
left_child=-1 2 4 -4 5 -2
right_child=1 -3 3 -5 -6 -7
leaf_value=-0.099461084796536259 0.036780971096407905 0.082265918677853003 0.0042634769183833429 -0.085114115092062168 0.077532882075155948 -0.0083531328889190157
leaf_weight=3.0000000000000027 3.0000000000000053 2.9999999999999991 3.9999999999999991 3 2.9999999999999991 6
leaf_count=3 3 3 4 3 3 6
internal_value=0.000149017 0.014347 0.00298667 -0.0339963 0.0250759 0.00638098
internal_weight=25 22 19 7 12 9
internal_count=25 22 19 7 12 9
is_linear=0
shrinkage=0.05


Tree=93
num_leaves=7
num_cat=0
split_feature=1 0 8 0 3 1
split_gain=12.7589 6.59454 14.9393 8.10214 2.06965 0.62104
threshold=2008.5000000000002 1.0000000180025095e-35 1.0000000180025095e-35 2.5000000000000004 1.5000000000000002 2009.5000000000002
decision_type=2 2 2 2 2 2
left_child=-1 -2 3 -3 -4 -5
right_child=1 2 4 5 -6 -7
leaf_value=-0.094648459649854993 -0.043222372415589093 0.04622596095247964 0.046494851573821036 -0.0207879566377209 0.10800184447590898 -0.055563564998347581
leaf_weight=3.0000000000000027 4.0000000000000027 4.0000000000000018 2.9999999999999991 3 4 4
leaf_count=3 4 4 3 3 4 4
internal_value=0.00014314 0.0136653 0.0267522 -0.00925467 0.0833721 -0.0418667
internal_weight=25 22 18 11 7 7
internal_count=25 22 18 11 7 7
is_linear=0
shrinkage=0.05


Tree=94
num_leaves=6
num_cat=0
split_feature=7 0 0 5 0
split_gain=11.6638 17.5399 4.73231 4.27432 9.21356
threshold=1.0000000180025095e-35 1.0000000180025095e-35 2.5000000000000004 4.5000000000000009 2.5000000000000004
decision_type=2 2 2 2 2
left_child=2 -2 -1 4 -3
right_child=1 3 -4 -5 -6
leaf_value=-0.082923751342587351 -0.041279821820778419 0.081460298852222723 -0.011793249161517033 0.092593550696676852 -0.011793249161517033
leaf_weight=4 2.9999999999999991 4 6 5 3
leaf_count=4 3 4 6 5 3
internal_value=0.000113374 0.0281306 -0.0412798 0.0571298 0.030147
internal_weight=25 15 10 12 7
internal_count=25 15 10 12 7
is_linear=0
shrinkage=0.05


Tree=95
num_leaves=7
num_cat=0
split_feature=1 0 8 0 3 1
split_gain=11.7656 5.36224 12.4925 7.2433 1.61288 0.557638
threshold=2008.5000000000002 1.0000000180025095e-35 1.0000000180025095e-35 2.5000000000000004 1.5000000000000002 2009.5000000000002
decision_type=2 2 2 2 2 2
left_child=-1 -2 3 -3 -4 -5
right_child=1 2 4 5 -6 -7
leaf_value=-0.091358967750303111 -0.038592460969599257 0.044006731742765821 0.044006731742765821 -0.019211452238021353 0.098216703781721801 -0.052277863316419648
leaf_weight=3.0000000000000027 4.0000000000000027 4.0000000000000018 2.9999999999999991 3 4 4
leaf_count=3 4 4 3 3 4 4
internal_value=0 0.0126562 0.0244713 -0.00842046 0.0762532 -0.0392809
internal_weight=25 22 18 11 7 7
internal_count=25 22 18 11 7 7
is_linear=0
shrinkage=0.05


Tree=96
num_leaves=7
num_cat=0
split_feature=1 5 1 0 8 0
split_gain=10.6501 4.94477 5.23987 5.83951 2.69187 1.07893
threshold=2008.5000000000002 5.5000000000000009 2010.5000000000002 2.5000000000000004 1.0000000180025095e-35 2.5000000000000004
decision_type=2 2 2 2 2 2
left_child=-1 2 4 -4 5 -2
right_child=1 -3 3 -5 -6 -7
leaf_value=-0.086938370043231503 0.031996235155290112 0.070631603223662229 0.0069729993983012883 -0.083288737266294405 0.062872704382865657 -0.0037268949336692935
leaf_weight=3.0000000000000027 3.0000000000000053 2.9999999999999991 3.9999999999999991 3 2.9999999999999991 6
leaf_count=3 3 3 4 3 3 6
internal_value=0 0.0120232 0.00218607 -0.0316346 0.0224264 0.00785212
internal_weight=25 22 19 7 12 9
internal_count=25 22 19 7 12 9
is_linear=0
shrinkage=0.05


Tree=97
num_leaves=6
num_cat=0
split_feature=5 0 8 0 3
split_gain=9.9261 4.99363 13.0268 8.51264 1.02337
threshold=1.0000000180025095e-35 1.0000000180025095e-35 1.0000000180025095e-35 2.5000000000000004 1.5000000000000002
decision_type=2 2 2 2 2
left_child=-1 -2 3 -3 -4
right_child=1 2 4 -5 -6
leaf_value=-0.083919296726103654 -0.037826372646703924 0.040604428837939001 0.047469942598808101 -0.052283008763047513 0.090169445516132721
leaf_weight=3.0000000000000027 4.0000000000000027 4 4 6 4
leaf_count=3 4 4 4 6 4
internal_value=0 0.0116192 0.0230317 -0.0145988 0.0702866
internal_weight=25 22 18 10 8
internal_count=25 22 18 10 8
is_linear=0
shrinkage=0.05


Tree=98
num_leaves=7
num_cat=0
split_feature=1 0 8 0 3 1
split_gain=9.20025 4.54886 9.7612 5.48841 1.00697 0.499608
threshold=2008.5000000000002 1.0000000180025095e-35 1.0000000180025095e-35 2.5000000000000004 1.5000000000000002 2009.5000000000002
decision_type=2 2 2 2 2 2
left_child=-1 -2 3 -3 -4 -5
right_child=1 2 4 5 -6 -7
leaf_value=-0.080790248993904273 -0.035981181481989387 0.038623731601528988 0.040378453654627645 -0.015061442313655728 0.085770936564701361 -0.046025270659749096
leaf_weight=3.0000000000000027 4.0000000000000027 4.0000000000000018 2.9999999999999991 3 4 4
leaf_count=3 4 4 3 3 4 4
internal_value=0 0.0111889 0.0220882 -0.00694025 0.067864 -0.0338583
internal_weight=25 22 18 11 7 7
internal_count=25 22 18 11 7 7
is_linear=0
shrinkage=0.05


Tree=99
num_leaves=6
num_cat=0
split_feature=7 0 0 0 5
split_gain=8.74641 14.2093 4.61847 2.1086 8.05541
threshold=1.0000000180025095e-35 1.0000000180025095e-35 2.5000000000000004 2.5000000000000004 4.5000000000000009
decision_type=2 2 2 2 2
left_child=2 -2 -1 -3 -5
right_child=1 3 -4 4 -6
leaf_value=-0.077196099699997314 -0.036149268811291983 0.080769376347704647 -0.0071481321678786977 -0.0071481321678786977 0.074209520571372076
leaf_weight=4 2.9999999999999991 3.9999999999999991 6 3 5
leaf_count=4 3 4 6 3 5
internal_value=0 0.0239587 -0.0361493 0.0503679 0.0337404
internal_weight=25 15 10 12 8
internal_count=25 15 10 12 8
is_linear=0
shrinkage=0.05


end of trees

feature_importances:
Column_5=160
Column_3=97
Column_1=91
Column_0=72
Column_7=51
Column_8=34
Column_6=29
Column_11=28
Column_9=12
Column_4=5

parameters:
[boosting: gbdt]
[objective: regression]
[metric: l2]
[tree_learner: serial]
[device_type: cpu]
[data_sample_strategy: bagging]
[data: ]
[valid: ]
[num_iterations: 100]
[learning_rate: 0.05]
[num_leaves: 8]
[num_threads: 4]
[seed: 42]
[deterministic: 0]
[force_col_wise: 0]
[force_row_wise: 0]
[histogram_pool_size: -1]
[max_depth: -1]
[min_data_in_leaf: 3]
[min_sum_hessian_in_leaf: 0.001]
[bagging_fraction: 1]
[pos_bagging_fraction: 1]
[neg_bagging_fraction: 1]
[bagging_freq: 0]
[bagging_seed: 400]
[bagging_by_query: 0]
[feature_fraction: 1]
[feature_fraction_bynode: 1]
[feature_fraction_seed: 30056]
[extra_trees: 0]
[extra_seed: 12879]
[early_stopping_round: 0]
[early_stopping_min_delta: 0]
[first_metric_only: 0]
[max_delta_step: 0]
[lambda_l1: 0.1]
[lambda_l2: 0.1]
[linear_lambda: 0]
[min_gain_to_split: 0]
[drop_rate: 0.1]
[max_drop: 50]
[skip_drop: 0.5]
[xgboost_dart_mode: 0]
[uniform_drop: 0]
[drop_seed: 17869]
[top_rate: 0.2]
[other_rate: 0.1]
[min_data_per_group: 100]
[max_cat_threshold: 32]
[cat_l2: 10]
[cat_smooth: 10]
[max_cat_to_onehot: 4]
[top_k: 20]
[monotone_constraints: 0,0,0,1,1,1,1,1,1,1,1,1,1,0]
[monotone_constraints_method: advanced]
[monotone_penalty: 0]
[feature_contri: ]
[forcedsplits_filename: ]
[refit_decay_rate: 0.9]
[cegb_tradeoff: 1]
[cegb_penalty_split: 0]
[cegb_penalty_feature_lazy: ]
[cegb_penalty_feature_coupled: ]
[path_smooth: 0]
[interaction_constraints: ]
[verbosity: -1]
[saved_feature_importance_type: 0]
[use_quantized_grad: 0]
[num_grad_quant_bins: 4]
[quant_train_renew_leaf: 0]
[stochastic_rounding: 1]
[linear_tree: 0]
[max_bin: 255]
[max_bin_by_feature: ]
[min_data_in_bin: 3]
[bin_construct_sample_cnt: 200000]
[data_random_seed: 175]
[is_enable_sparse: 1]
[enable_bundle: 1]
[use_missing: 1]
[zero_as_missing: 0]
[feature_pre_filter: 1]
[pre_partition: 0]
[two_round: 0]
[header: 0]
[label_column: ]
[weight_column: ]
[group_column: ]
[ignore_column: ]
[categorical_feature: ]
[forcedbins_filename: ]
[precise_float_parser: 0]
[parser_config_file: ]
[objective_seed: 16083]
[num_class: 1]
[is_unbalance: 0]
[scale_pos_weight: 1]
[sigmoid: 1]
[boost_from_average: 1]
[reg_sqrt: 0]
[alpha: 0.9]
[fair_c: 1]
[poisson_max_delta_step: 0.7]
[tweedie_variance_power: 1.5]
[lambdarank_truncation_level: 30]
[lambdarank_norm: 1]
[label_gain: ]
[lambdarank_position_bias_regularization: 0]
[eval_at: ]
[multi_error_top_k: 1]
[auc_mu_weights: ]
[num_machines: 1]
[local_listen_port: 12400]
[time_out: 120]
[machine_list_filename: ]
[machines: ]
[gpu_platform_id: -1]
[gpu_device_id: -1]
[gpu_use_dp: 0]
[num_gpu: 1]

end of parameters

pandas_categorical:null
